-1.117103431014743187e+00,2.016040038324853068e-01,-1.112572907594579608e+00,-4.332034614652506832e+00,8.098624462857727524e-01,-3.121243785997403375e+00,-2.165115836379542191e+00,1.027636794817190502e+00,-7.815052338272278298e+00,-2.175634630047398321e+00,4.006239464245666682e-01,-1.095501240786831421e+00,3.445476055231079471e+00,2.419621119426088818e+00,1.260338413061760976e+00,1.911714165409306609e+00,1.527888086655299904e-01,2.702190926892074518e+00,6.251814111910062088e+00,-8.008526851739294017e+00,-1.097014993972585728e+00,-5.631469974495622033e-01,2.252616097689684072e+00,1.452202129300654576e+01,2.627122369548527958e-01,-5.577168994276593850e+00,4.638282729025683393e-01,7.108899274132729484e-02,-1.253939551975159938e+00,-3.220494280218885397e+00,1.674268524502740663e+00,-4.536205671247590665e+00,-2.352996592982391277e+00,-1.488868072395368891e+00,3.645927549830171310e-01,1.059471461473760590e+00,-1.142393240979364899e+00,7.154643753832181652e-01,1.079604141430784647e+00,-8.769990804072026469e-01,-2.467794768596916377e+00,9.086893026498645831e-01,-1.966360787895005569e+00,-3.021143063102926449e-02,7.884567335068992655e-01,8.697164178454888095e-01,1.376599372738728011e+00,-2.092362998403161978e+00,-9.966805225916954836e-01,6.150017066473970395e+00,-1.702498997292654970e+00,3.208622175904975116e+00,1.979635689600261150e+00,-1.813722304274354258e+01,1.582901324877982674e+01,-5.168451850989847607e+00,-1.788851634735849627e+00,-1.734612811606979665e+00,-2.786551117932615007e+00,-7.554202147169855608e-02,1.203579440547327545e-01,4.369939037401956661e+00,1.567917053740622013e-01,-1.045727621024611587e+00,2.632112201920553951e-01,-2.729555803951849047e+00,-2.372343993135422657e+00,-5.126460784266372722e-02,-1.636861194292593344e-02,-1.416261583101509069e+00,5.311616814304731093e+00,1.771101532019131897e+00,-5.166516971515006773e+00,-1.199107526725472633e-01,-6.395967017899460316e+00,-8.661615266894410192e-01,-3.099442629721883335e+00,4.806086031577671558e-01,-4.370224639137357592e+00,5.699376530084833137e-01,4.647713062464051692e-01,8.273539602277154570e-01,-1.875367072665404533e-01,1.128867157922811115e+00,5.765852825460948683e-01,-1.360021089875232070e+00,-1.221712987541037965e+00,2.518546244906618270e+00,4.568540699298067942e+00,-3.382611395125859399e+00,-1.626118865861136076e+00,-8.440043084269646112e-01,-7.393007433667314610e-01,-7.867057781399497962e-01,6.561897238756533302e-01,2.335523173622467308e+00,8.966747522968629425e-02,-1.269525725389779869e-01,-2.201485466484196796e-01,1.198797086248998056e+00,-4.123024652277164637e-01,-5.777253274947047323e-01,1.142327017179025006e+01,-3.684595710619570141e+00,3.287221615123530616e-01,-1.135494667732800611e+00,2.461177392015659215e+00,2.981308333246626141e-01,7.397038598086308703e+00,-4.861539001151266581e-01,-1.196070211456236709e+00,2.090657995206412600e+00,4.087977438527550689e+00,-1.951339894590696034e+01,-1.114389246553652901e+00,7.930645758810151769e+00,-6.412206127603587991e-01,-4.685702894174080813e-01,-1.272400589921002201e+01,-9.653111147984702045e-01,-1.694880904066205229e-01,7.576795281685660965e-01,-3.945212956287559969e+00,-5.958390820878222804e+00,-3.565998937489012199e-01,-7.223759565373572000e-01,1.300448201316649066e-01,-2.554698644382617623e+00,-2.283849943846782082e+00,-2.043197305434480693e-01,1.940325398931319889e-01,-5.699472728598337090e-01,-3.605340730111623149e+00,-2.381518859377615094e+00,2.136918233832970360e-01,-2.061391050311559781e+00,3.336948598549898115e+00,1.818337255601315983e+00,-1.055586718660832535e+00,-4.549713634299741294e-01,6.066612690451568035e+00,-4.295739238470835275e+00,-9.027870130511708169e+00,-2.830912440523020823e+00,-8.705072953970374172e+00,-2.369976718035571306e+00,-3.295085677689973958e-01,-4.812826322595736173e+00,-3.010046301083786346e-01,-1.417134928958508011e+00,6.028923730062726527e+00,-2.172915552010700746e-01,2.733314929758206890e+00,-6.734579160268136633e+00,-5.756006345511772704e-01,2.846857362799897651e+00,-4.210417508279078902e+00,1.823721438960340890e+00,9.151921523409299875e-01,-9.867196733433807321e-01,-5.995317038678303900e-01,-1.700233896654112842e+00,7.602908610257675948e-01,-5.015446633837054025e-01,3.440704564536123833e+00,1.357555982337790068e+00,-3.367432633877298631e-01,6.740373365557277008e-02,-1.712666057813120757e+00,7.584983536442219121e-01,-2.287242690430714820e+00,1.337206613831574964e-01,-3.483169797703504766e+00,-1.156553540697900395e+00,-1.515237489523289405e+00,-1.327150883106833490e+00,-1.659619423291215812e+00,2.749319698628446496e+00,1.293216494874614542e+00,-1.410558206867859043e-01,7.171041660853572086e-02,-1.197129518663859082e+00,4.475940199161332900e-01,-1.163734499935554556e+00,6.581174666615112745e-01,1.525752881654736015e+01,-7.573099257744178026e-01,-1.705115118031705235e+00,3.024546514439270695e+00,-4.669647834922649565e+00,1.852795362265767576e+00,-5.499960786652064115e+00,3.640150255130772949e-01,-1.965775327210227408e+00,-9.110606284132672927e-01,-2.944336274527820763e+00,-2.712449708632593381e+00,-2.075495039184053481e-01,-2.118933650257979751e-01,8.062912393324862537e-01
1.775660197545805508e+00,2.348512686950281481e+00,2.627558612165254992e+00,2.747982435087326092e+00,2.102939721875738410e+00,-1.425080488557425307e+00,-2.104384289691948462e-01,1.113108958749794652e+00,5.230860826621591464e+00,6.776285979686273997e+00,2.140423261864989879e+00,2.716932673128663822e+00,2.112428635517375142e+00,2.374400991914162873e+00,1.747146292283854097e+00,-3.045887739969317942e-01,3.534027287554897701e+00,1.409009753965606349e+00,-5.636254733269041139e+00,2.983936424873999904e+00,4.363861246662279036e+00,2.447535425554872468e+00,-7.382148088464365543e+00,-1.462256141980968849e+01,1.924144092854813692e+00,-9.587194139343344190e+00,3.847153320822187084e+00,-7.148001234832686013e-01,1.041395052338360605e+00,1.050158624411190234e+00,5.029910771943704617e+00,7.351978364245063347e+00,2.989697383190654367e+00,2.428687427199579307e+00,4.318519221691691889e+00,2.801932444331984851e+00,4.082610502693050925e-01,-1.846849288520688415e+00,2.271083220924806856e+00,2.664918508825678600e+00,1.426591019827968099e+00,2.021499413387541910e+00,6.697046840757550079e+00,3.483864474020522461e+00,2.498168529787416325e+00,1.467669997104184887e+00,1.406244939118708626e+00,2.484125550543110794e+00,6.416536675983276261e+00,-2.143322480594032964e+00,6.221985176284111851e+00,2.072801501580161521e+00,2.631147649776008457e+00,-1.367736605946718198e+00,-1.063751884407791337e+01,3.815959279161292184e+00,-7.842697728058610762e-01,4.844178074781173571e+00,5.808363793378593654e-01,2.212792722738437856e+00,5.769118644879627639e-02,-1.659393071310069967e+00,2.937225096120775536e+00,3.137211164643858741e+00,1.980438002017759880e+00,5.150104849142206120e+00,5.437521010743301630e+00,1.545174082251028480e+00,1.750473958723093526e+00,9.267927818737949908e-01,-1.251056495835370708e+00,5.700270249949437318e-01,1.062015777401593697e+00,2.118998604572993827e+00,1.140558802549959339e+01,4.722016906541449011e+00,1.370131671902939496e+00,2.429603115109410627e+00,7.243448214255687745e+00,2.078958419373611033e+00,4.366720990344110653e+00,4.037512332616516098e+00,2.228884892714827703e+00,2.467088517776737433e+00,2.412998486330275583e+00,4.477769898160088857e+00,2.337736289616069829e+00,-6.885030464691613616e+00,1.517008572996202842e+00,-3.539697344286110603e+00,-2.363208555972279579e-01,1.613476076722669683e+00,2.309470193105905178e+00,1.624789183622973310e+00,2.885735936658285539e+00,-5.824922682343530056e+00,1.777206625625591840e+00,-1.018723452326884306e-02,1.372623625192796570e+00,-3.658869273433591474e-01,1.734292429065877439e+00,1.755728743435777117e+00,-2.442140757177261889e+01,3.215757075998871173e+00,2.833405385397866461e+00,-7.622289132366433684e+00,-1.649343118495627758e+00,-2.054447945182002577e+00,-5.167186348191467715e+00,2.310702041048448230e+00,9.396105715761133848e-01,2.439166588291389104e+00,-8.765490108907728839e+00,3.940540548813380450e-01,3.038450267354736223e+00,-6.517321957710138669e+00,2.221168211944259507e+00,3.460003165009495341e+00,9.501277724982417183e+00,2.860512094025340790e+00,4.268506719844368469e+00,2.299198580742570108e+00,1.535035954198831876e+00,1.090563727640548181e-01,5.582077048022023869e-01,1.796035172021512860e+00,2.525101444381666393e+00,-9.444251023592074024e-01,2.098884934501652921e+00,3.283395228329494042e+00,-7.976885073566506001e+00,-2.748477142387588223e+00,-1.207633068885253236e+00,2.964068821017800115e+00,3.648404122662678439e+00,3.834855765452410914e+00,-1.431017337540418932e+00,1.588359476624070510e+00,2.876806445458294892e+00,1.908442409658655192e+00,-9.545694926788543810e+00,-8.741858581742544265e-01,1.261552685906402616e+01,3.442115804149898040e+00,-1.657096744621490103e+01,4.243917567339830832e+00,3.892208429331207586e+00,3.847587645507971832e+00,4.816880002006579176e+00,3.510121664824245258e+00,-6.345939279426453083e+00,3.090536758035376863e+00,2.274513549036844662e+00,5.540322559337726993e+00,3.735927528331291381e+00,2.750415541322971169e+00,7.704167959518180453e+00,1.397082661663300973e+00,-1.495711609440474044e-01,-1.557425901201174412e+00,2.820202911195827777e+00,2.627481934858064250e+00,-2.401782355987284845e+00,4.371695922957029801e+00,-1.009935791370611818e-01,1.415434010087867955e+00,-7.668413887231210202e-01,3.804194380121650898e+00,3.352211353051215870e+00,7.797525838623972083e-01,2.153935649328771462e-01,2.354804946683905609e+00,-1.280193692056177390e+01,2.963211721681588084e+00,4.416590624519601604e+00,5.340246101927736078e+00,4.730049428220665320e+00,-1.196772217226731660e+00,2.594992981398303922e+00,1.960976558992548302e+00,3.000319630523648140e+00,3.637744096122883519e+00,2.482432786448483863e+00,1.233629191812522397e+00,2.158735033775257328e+00,-2.580648306584258123e+01,1.878535962961905004e-01,1.783017205915055747e+00,-5.049513153047699099e+00,1.478298477743871242e+00,-2.875729719428657294e+00,1.399914324793897435e+00,1.736516042557358697e+00,-1.851807031828434313e+00,3.964466375680894661e+00,5.770320993535772658e+00,8.989024326400331111e-01,3.345841804500401917e+00,2.536403905656867241e+00,2.703152395266216867e+00
7.207876648946167641e+00,9.866821326288500726e-01,2.306711578951639030e+00,2.771992123186319823e+00,-3.608136032601073628e-01,-1.268977556881501378e+00,-9.280289007281238511e+00,-1.328360173174540471e+00,2.982468855051328305e+00,2.627733116512715128e+00,1.270853939258343557e+00,-8.207517238822685801e-01,-3.176232069178975825e-01,3.237439526124203937e+00,-3.334682182139306228e+00,7.912071704408694950e-02,-1.014459369073322272e-02,3.794677109219827815e-01,-3.228633869533066747e+00,1.528702268660957486e+01,-2.721936649267737707e+00,3.669717015734739740e-01,-1.370669364676903035e+00,5.487745255003713574e+00,-1.455657288732318699e+00,-1.353717014099923865e+01,5.984757126724180587e-01,-6.667427193738368896e-01,2.420311649159187173e+00,2.376130772784342593e+00,9.214432702764042693e-01,3.837751876718043520e-01,-2.152600658349276053e+00,-2.928246021849594261e-01,1.142471992085536847e+00,-5.412141162976230602e-02,8.159778474265125814e-01,-5.192921649938170292e-01,7.598413377086951082e-01,3.811129075369118491e-02,2.019562520447846676e+00,4.511700239825685577e-01,1.359276005250179775e+00,-9.200275496594648716e-01,2.588045363542172961e+00,-2.720061684080389841e-01,-1.681958411595732228e+00,8.523351599452687610e-01,1.595310110709992069e+00,-2.150072210799382155e+00,2.138227744099426175e+00,-3.025063213352255920e-01,-1.809882924537856486e+00,-1.572029333535103568e+01,-1.422445662088758489e+01,1.299729498030812280e+00,-2.225812369632164778e+00,-8.278343046574244968e-02,5.874242176168357199e-01,-2.488286263706342427e-01,-2.533233231634411942e-01,1.036091958295093596e+00,-9.675839489964452866e-01,-2.211333495133301241e+00,6.369379865897383253e-01,5.568119896694788684e-01,-6.792705851235286696e-01,-5.614888870260201781e-01,-2.067447680315739778e+00,1.325241799143458632e+00,-3.162847209999775089e+00,1.000919178716680236e+00,6.660657647232897105e-01,-3.627569271777242754e+00,4.761453523573348612e+00,-2.165256347295907782e-02,4.686196488903945356e-01,-3.463282063924922327e-01,2.277645714224579010e-01,-2.613619824396002933e+00,9.707035564985696530e-01,-2.099917378561712678e+00,-1.457941806279298369e+00,-1.071095708450582551e+00,-1.560915656994078304e+00,4.012727563503206696e-01,-4.540726786267922921e-01,1.840095107108465911e+01,-6.511823784251555836e-01,-1.222970478576839826e+00,-5.658188279055100800e-01,1.547239616847556898e-01,-4.293181891935772543e-02,-3.209399019526483876e+00,2.363927311263447351e+00,-2.062489479256532032e+00,-2.978748293167484462e+00,-6.895337424312094621e-01,-9.350679668411071566e-01,-1.910598806227244317e+00,4.883481036541940656e-01,-4.610420511681367906e-01,-1.715448426791516923e+01,-3.337910440927422506e+00,-1.493830830021268263e-01,-4.871479454989222191e+00,-4.005099632655456432e+00,-3.376151570313242534e+00,-3.734033284936431496e+00,-2.751632723526001190e+00,2.654985774879103477e+00,-6.680366825744135095e-01,7.418063098409899858e+00,-8.113198494386415049e+00,-1.688432630140974666e-01,-1.977079551295053639e+00,-7.673534742322879465e-01,-1.509081556628604215e+00,2.857732930175705732e+00,-8.291255501939913397e-02,2.192161229507787468e-01,3.173962116940415856e-01,-2.106748096148270299e+00,-8.621194345874498843e-01,-1.351351274563612703e+00,-3.058592322020000642e-01,2.590628179139954912e-01,2.648323049939645291e+00,6.740940352403579361e+00,-8.865657141589347034e-01,9.072867972509778056e+00,3.129538966251259602e+00,2.104710711370400222e+00,5.511972791341420042e+00,-1.898125659498805795e-01,-1.241773122523507134e+00,-6.338386875894410188e+00,1.545126818780488298e+00,-8.027406073808970310e-01,-2.376446001029259403e+00,-6.438366777311735234e+00,-3.965812880705150700e-01,-4.953973397064854289e+00,1.374051044625255846e+00,-1.408087589155642405e+01,-8.548710899292016885e-01,-9.247267213914734940e-01,1.003615190463586604e+00,-6.336590283407512736e-01,-5.264031759868885718e-01,5.741342813459305860e-01,4.979918210388095678e-02,2.151647283725268145e-01,2.113165151535279784e-01,1.870773029262624565e+00,6.478884577471119677e+00,-3.647362095537023841e+00,-2.211336926343224096e+00,-9.694924156168304163e-01,2.186185236011207955e+00,-3.827967682902927438e-01,-1.055150539081012306e+00,1.438480019659429843e+00,3.931227539446389696e-01,1.162175639070494260e+00,4.639800316205591052e-02,-1.120614981000791710e+00,-4.310872360044405993e-01,-9.688723095848685851e-01,-1.716427958194984171e+00,-2.218456181110789238e+00,3.637999845308281244e-01,1.686870140255636841e+01,1.052368560830553301e+00,-1.838295477546896817e-01,-8.022662900030119726e-01,7.076649720987456815e-01,-1.993104283279808708e+00,-5.054018682653373951e-01,-5.965163189579340136e-02,-1.636964932108012860e+00,-6.059050364283909973e-01,6.548008199904625792e-01,-6.558335734368223591e-01,-5.467626173241736387e-01,-2.195736295718613285e+00,4.760427508677139485e+00,7.121953463079662150e-01,6.838648292565794762e+00,2.050591444634209393e-01,-6.875846621603767250e-01,-4.879403748831568244e+00,-1.027921614518020332e+00,4.033947306686037848e+00,5.941152784917445029e-01,2.139591032373391322e+00,4.995493118595854654e+00,-6.707681480722963441e-01,6.087716891493474280e-01,-1.289092528530352944e+00
-2.262565981765286782e+00,1.122339808749822865e+00,-3.819788256820896954e+00,-1.409409928888869512e+00,6.726576792534577631e-01,-5.524105885564636331e+00,1.110493133491011797e+01,-9.167364221886302456e-02,6.245664764834996774e+00,-2.888634536978371692e-01,1.090101902647009124e+00,7.497788264630059762e-01,-3.386947593268990753e-01,-4.854510997625144930e-01,-6.134224834641268664e-01,-1.612752512578957687e-01,-1.295157038386302917e+00,-3.405598622624886884e-01,-7.554663170612925249e+00,-8.648913800762130677e+00,1.364033133949612120e+00,-9.954271659846015696e-01,1.661860438127842343e+00,-2.146524281011650270e+00,9.326254864076408690e-01,-2.358560559238983956e+01,4.307343143379439576e-01,1.277238938278144609e+00,3.965820721132055304e+00,-1.499928909952173983e+00,3.469371767145295049e-01,-3.270985525769083413e+00,-2.342584611735871736e+00,-1.164390682726815784e+00,-5.570482207973301847e-01,-1.094001219993871565e+00,-2.736787940207247249e+00,-2.619953485220149147e+00,-7.044262933268498061e-01,1.894610562956673405e+00,-2.253886276320915982e+00,8.390208668233772871e-01,-1.029285971207902078e-01,9.170831220267194883e-01,7.626712948780186574e-01,-2.392956689423465511e-01,5.485763268613762511e-01,1.914362099288801966e+00,4.996163579849788761e+00,7.254264377853308909e-01,-1.168646476780501153e+00,1.329325432163841247e+00,-1.359442282084348808e+00,-1.915742955977934869e+01,-1.148640203132864102e+01,-2.055639263041123821e-01,-2.221747933071062331e+00,1.580634718430991237e+00,-8.098008702056085362e-01,1.662957203172119147e+00,-1.812588039392037664e-01,7.901079217828120838e-01,9.269087352641797173e-01,-5.063013215184560822e-01,-1.295335094135205978e+00,7.255971637539835317e-01,4.823062268741811209e-01,-1.586715450992548959e+00,-4.067317423457483816e-01,-1.810581728274339941e+00,-1.124086435990215449e+01,-9.260240387892083591e-01,1.094187997087614272e+00,-3.013831121073109909e+00,3.378297767232019577e+00,1.628227599238928569e+00,-4.648825849848560843e+00,-1.934527689284560314e-01,-1.534900798347926809e+00,-1.241434901816439673e+00,9.406077605697641397e-01,8.312737034362560617e-01,-1.378827877571198179e+00,6.957347534911286768e-01,7.210184690651465222e-02,1.586479811815792118e+00,-5.912150410029554104e-01,2.392997315217674448e+00,-4.833661302750655309e-01,-5.448703962271698842e+00,-2.780080996590885256e+00,-7.876621000953001328e-01,-1.019771139034114205e+00,-1.523543055359277920e+00,5.494181461575394776e-01,-1.880221571173502859e+00,8.957605412328810690e-01,-1.459357927283346124e+00,-1.418620534487758045e+00,-2.265372188978942880e+00,-9.628885199776199277e-01,-5.362301132874046639e-01,-4.373669154094433353e-01,3.447522223074314329e+00,-3.313599502225155202e-01,2.797362983082052335e+00,-1.848750848112113543e+00,-1.102272971624014941e+00,-1.452526798408989173e+01,9.480057911154934347e-01,-1.863400504665539692e-01,5.870124148545976528e-01,-7.880211203499764672e+00,2.090693552684561585e+00,-9.827127100948823690e-01,-2.531609533819961300e+01,-1.626450705476690378e-02,1.186516232911986712e+00,1.160279402117915915e+01,-3.986856594043626800e-01,1.057236729290955912e+00,-4.177551889964828402e-02,-1.614354965089102256e+00,5.651935233016555316e+00,2.427079328785577417e+00,1.677926775191315167e+00,-7.137658642990534208e-01,-1.696292371970913537e+00,-1.096783850967649299e+00,1.074690040437256355e+00,5.835429915569729786e+00,-2.166601999625659136e+00,3.860629623660976950e+00,2.312582545600709860e+00,1.388362832716620032e-01,3.351690511479712420e-01,-7.519711521321903458e-01,6.336516646424371624e-01,-8.639063953997231371e-01,-1.609194251390748009e+00,2.042122753988681261e+00,1.418992817691927311e+00,-3.138709690192030166e+00,-1.346551360416263332e+00,6.700651180896089798e+00,1.530595412672104860e+00,-6.375093950410780641e-01,5.464755052024244719e+00,-7.500564076882428877e-01,-4.301137220364365521e-01,2.619849622049912341e+00,-6.589415455527263266e-01,-6.990733141844359677e-01,-1.486040902712403522e+00,-1.322112864337341709e-01,2.049358134601405812e+00,2.441427834015348797e+00,-7.540977753002863437e+00,5.524105309018974286e-02,-1.436930487333645701e+00,-1.394522341190036485e-01,-9.849009139640758914e-02,-1.956670022131409503e+00,2.060583650001827749e+00,-1.459695786543454776e+00,-5.525081820747188566e-01,1.731552846701354120e+00,-3.491431610372568439e-01,-7.708597673023293018e-01,-1.410183812625849908e+00,-5.087735236897819924e+00,5.711987584993298839e-01,-9.778354447709045161e+00,5.968792355696278529e-01,2.839836126805075356e+00,-9.659491398465442913e-01,-5.048317929155036188e-01,5.170559163711754835e-02,2.664199345095072738e-02,-3.381623100030228257e-01,3.268121977979396992e-02,7.931053360598108171e-01,2.938018428450835107e-02,-1.826448903162449788e+00,4.890099046232896374e-01,-2.098118964825157029e+00,-3.651905943408876531e+00,1.245226189032014319e-01,-1.010851780498837948e+00,-6.677054011614554918e-01,-7.938394744812778958e-01,9.233170008078747770e+00,-8.797078037495333902e-01,-2.333454336375865523e+00,5.268206003282990268e-01,-4.331503332236303905e-01,-3.091590510960270599e+00,-7.590019482971465115e-01,1.324632588379510700e+00,6.255504790876318388e-01
1.407512729269558394e+00,1.548962419648123090e+00,2.594674369522399271e+00,3.218779401111899752e+00,1.598271138546770276e+00,7.135165684508702810e+00,4.454973746080747254e+00,2.493047873637099343e+00,-1.091334166255564231e-01,1.894500011294286468e+00,1.321697127146206130e+00,2.592936410864564944e+00,1.614424476381918883e+00,2.330740909513831838e+00,1.850812815079253770e+00,1.726629534587756476e+00,3.048741265946592893e+00,2.562404586938336060e+00,8.437624910308974435e+00,-2.680137341574194476e+00,1.565215347030959769e+00,2.329257590077379536e+00,-2.801203918126675685e-01,5.209271766343889887e+00,2.170458948007827793e+00,6.247609913861975173e+00,3.228391187546933772e+00,4.017783624583596058e+00,1.730092582653868005e+00,4.812482332355188519e-01,2.689731736306010035e+00,2.019886190774473622e+00,5.053842113754925869e+00,3.893938328875677701e+00,1.631690309335620759e+00,1.961000749219180550e+00,1.255643512456727784e+00,2.831872340567231028e+00,1.781597023349682507e+00,2.601972380796590656e+00,2.249041481799103348e+00,1.483117910443056742e+00,2.697195480617192054e+00,2.869617897194972400e+00,9.196281836284742051e-01,1.490025151480714793e+00,2.911077691698012337e+00,1.559774014847426837e+00,2.179664696267654911e+00,5.513099550963690199e+00,1.776586183382794726e+00,2.934965797337992566e+00,1.302284838619046203e+00,4.534546734294234227e+01,5.369110834369824836e+00,4.933199567725386814e+00,8.963304370696647538e+00,2.819072701713955631e+00,3.293889793389193965e+00,2.224302799144195930e+00,2.640760403772133280e+00,2.992514974196640587e+00,2.339549497636687292e+00,3.128664245299820568e+00,2.285857960534379618e+00,2.839239898298641762e+00,2.373418676137099226e+00,3.396741325369011300e+00,3.948192077351299289e+00,3.692687291340896572e+00,2.459484593548634468e+00,1.089789507074708119e+00,2.812947871685824719e+00,4.406246551179894944e+00,4.159540712196563739e+00,2.229938460426698299e+00,5.253780608587312884e+00,2.041017439361630270e+00,3.388840061438474383e+00,2.559614133515622836e+00,2.374568498473143219e+00,2.703371511912358915e+00,2.137703269081919544e+00,2.445072137672846146e+00,2.487790598205900316e+00,2.758699588937889136e+00,4.314324365482377743e+00,-8.483404170620724827e+00,1.989108145327206145e+00,7.832363897958396493e+00,3.277832803023467356e+00,2.829601099436406031e+00,2.256133992698447166e+00,3.294786850702211556e+00,2.127590695696794931e+00,4.705477709201771219e+00,2.310146763499319356e+00,1.890002155635666536e+00,2.536768975465861775e+00,2.966317911220698544e+00,1.948942786279851846e+00,2.383318320355280129e+00,-1.933603907862994831e+01,5.107468530886063007e+00,2.310942966519795139e+00,1.354854650856450959e+01,2.896835879172335204e+00,3.812371233531542725e+00,1.154620630887518651e+00,3.380574803110188764e+00,1.895586470125706358e+00,1.470416350154139185e+00,-5.317844490493934373e+00,4.918631393687804554e+00,2.246002569227154577e+00,8.589854019234211435e+00,4.332226348929926196e+00,2.443893672012890761e+00,-1.452723069077374918e+00,2.492982056298740812e+00,2.385157490106432299e+00,1.276972550308365539e+00,4.496930762600311660e+00,7.205815651003491418e+00,4.888128568463471879e+00,2.777420126070960560e+00,1.638972005789944619e+00,2.952629842729958654e+00,4.107413617283524054e+00,1.912051799992336099e+00,1.371192747395659772e+00,4.625916962318315839e+00,2.868885007755762384e+00,7.939911175563409973e-01,1.880922309761188016e+00,2.542330733778727314e+00,1.571324066652433737e+00,1.800826354185957268e+00,3.760160280154106083e+00,2.599073774476510224e+00,8.430898558800420162e+00,5.948895981207985351e+00,-6.189331580117857223e-01,2.710549334162126289e+00,8.866109519837149122e+00,4.406096919891762553e+00,2.501508826625641557e+00,3.489030769945568711e+00,2.306566724514921507e+00,2.322004523933855147e+00,2.824355774939623753e+00,1.668943173537388081e+00,7.937533446873238363e-01,6.919339149387021770e+00,2.552923363732214845e+00,4.417540246110698732e+00,3.016258560870252126e+00,3.278909200726963569e+00,2.511504575753310764e+00,2.180945723919025969e+00,3.013779652020000199e+00,4.219114000437707901e+00,3.243876398839484310e+00,1.924614815797754730e+00,2.662828199795232109e+00,1.398627209777540070e+00,2.413421689339359411e+00,2.710804956065657301e+00,2.397078514344556321e+00,3.171591509264186204e+00,2.231405096600223015e+00,1.932261067246902719e+00,-3.511914695531864528e+00,2.065403218127468854e+00,6.808873542356420394e+00,2.251194197675576270e+00,2.492367157207443285e+00,4.432742805499136018e+00,2.346903799871188578e+00,2.004340527843184727e+00,2.607086715626823814e+00,2.151081396569103354e+00,1.331479603597524042e+00,3.746917460119130627e+00,1.695702627080957869e+00,1.250202167417776522e+01,1.983509263910864906e+00,2.603025003276248306e+00,1.512223093738086055e+00,4.711939271280916053e+00,2.862558950594045637e+00,7.017158220385308454e+00,2.470212151307555004e+00,4.351990606721362731e+00,2.361972109112946416e+00,2.554393333127852106e+00,1.647257905083728602e+00,2.242111133937036094e+00,1.373259367025941202e+00,1.083629067195301943e+00
-1.665366170140916813e+00,3.960988442486580441e-01,-1.189696201604642622e+00,-1.090215539064576022e+00,4.795119634120554863e-01,-1.677902141333938113e+00,-1.317042877514579047e+00,6.320933531293427832e-01,2.517031589213585718e+00,-2.830638497022072153e-01,-4.587171128380573837e-01,6.649677559266224947e-01,1.785704192809806523e+00,2.250880479987281468e+00,1.480027276915533374e+00,-3.340940934492830361e-01,7.887071293284741991e-01,9.640605431760862487e-01,-7.114367998320989539e-01,1.257840857621866482e+00,1.223545395594581642e+00,5.857472428795296171e-01,3.483553974357674887e-01,3.081197964755962193e+00,7.812524069033689456e-01,-1.584316173664853444e+01,1.045474477656737955e+00,8.843357972766469066e-01,-1.224298545601953281e+00,-1.267323390262442284e-01,9.422958183111531660e-01,6.160168231238755815e-02,6.417230076482222101e-01,-1.814852244003724024e-01,2.240088281275557591e+00,9.968714668708064663e-02,2.647860588436252716e-01,1.626162180862387618e+00,6.134771197885872107e-01,-2.459450705123712201e-03,7.354884082069225448e-02,1.045818671125505528e+00,-7.996295719899267906e-01,1.341179099809921560e+00,-6.396530448732379304e-01,8.690168351445962669e-01,1.787506230916467320e+00,-6.517556272840875353e-01,-6.991427181761966647e-02,-2.117554269878724416e+00,1.101731912504509303e+00,6.560959645926338346e-02,1.745281724813690927e+00,9.109615464098132165e+00,-9.000604206582947242e+00,-1.828953733918678770e+00,1.662897329537944779e+00,2.106734638431210449e+00,2.416127640954968819e-02,1.908403132107600320e-01,2.260364620348183362e-01,-1.405820830155997569e+00,5.220008529144580800e-01,1.278041724983949967e+00,1.483750806028903413e-01,-5.946406388019647160e-01,2.441291854645340376e+00,3.148924564595949604e-01,1.436040920093921924e+00,-6.922297321195139963e-01,4.851650518408466617e+00,-1.544915912932594837e-01,-4.556693582312308366e-01,1.456324336827653054e+00,-1.344240860247317038e+00,1.059185026371582267e-01,-1.502826221914368210e+00,8.307422996071369692e-01,-9.389719614086847743e-01,1.113713962011720904e+00,3.565925857472067306e-02,4.105391272536726421e-01,9.251847351608228909e-01,2.284816597073309197e-01,1.703179188286704671e+00,7.642443399292061512e-01,-6.348983521998290414e-01,-1.939394352344855577e+01,2.018877435481091887e+00,-1.123609477771601695e+00,-1.037126630977241559e+00,-1.024102687557021163e+00,6.226228217790762409e-01,-8.026864422854012027e-01,-9.596676781080422103e-01,1.012664483635665080e+00,-3.087929416073650901e-01,1.397969183090609135e+00,1.070882162203887988e+00,1.113611195923699393e+00,-3.853864142490971700e-02,4.593594694891878771e-01,1.346185272334576410e+01,-1.593145736184531591e+00,1.297714365489160526e+00,2.731637557933256133e+00,1.209930320239630097e+00,3.537799007488381942e-01,5.544799918616790002e+00,8.843612551491324414e-01,-1.225572687994117782e+00,7.954343550998103085e-01,8.452569143749650848e+00,-1.919974743933435946e+01,-3.253575669309187735e-01,-1.231370063229754308e+01,5.534617209094544465e-01,9.816546463540978262e-01,5.398296550417883033e+00,3.234286902199340341e-01,5.915355250107616758e-01,2.411160317621048252e-02,8.553691486759065654e+00,3.361629868105619146e+00,-1.200457005137491651e+00,1.026662060855204617e+00,3.860346412860437963e-04,-6.925579739715375105e-01,-1.305207891887061766e+00,2.224614644714949796e-01,-1.520140436766193304e+01,-1.677893776869747056e+00,-1.289563349548655591e+00,-1.695374560368619887e+00,1.535751812526326754e+00,3.909359947716709582e-01,-1.334990475457745962e+00,-1.929485871447304546e-01,-2.184881111495763917e-01,-8.615129227307798121e-02,-5.991033298505044763e-02,-8.474991047733806404e-01,-1.488295321004205807e+00,-5.368619456980079363e-01,1.833797602166014684e+01,-4.990452102566242942e-01,1.157987996175308343e+00,8.935115830481293875e-01,1.775855903280481707e+00,-1.421024218766757108e-01,1.287907489622895696e+00,1.801407002456280049e-01,1.258512177373377394e+00,-3.469615879670444158e+00,1.150228883637882449e+00,-1.525086972496981552e+00,4.140203435783932906e-01,7.878364552087242068e+00,1.608757982136356679e+00,-9.664118128475148728e-01,1.827804931943110445e+00,-1.291195994263505842e+00,-8.461867125681814539e-01,6.332229636819756147e-01,5.915178447433400155e-02,-1.737344855064851257e-02,6.986408447137556488e-01,1.009063114606541856e+00,3.082809003161205829e-03,5.160503811323505774e-01,-8.342556702859247331e-01,-3.653687045073007456e-01,-1.995685693491218604e+00,4.268447224379174898e-01,-1.962982806431216920e+00,2.279593919194226270e+00,3.076900648595434773e-01,1.702750031736067204e-01,3.943888137392771998e-01,7.205016101872946388e-01,1.234838110948123513e-01,6.168401327290435887e-01,1.195598626748763493e+00,-2.534155844042141892e-01,9.721995958764713397e-02,-3.370863170936778452e+00,-1.960710250620528949e+00,6.335276782090120129e-01,-2.008910096217633612e+00,-8.121774934089666109e-01,2.807035837051974347e-01,-1.933250490151891876e+00,1.559904718961160897e-01,-2.019256674675447893e+00,7.963189503362691490e-02,8.563597195101639858e-01,-1.806779575569362084e+00,1.607505938115836530e+00,3.012103835927255058e-01,-1.920604146209865803e-02
2.875509885099157170e+00,-6.582991789462384613e-01,4.974657698563116348e+00,3.873617569644336012e+00,-4.852560767792216678e-01,7.131095716352823466e+00,5.347556562828414961e+00,2.600904952371441148e-01,-6.163456821571841715e+00,-1.125244202438673069e+00,1.018477842294672531e+00,-1.259024707030586242e-02,9.544715935665076811e-01,4.974811598845255145e-01,-1.594051055681315054e-01,1.310999648087207925e+00,1.612397571903228188e+00,8.175384046326681364e-01,2.564449136966526765e+00,3.413411829238177209e+00,-3.872536553419690386e-01,1.570543596378584761e+00,3.399644803765174750e+00,-3.589017216046153980e+00,8.359091121962469728e-01,3.028050586645804998e+01,1.301646955870445321e+00,-2.230183689909392530e+00,7.447737039676378679e-01,1.749204047438395415e+00,-3.340714399860860162e-01,-7.448107684081164415e-01,2.637643933858779821e+00,1.310134893260616273e+00,-2.405903669880782303e-01,1.447358613614362355e+00,-1.720871310524574982e+00,9.233451583418997854e-01,1.994423815093007701e-01,4.959172208795988301e-01,3.392593145093974805e+00,1.219178573583086678e+00,1.701612500564707808e+00,4.205732799933367683e-01,9.663950075529635919e-01,1.117537776842655761e+00,-6.073480918005643575e-02,-1.401892225318132512e+00,-8.393176203719302508e-01,7.613699928258209626e-01,1.315775194409766480e-01,1.531027590083438028e+00,3.393345809216514186e-01,-6.057246699617597763e+00,-4.062240727831036402e+00,3.530997019186977948e+00,5.675794614415164974e-01,2.695033883949038866e+00,1.071305221009574593e+00,-5.716412742841410211e-01,-2.793176264881134685e+00,3.352767716835595713e-01,-1.516047387138542146e-01,1.618048842364562256e-01,-4.020935254499057865e-01,-2.869372384492848038e+00,-5.938502269690643098e-01,8.602175787658188355e-01,1.428445662850630349e+00,6.456604146231339492e-01,2.023631801948763798e+00,1.916852821846806165e+00,9.744917218508427625e-01,-2.120811297177266075e-01,-6.024564119161674586e-02,1.660051475920143460e-01,2.461113233124044619e+00,1.583375879485382498e+00,2.321093114681149316e+00,7.745500324702172534e-01,-1.666351283213746148e-01,1.843469085603912372e-01,1.529448066291028363e+00,-3.997074709828131178e-01,-1.043759182901695393e-01,-2.194475354741215467e-01,6.596260370259676709e-01,-1.103140118723827179e+01,9.611383017058058309e-01,2.569841815893561865e+00,3.239380036412459418e+00,6.267951569460484817e-01,1.086344859401090712e+00,6.136714846575745952e-01,1.959769125318092442e+00,4.248675293124288821e-01,-1.133524756260232857e+00,-2.475034319282237161e-01,4.027160972323907684e-01,1.825903660826531327e+00,1.778366824090114040e+00,1.537996335866482545e+00,-3.687838594882563825e+00,-2.488508039358759139e-01,2.383296346745837013e+00,-5.612337192599280655e+00,1.606359132094150599e+00,7.531017176195491380e-01,-8.870900100632271190e+00,-4.051538546445419553e-01,2.493348524716598735e+00,-1.141727360925688828e+00,-4.746909605008275967e+00,-1.635878388870357369e+01,3.410328169576075652e-01,5.820964147372627018e+00,-1.138579412225869808e-01,-6.356465371952474408e-02,3.360190219355910557e+00,2.359344255535548829e+00,-5.427989652710898394e-01,3.381929312667008025e-01,5.232147719846016898e+00,7.835349342692391694e+00,-8.605622051347099344e-01,8.187524880473348032e-01,-2.383949698449226631e-03,-8.616504437917484882e-01,1.655813500336197786e+00,-3.312930292701257162e-01,7.864723602516880518e+00,1.694016921804248677e+00,-2.052963755411631119e+00,-1.067999321468921625e+00,3.038641177594165188e-01,3.654339380388405556e-01,3.820908938955494882e+00,7.699562485765245601e-01,5.033712785701940362e-01,6.844820004615443931e-01,-9.208098481338300445e+00,-4.914990768720567949e-01,-2.623106367922603432e+00,9.523818092799233304e-01,6.488350689449970510e+00,-4.548972811249974990e-01,2.538673498013911956e-01,-3.725125558614800436e+00,2.720015918297884916e+00,1.677262034066479890e+00,-9.268188880173720889e+00,5.109493535669679121e-01,1.072637715033996075e-01,-2.313445213791732957e+00,2.016250680677246887e+00,-2.351368853074618404e+00,-1.233452847746564052e+00,1.283813571949440624e-01,-6.372798922760375406e-01,2.282860950801146149e+00,7.100175140320721390e-01,1.262555089712181333e+00,-1.350126779854971426e+00,8.164473200301651801e-01,1.100160511122033169e+00,3.960597383545624295e-01,-3.435008116919801680e+00,1.188561376262204483e+00,1.597898183494951940e+00,4.506196709470055572e-01,5.140705370969480548e+00,8.116505426099719367e-01,1.127262014441132898e+01,-5.827212599792740422e-01,-9.415310573053845999e+00,2.865398257405571969e-01,5.259472577210757560e-01,1.690461486672928046e-02,1.003779559999723459e+00,6.263415538159626816e-01,9.304790791459122135e-01,1.151763642526865139e-01,-4.664834908343274966e-01,2.063373456220363611e+00,-9.116017298077033759e-02,-1.414465632885968027e+01,2.042133895392956422e+00,1.831127134781769694e+00,1.881214390235261824e+00,6.724608552181241539e-01,6.807559715359613683e+00,-2.717630611407809926e+00,3.879131118554611790e-01,5.024252069160056067e+00,9.599445096924802412e-01,6.649121192911539024e-01,6.179122114668503585e+00,1.275911163310206708e+00,9.682148372515393397e-01,-3.077060593958408918e-01
-6.304925923166598167e+00,8.146458676488866901e-01,-1.093069099075083317e+00,-2.068025286789894945e+00,1.541912068337754294e+00,-6.619552827111246929e-01,-6.515468135828974550e-01,1.490277398441181678e+00,-2.803354805757298340e+00,3.698746938012446167e-02,5.615121948025442178e-01,3.348756941825415279e+00,-1.278417018997158205e+00,1.807580864199757498e+00,-8.683028343653229619e-01,1.720930994484374477e+00,2.114770852312898075e+00,2.346409623960531654e+00,-5.754265226778229270e+00,2.920914769528783594e+00,-8.142965219468103477e-01,9.541474836180346975e-01,-3.489967988562018064e+00,-1.285966213728494267e+01,2.673225520706284719e+00,1.619632545539076540e+00,1.387627373943467468e+00,-1.121663315925835347e+00,-1.664376293292418652e+00,-2.245601393305947102e+00,2.383675180620083989e+00,8.442255586022305858e-01,1.449724406708003732e+00,3.421662077846138184e-02,3.081551488984290099e+00,1.400981970263582399e+00,8.622961863988001241e-01,-2.122259053665681294e-01,1.280042405640168024e+00,1.629090683425819419e+00,1.532859300809052971e+00,1.183943410388677703e-01,9.911823323653259354e-01,1.813215670021769643e+00,-7.484029273891359413e-01,1.031237261275467887e+00,3.371149849400020826e-01,2.302242787628590914e+00,3.095922678346403611e-02,2.244571475509178349e+00,1.061495849114368895e+00,2.637731054701024647e+00,1.918021378842975189e+00,-2.763064371512446371e+01,-1.731041019242354650e+01,4.655993885235230501e+00,-8.553485081670749723e-01,2.666468203715010254e+00,2.951453406633511189e+00,1.555827148632095813e+00,-3.589305311001308230e+00,-8.991309824041983090e-01,9.302210496863765332e-01,1.397095896929973602e+00,2.359656544697077862e+00,5.987458590295134719e+00,2.070940968907234669e+00,-5.355702384677527572e-01,-8.638494308463694205e-02,-1.660416005762132441e+00,-8.180649512967551829e+00,2.917596009646645019e-02,-1.485974616750166621e+00,5.149301221704519094e+00,1.983676686410948742e+00,2.073579495043331722e+00,-3.457719089259264633e-02,-3.096587278643703200e-01,5.935228864953979722e-01,-5.313201794771583719e-01,1.442943560620041588e+00,2.276283687698486435e+00,7.574031671417912337e-01,9.044806908682531121e-01,3.843667579208280838e-01,2.259856056986580430e+00,1.520581039783915234e+00,-1.413250485226210662e+00,8.820228143817493427e-01,-2.857787553575446005e-01,4.481385394309699066e+00,-1.587963879943970480e-01,2.338198124412858903e+00,-5.182558890755994269e-02,1.472139806572596021e-01,-4.671944624186271100e-01,3.083572001776482274e+00,-1.390483355313478109e+00,9.064669795481391512e-01,-1.155635916959665971e-01,1.159237502084794924e+00,3.460060154385115605e-01,4.758391074779368957e+00,6.089038662114679035e+00,2.826207248409352335e+00,-1.974626347459175868e+00,-3.673010908588543177e-01,-3.519605615180655955e-01,3.900539342748023497e+00,9.894550754224390454e-01,1.304215912554742340e+00,2.432434153106665331e+00,5.486744168696116475e+00,1.252645830757937517e+01,1.921033403226101610e+00,-7.610347113591065416e+00,-1.756978649448453389e+00,1.335716613616544146e+00,-8.966925837987840708e+00,2.218114652767538164e+00,2.695734031890617111e+00,7.274391425262981548e-01,1.052171047665064751e+00,-1.169644329323094212e+01,2.189270241944953899e+00,-1.317961298597126463e-01,1.076704586510375927e+00,-5.714606472323604525e-01,2.399419186457285302e-01,1.014004208154011044e+00,-1.920651473883840410e+01,-3.696723159080227195e+00,-9.477164535397853973e-01,1.428100175197606125e+00,4.448524966278447623e-01,2.873255270513860538e+00,5.758830568736533762e-01,3.328918322834568955e-02,6.395716539617638530e-01,2.461098848515591922e-02,5.327531902967803212e+00,3.105898357279061717e+00,-1.206235950748740393e+01,1.017964700167014014e+00,-1.217187498753329322e+01,-8.403400555235381875e-01,1.567111615345550435e+00,2.267618235623896528e+00,7.192774709504479169e-01,1.792025187648113915e+00,-3.910268517985735492e+00,2.418154480534933093e+00,2.525883778187857365e-01,3.809812983143641141e+00,1.601665141371505507e+00,1.636971054321664232e+00,2.387423979327111923e+00,5.123861396548969438e+00,-8.307600606422572698e-01,-9.904854314563809048e-01,2.771043461204623970e+00,-4.208977959205671970e-01,-1.092065558794320879e+00,5.657437410753803908e-01,2.379401234423853317e+00,1.111554995614436825e+00,1.874196353286526673e+00,1.761265340479709174e+00,5.590039580619813320e-01,1.734777216081368367e+00,3.481660508995155112e+00,8.123226723012555439e-01,-1.711728640108764310e+01,8.016506762816616449e-01,6.712555674208693368e+00,2.825422716968578829e+00,1.744366472045409511e+00,2.566673845796156317e-01,1.609341591471346034e+00,2.698582299776368210e+00,2.284172035922745092e+00,1.075919792306121447e+00,2.017803342345179551e+00,1.298275787588063945e+00,5.457089280069026271e-01,7.136048283946953674e+00,6.158420579300775133e-01,2.492482212207510539e+00,8.308143442305000459e-01,-8.227107619433485786e-01,-1.596247755469696772e+00,1.583080127842068974e+00,6.320678935704268642e-02,-3.933018112012575340e+00,1.794160885677115402e+00,-8.272292593019451301e-01,-1.726614010398518362e+00,2.104943660487625046e+00,9.168594031246257714e-01,2.787627809207686713e+00
1.587821816440543765e+00,-9.744005627850016449e-01,-1.736234077764550410e+00,-1.067923991546713580e+00,-9.125950042037305199e-01,-1.056128965572785239e+00,-4.149344873475452999e+00,-1.793173498325407733e+00,9.647286885869217343e+00,4.814019234845143824e-01,-8.822799265590216544e-01,-2.170043580686020324e+00,-8.996563913094305365e-01,-3.633587011599797911e+00,1.478093045623403434e-01,-2.002658306017010670e+00,-2.204359810350969173e+00,-3.073883206791066414e+00,-4.824233664601999649e+00,-1.189369409613754147e+00,1.469526011665231724e-01,-1.862683627883547244e+00,2.300863485349422088e+00,-5.345115938174136438e+00,-2.065761903603621885e+00,-4.002350738137296915e+00,-2.659963265070979688e+00,6.661110410535875381e-01,-2.026184671211977317e+00,2.114438925717449624e+00,-1.428447923931538188e+00,1.028787847716565285e+00,-3.535064504695282661e+00,-2.081959209644677511e+00,-1.081290461088443511e+00,-8.952903712733222275e-01,2.766695185278337021e+00,-7.569638014462128917e-01,-1.341086403417191208e+00,-2.379011552197358714e+00,-2.151159871817643676e+00,-1.204980574007027849e+00,1.041876130704876419e-01,-2.680726543725905131e+00,1.311617961870389093e-01,-1.079324694663790662e+00,-1.231573824764895519e+00,1.435772998377777276e-01,1.180604522032876885e-01,-7.595432103034356786e+00,1.055787532447387093e-02,-3.299245061656820521e+00,-1.329027866413123316e-01,2.992758768175658446e+01,3.136476159832188859e+00,-4.539428846141021268e+00,-1.159447739570584668e+00,-2.003604380736584201e+00,-2.117395754489847182e+00,-1.693631500282177793e+00,3.462040193156062706e+00,-3.979092728441144811e+00,-1.573788326681190730e+00,-4.639034731368978925e-01,-1.391984061675558326e+00,-1.615488506333841556e+00,-9.516346284563050872e-01,-1.622926114315846213e+00,-2.096624464197216930e+00,1.924729614368324293e-01,9.694116573375101353e+00,-9.716666687496274823e-01,1.175141182388903083e+00,-4.179535893674352742e+00,-2.021561798769044405e+00,-1.056282334370189702e+00,-4.994420835684099114e-01,-1.561335742276610761e+00,-6.855805763676853237e-01,-9.788774849989357874e-01,-9.678731836386990084e-01,-1.060721651463065740e+00,-1.110639206713372573e+00,-1.888099511680869647e+00,-8.716130922682229221e-01,-2.487198062356016148e+00,-2.652640764614050184e+00,7.617424585384380720e+00,-2.010167885892165884e+00,6.219380757133705639e-01,-3.100667531840647584e+00,-6.841166405498469993e-01,-1.691168038489645031e+00,-6.611286283817331411e-01,-2.077876694329725993e+00,-1.878423906501042406e+00,-9.811090040392936862e-01,1.462933733230662003e+00,-1.009766256455190581e+00,-1.710941025474444599e+00,-1.549442391140442687e+00,-1.449275875945441827e+00,1.059000341924529565e+01,-4.429145514285878882e+00,-2.196584303518010373e+00,-1.980698859231543540e+00,-2.020281383113647244e+00,-2.315528833902477768e+00,9.250570737207324257e+00,-1.651363563736865547e+00,-2.303747927589430589e+00,-8.108909960431784913e-01,4.736516866594888242e+00,-8.628898034008157580e+00,-1.128600276832625537e+00,-1.095457022301443395e+01,-3.545511730276159623e-01,-1.691774187673750207e+00,-1.547172762594204665e+00,-2.017428617947436997e+00,-1.716531316904128524e+00,-1.975521761354855632e-01,-7.762112528550367152e+00,-6.102525516166040775e-01,-5.796868627776428085e+00,-2.025734212289431291e+00,-4.225807878327088041e-01,1.340830116626439361e+00,-7.313518534165900142e+00,-7.525388007716918848e-01,-7.505382291608332146e+00,8.469624629361024448e-01,1.689058957669200556e+00,2.482792431151286117e-01,-1.162128380645598424e+00,-1.377213722891318604e+00,6.905550259103839794e-01,-1.644012871453188529e+00,-2.288515932916245443e+00,-1.043961171110312725e+00,-5.679658819952897453e+00,-2.275191441003150850e+00,6.344276126969864649e+00,-1.489724464308488372e+00,-7.929762479481201609e+00,-1.216897165929352154e+00,-1.584324683429111147e+00,-2.347482495178107254e+00,-5.241000977903160774e-01,-1.338463961148193437e+00,3.533475563167790323e+00,-5.894274559415534354e-01,3.478583073521924196e-01,-9.466108518563336460e-01,-2.649776507089035338e+00,-6.249580199241706602e+00,-3.936764671283872197e-01,-5.973325227893017120e-01,4.226161843667312068e-01,-2.783654155941727160e-01,-2.627552308702343797e+00,-2.583414675627991208e+00,1.133369512785119770e+00,-8.261222074988299191e-01,-3.355294942384178469e+00,-8.749548424577461292e-01,5.103873391452402597e-01,-2.175109837285747805e+00,-9.064553399000199185e-01,-2.066566660458314608e+00,-5.912455449676520258e-01,-1.537185508958935465e+00,-4.115196159294756129e+00,-8.397809166769532041e-01,-1.351142830961551189e+00,-1.063280532041817716e+00,-1.477277690485842454e+00,-3.189363954592937755e+00,-1.384974257098663619e+00,-1.384588265019966791e+00,-1.816876656267186751e+00,-9.868116327014269107e-01,-6.686416478197906299e-01,-2.693081462513690738e+00,-7.136828175307208255e-01,-2.640990574711310401e+01,-7.884252698230496958e-02,-2.804778823515305053e+00,-2.282122355890730425e+00,9.910724611153416408e-01,-3.288674115917073593e+00,-3.950271648483168807e+00,-7.498702562397223659e-01,-1.026574213835248051e+00,-1.321026558221376934e+00,-9.333111523867871906e-01,-7.908587488908153107e-01,-1.730639753703171690e+00,-6.653731054097306030e-01,2.916246492387489231e-01
-1.563299496040038594e+00,-1.979910167225797657e-01,-1.107109834144314187e-01,8.955384375334367597e-01,7.933336134701354236e-01,2.550842760731646841e+00,3.482931433459381498e+00,3.595410119340775035e-01,1.706574915476969379e+00,5.398825674987379752e-01,-6.060443506759555232e-01,-1.383490726651030386e-02,-1.429879660138514419e+00,-2.353712784812749259e-01,1.012390288233978808e+00,-2.338029899565187975e-01,2.217775268260373966e+00,-2.716031887852565774e-01,7.791472909532706770e-02,3.062749000640399011e+00,2.376289419096149214e+00,9.910141386338009450e-01,1.203056559142271054e+00,-7.519071775282080594e+00,4.980536601286227327e-01,-1.116512727387952886e+01,2.540007234683801851e+00,1.917867704563770870e+00,-1.129950044195249692e+00,5.143149336026374696e-01,4.373275963648180498e-01,4.622369002748316191e+00,1.868256657139705013e+00,1.131034939931262473e+00,-2.776325906157295353e-01,1.989125706713065767e-01,6.686967763341464810e-01,4.750933874461363976e-02,1.481106038632966360e-01,1.526941939408946736e+00,1.140641809326848222e+00,-3.796716660621888839e-01,1.385988224841727012e+00,1.365842473588059436e+00,-5.385070300342270633e-01,-6.744450999307992356e-02,-4.467165972852201183e-01,-1.219853667311262407e-01,1.386012921002835796e+00,-4.609171399002917613e-01,8.220803780912093461e-02,-9.508258137740353000e-01,-6.985237688460322891e-01,1.627921131501329999e+00,-5.017512519703877238e+00,4.333081088007691761e+00,1.412951254739236440e-01,3.974197270233794099e-01,5.152115753211730098e-01,1.066158435285418093e+00,1.704260472202896892e+00,-1.865015637045879027e+00,4.324657569825155479e-01,6.313201060630141415e-02,1.635198485367401755e-01,1.573927780602827342e+00,-2.063308451639909724e-01,2.384346705744744277e+00,1.221736447235695300e+00,6.737865753485980935e-01,-7.959543687677496093e-01,-4.646697748876456591e-01,1.852308106056486325e+00,9.911818623316923649e-01,1.971167042907801203e+00,7.253514121982718166e-01,2.660509745861350694e+00,1.006724593086194830e-01,2.280460472413389006e+00,4.646872575720015774e-01,1.422697964717130947e+00,1.370089304585368373e+00,1.468282012930182123e+00,8.109783508658015005e-01,-3.899815127053605224e-01,4.480051035747945609e-01,-2.319831031622222872e-01,-5.933769625472931075e+00,-1.020756335877987420e+00,5.069779110483293216e+00,2.298646262671392826e+00,2.110135818731542767e-02,3.297621957272821036e-01,5.767716773180496803e-01,-2.755357605857912784e+00,-6.734828636344065700e-01,7.308494983338286177e-01,-7.035629401828995266e-02,1.175519735756897832e+00,6.884598676336856071e-01,6.711150774947050035e-01,2.639310010361668457e-01,-3.212441290217319168e+00,2.259133481364935747e+00,1.892605473488969958e-01,6.483772877106104282e+00,6.341266361272385188e-01,1.726197523880118379e+00,-2.004415798059477005e+00,3.817677561844515233e-01,3.346393532984228147e-01,-2.295721260222090554e-01,-1.548483626710870809e+01,8.271686857213710553e+00,1.720714784149413923e+00,-6.448687790503553785e+00,3.292903448271473632e-01,4.415640117573764178e-01,-2.184397250338471252e+01,6.931145621515026889e-01,6.164045174354683132e-01,1.116923945428818232e+00,-1.072999854446041595e-01,2.038203881792307381e+00,2.773749684254543268e+00,6.479710223519705159e-02,1.073318601860116406e+00,9.405414624501668985e-01,2.610000125864119003e+00,-1.693546344068261600e-01,-1.818781611265584408e-01,1.304926873844341584e+00,1.578759511199099297e+00,-3.044660310852998486e-01,4.011050003179573720e-01,4.892192528132292551e-01,3.108155157483464492e+00,-3.240621145603869713e-01,2.204035176135531238e+00,1.870798675777481934e+00,-4.056099644883175870e+00,3.643427411380701031e+00,5.189350782702927489e+00,1.032178773888637435e+00,2.278802816296838785e+01,1.880242362279326729e+00,7.076086248750226293e-01,1.537955029661897788e+00,1.158003128691874384e+00,3.309328065318730139e-01,2.807791847341282176e-01,5.038369472215384892e-01,5.341268959269803718e-01,4.776678229053551661e+00,1.078126010171607668e-01,-6.524769003645320975e-01,3.839428635321596062e+00,-3.215765643327189061e+00,-6.715310964134844074e-01,5.106973977173322465e-01,-9.693280330842746206e-01,2.695863970720979719e+00,3.549147267125021266e-01,-3.554697148638280013e-01,1.205868262788344081e-01,-2.782595271146347526e-01,-5.266600062241004743e-01,8.124726982960008836e-01,5.128905083994612646e-01,2.214833060966894529e-01,3.748161534352268731e+00,-8.980449333953234581e-03,-2.815051537061942000e+00,-3.680484763737930654e-01,-3.566242607241996293e-02,-1.983366727824060431e-03,5.728780772904729091e-01,1.134187197198270214e+00,1.075689779083049080e+00,-6.539855958455663698e-01,1.326991014824195902e+00,8.026334349482348862e-03,-7.315239649436056091e-02,1.252041990219888490e+00,-1.233480247757669929e-01,-1.447174370415328326e+01,-7.256844619842761634e-01,9.011667646739205395e-01,-3.278096896034345953e+00,2.006126357571931695e+00,-1.194298750709773538e+00,6.438394676782360548e+00,8.264742278761144645e-01,1.730053761428848702e+00,9.836308016979044000e-01,-3.583567079941953337e-01,-2.931535949166256816e-01,1.045127608058062041e+00,1.136315452524123831e-01,1.244522881563344230e+00
