9.662545908250735893e-02,-2.842314749735567192e-01,-2.991658434284863999e-01,3.962139427073838593e-01,3.927496561653950197e-02,-2.213933779553288114e-02,-4.188676969370148662e-01,-3.938476597777204047e-01,2.318289473151559643e-01,-1.116619317200300832e-01,2.158378035992238320e-01,-1.441114078089146822e-01,3.299256903912299865e-01,4.306962541084282670e-01,3.654694894789807247e-01,3.713245106722556921e-01,3.879535103055431478e-01,1.486283833403017618e-01,2.536770062036611817e-01,-2.886764265182166778e-01,1.245619313539915868e-01,-2.820221644941327543e-01,-6.038530163849323978e-02,1.486437928141435827e-01,2.325238708085150818e-01,-1.043865271769348069e-01,1.107626280816686737e-01,-2.854455632101150497e-01,-5.235913699314279773e-02,2.340896660210396163e-01,1.691821347936253717e-01,-3.352039082316528029e-01,1.754392844996943146e-01,-5.117464953633146241e-01,-2.642566159931006298e-01,-1.250391201594642232e-01,3.990765463878348518e-01,2.645678723661916143e-01,3.728672464170710299e-01,-4.038232248628573773e-01,3.741355840643590946e-01,2.142572588876555037e-02,-2.113691548944586773e-01,-2.650651942412158846e-01,7.175862980768674126e-02,-1.189974751655581975e-01,-1.129583200764756323e-01,3.398065656239469545e-01,7.813540971611346309e-02,-2.647926743059972887e-01,2.761019909115031146e-01,1.053458854463353300e-01,6.470991669230125032e-02,-2.566471576039055513e-01,-2.397548736723385532e-01,2.904990504670461604e-01,2.953447742193338055e-01,-4.815272707119184342e-02,-4.322208363529936870e-01,4.201471107776639791e-01,1.519571860603505242e-01,-9.184788739053323381e-02,-2.888332915933023992e-01,-1.157791768888039585e-01,-1.999291980989493234e-01,-4.384520549514837606e-01,4.582829224567084303e-01,1.205109932462926359e-01,-2.477078525185139879e-01,2.518167883520653350e-01,-3.276433483767118848e-01,-6.147591192020023139e-03,-1.378218947271183659e-01,-2.712066122535450319e-01,1.405574369416984770e-01,4.320118948186135732e-01,-2.176038119301048346e-01,-3.378398193581229059e-01,2.880715851166597563e-01,-3.616021685242915007e-01,-4.749792038916273995e-01,-3.266767062956320994e-02,-9.092296817323303193e-02,-2.219030306375578410e-01,-4.949483099552246523e-01,-2.767625408951762678e-01,-7.996165383550651873e-02,-1.204589583199870417e-01,-3.878971637144483786e-01,-1.164508741796703162e-01,-3.121249729057159680e-02,-2.705851904521469967e-02,-4.027185516773451046e-01,1.834911547350425928e-02,-1.232367390697143017e-01,8.655161761235731499e-02,-1.982095297334939832e-01,2.903961747710748775e-01,3.984797795636422779e-01,2.572869931971449309e-01,-1.042905019914986409e-01,-1.053985372945362847e-01,-3.057319425053070527e-01,-3.528887475753992309e-01,-3.254535028320904022e-01,3.290638379323179152e-01,3.755346455521960808e-02,-3.857116014845177743e-01,-2.398385632641364916e-03,-4.994828836900089969e-02,-2.842072812007296889e-01,2.174760567979264203e-01,-2.629189875980568747e-01,2.881817944389052366e-01,-7.006659074394187836e-02,-1.545049726735198692e-01,-5.712079223230427313e-03,-4.513713503227190921e-02,-4.643689761888705192e-01,-3.888068669695371460e-02,3.175974093141722410e-01,-1.316104003623998486e-01,8.572229750632825995e-02,3.338613400323784952e-01,2.782767144023136699e-02,4.580964968422474243e-04,3.863971641854502814e-01,-4.190008868353964910e-01,-2.780834530184165265e-01,-8.991419220069381615e-03,-3.626608259668610557e-01,-4.193346581098834069e-01,-3.583779065712529022e-01,6.367595435297524788e-03,-8.946678184747620943e-02,2.957796585777593829e-02,-1.678012139846120354e-01,-2.743184624104624270e-01,-4.069444929068356531e-01,-2.105582742093657367e-01,1.659257655857623859e-01,-8.412934931849763709e-02,-6.179078203731439706e-02,-3.266904042291961935e-02,-3.463638179676248319e-01,-2.929807612089887700e-02,9.717033271389265148e-02,-4.856220403091803250e-01,-1.057989034199487144e-01,-4.546876860324135516e-01,-2.734339253689351268e-01,-5.006181683449776321e-01,-4.300861147085264791e-01,4.338654725401099727e-02,8.446081590034962283e-02,-2.795621615632891133e-01,-2.615958319127777432e-01,-1.302280393422835802e-01,1.393318335294575772e-01,3.562156367960133685e-01,-4.638265089392967222e-01,4.906686447140585355e-02,-2.649775476127094742e-01,5.967943695193306947e-02,-3.116826663847793721e-01,-2.001438337181341010e-01,4.062028922506072393e-01,-2.171373420313542080e-01,4.523335873718375977e-01,-2.427653904541152152e-01,3.504752426513261243e-01,4.632524245401833940e-01,3.900398593658100377e-01,6.569882032735765987e-02,-3.827838256805711215e-01,3.326120352492779597e-01,4.644446886544171260e-01,-1.152796020749759578e-02,4.327931662410399172e-01,1.843911160361178525e-01,2.151053088383885481e-01,3.571234017319468990e-01,-8.920298314215480140e-03,2.703372978276999405e-01,4.837286687514253947e-01,-1.050244906149816297e-02,2.964578486592004958e-01,-2.702438723452184610e-01,-1.289954089149001615e-01,-1.005736375098240654e-01,-2.641220986681822036e-02,-1.269200198290406645e-01,1.310642973482819829e-01,-5.005720417403566325e-01,-7.096530532378464429e-02,-3.810958844791415556e-01,-4.499184050833618942e-01,-5.533803860498723998e-02,3.766964037610299743e-01,-2.359040112421635083e-01,-3.205982500142109948e-02,-6.772818762937132808e-02,-4.337186067734505879e-01,3.989801999258633103e-01,-4.397902860062220115e-02,-1.237479991413760194e-01,3.085309294931872781e-01,-2.693999694322562477e-01,-4.118854524672478368e-01,-1.100109570773533246e-01,-5.589487150877693600e-02,2.743644610419992969e-01,-4.116935091932195645e-01,1.155810637091365112e-01,1.821537976272757811e-04,-6.416385709090723088e-02,2.524492873991512343e-01,-2.553181267024902112e-01,-3.506182054152484073e-01,4.094628716736408713e-01,-3.600293934960475117e-01,-6.983281994192470921e-02,2.117111219617795748e-01,-3.846984929456254143e-01,4.006894428414530251e-01,-5.441688062751785099e-02,-4.689725899837703382e-01,-5.866636250551043180e-02,-8.552452580654815173e-02,1.942160843102752332e-01,-1.324281310434273773e-01,-4.778244642355515825e-01,3.242232470628744756e-01,3.811379770225221120e-01,-2.511360887526438157e-01,-1.931401182063416933e-01,-3.220757133933160321e-01,2.770663593411900466e-02,-5.017069168670219570e-01,2.383546989143920658e-01,4.713560117510852687e-01,-3.750858704641096275e-01,-2.092691454147229402e-01,-1.400997626480185616e-02,-4.429510509995543410e-01,-1.233757197923924659e-01,6.425581980621503098e-02,-3.075868858140616835e-01,4.429962461220535719e-01,-3.662368659228846801e-01,-1.540034572503684029e-01,2.554023414071302303e-02,4.538456418189478619e-02,-1.173781535332698023e-01,-4.175414628273819151e-01,2.197388265845122146e-01,1.183943478240001845e-01,2.877714361449801861e-01,-1.715614507142713269e-02,3.445721672981657546e-01,1.766106136301975882e-01,-3.619929634615609015e-01,1.737158775054741672e-02,3.837245987212555276e-01,-1.320527817909414869e-01,-2.290954970215043907e-01,2.027785696647307623e-01,7.559038324746725213e-02,3.391722012250091289e-01,-3.722837338049774236e-01,-3.465475729388698412e-01,4.104721549208590892e-01,1.760840694240278226e-01,3.212744627868510672e-01,4.390730760973127755e-01,-4.274416308792553520e-01,-3.519558271883387324e-01,3.680076812377017781e-01,4.177489574866101729e-01,-3.802291135263292654e-01,8.813713188190368600e-03,3.563895241874733694e-02,1.500041332898803537e-01,6.189831393766594830e-02,-4.023616516762865691e-01,4.246943872390346320e-01,-3.417192391212545699e-01,-1.015844782125789048e-01,4.624519528109496957e-01,1.668061465317062786e-01,-7.465204635443362102e-02,-7.829993869770315862e-02,-5.484704916816264542e-02,-1.380908727609447273e-01,-1.209960013187084127e-01,-2.732588395187094399e-01,-3.671845136670229270e-02,-3.153655198000350768e-01,5.914927038163068918e-02,2.253758990617883984e-01,-3.354488635979910316e-01,-3.108653499814570398e-01,-3.769370206424859093e-01,-1.920269150229897137e-01,4.264374859553222707e-01,-3.503011320215131952e-01,2.421842494747451502e-01,-4.041970693013478139e-02,-4.429889866967148260e-01,-3.476720826333015019e-02,-1.043956040300403898e-01,1.157050959059969381e-01,1.550979562319412530e-01,3.403566507137633090e-01,2.173808819820903793e-01,-5.198480203134482336e-01,1.405165288765502507e-01,-2.469450436476188782e-01,-1.988477874891708685e-01,2.991473293265543565e-01,-2.519954704688384117e-01,3.274993648447851458e-01,-1.387414620220398520e-01,4.088475220366387108e-01,3.560464438796262510e-01,-9.245513220168702362e-02,3.183758886972749003e-01,4.435604888621879072e-01,-2.806843457829679145e-01,-2.592901958561629749e-01,1.676847725777943221e-01,-4.816479197595980311e-01,-2.313804073585136456e-01,4.788917475068090179e-01,1.424918400032948972e-02,-2.779323008736825917e-01,-6.566803208182693530e-02,4.138852116249090995e-01,3.043981644543614085e-01,3.151644931744692069e-01,-2.611758555069333965e-01,-4.141392088200918642e-01,5.977367807806322625e-02,7.092196755800328489e-02,2.773047743328809975e-02,-1.530679065427788255e-01,7.611178160853404595e-02,1.615029972312052864e-01,4.454319501717927121e-01,1.203601815959552818e-01,-4.159839248558162561e-01,-2.983676121602325121e-02,-5.027554612366792464e-01,-3.385574376101787020e-01,-5.239089000742702673e-02,4.534836315027135911e-01,-4.176249319657514281e-02,1.787407036243341685e-01,-1.737384077651491221e-01,-2.613956086641181509e-01,3.939236067344243364e-01,-5.139909426195381492e-01,3.051429928562476857e-01,3.971281245007094451e-01,3.258784669909803311e-01,3.328133359576255224e-01,3.099937405255641099e-01,3.986701476962108970e-01,4.605998713381394966e-02,2.396751273185369902e-01,3.911664090005615435e-01,1.562472490739507947e-01,2.508386657018512600e-01,3.204248528905793980e-02,-1.647892369862667405e-01,9.964582973885535711e-02,-3.643647467424735442e-01,-4.591075771702412545e-01,-4.774340498125230758e-01,-1.391933903069119960e-01,-3.960626724271684163e-01,1.542136245730529043e-01,2.831840750533605733e-01,-7.846446711739404889e-02,2.473461284135878291e-01,-1.814280823556378985e-01,-4.864434547139145359e-01,1.690729790458254944e-01,-2.087547106348735526e-01,-6.568579687151163832e-03,2.062848335274979905e-01,1.697173413644624887e-02,3.551385853229473977e-01,-1.361643406819220033e-02,3.060833943594967188e-01,-3.570907058640251930e-01,-9.782699097870199700e-02,-1.123337104810839537e-01,4.128272032667984481e-02,-4.322624046077502835e-01,-3.218568092229565081e-01,-1.347837227608053856e-01,4.014350212210540114e-01,-6.221694369902416866e-02,1.699934390945131435e-01,-7.250624961839495508e-02,-3.318486493763735945e-01,2.806373327390401240e-01,-5.085719030061885970e-01,-1.409925962176351300e-01,-5.121041555060712458e-01,3.413571702610666558e-01,-1.277102402143531212e-01,9.432573744024072906e-03,1.589836589633515929e-01,-4.432853368211574496e-01,-2.922357987290243320e-01,-5.113207917472384345e-03,-2.380643620892856638e-01,-4.980650220355982150e-01,-2.549796726617938880e-01,-3.860810736320762215e-01,-4.829612343937631502e-01,2.968702493084595662e-01,4.854966559475892146e-02,6.412089795832232042e-02,-2.086634583089080064e-01,-3.466955259782830145e-01,-4.416672591664834724e-01,3.154126400051345813e-01,-9.444067713695508681e-02,3.093639944976253053e-01,-9.022339101768575564e-02,-3.445476639200958924e-01,1.077563240083101448e-01,-1.602257712920314089e-02,4.475843884884244672e-01,1.558242488910734254e-02,-1.113343643251621939e-01,-1.591372814698742769e-02,2.762317862871994101e-01,3.691499682559664514e-02,-2.907412497782247973e-01,1.533284399200448567e-01,-3.766977444674131648e-01,3.212789851211158426e-02,2.224086408099181789e-01,-2.523786941156222485e-01,7.055816276141296806e-02,3.142547756716272955e-01,-4.936597918153899922e-01,-9.217289324137439149e-03,2.342364576150890165e-01,-1.105417278549341437e-01,-5.115611510842952292e-01,4.050214060005929428e-01,-4.990464561068438387e-01,2.095700432614722164e-01,2.855817142571063227e-01,-1.926330207730057031e-01,-2.332541618802656813e-01,3.292631833644571460e-01,4.716243580825013604e-02,4.570456262619639887e-01,-1.448179710116295482e-01,-3.644990618377567104e-01,2.224387404415849312e-01,1.491949760261714608e-01,-8.893056372206066540e-02,4.243540760926418631e-01,1.226819253692239126e-01,2.626080301125309768e-01,-8.515346315136060329e-02,-4.460512592952678435e-01,9.577248338351154744e-02,-1.012938706157985869e-01,3.087540500181794600e-01,-2.382201237683481687e-01,-3.496625808461421014e-01,-3.899646667999684402e-01,3.179784494215486812e-01,-4.052077053402470819e-01,4.284619248901562483e-03,4.391940745597442408e-01,-9.305611736407976009e-02,-4.428448219362497440e-01,-3.283444513657624575e-01,3.060721778871794974e-01,4.321312365421703938e-01,-2.802011280361254575e-01,-4.797329608564785963e-01,-2.674272193413126386e-01,-3.283277253906143889e-01,5.159649180616697473e-02,1.957904651426360665e-01,-3.458314018801960099e-01,-2.565985030139969481e-01,4.999167936791060890e-02,4.722448188438183592e-01,-1.758769833541842451e-02,5.797394279613886370e-02,2.125463641787756486e-01,1.389617968911096846e-01,-3.740657004956779996e-01,-1.997558926576335492e-01,-2.919269752298111475e-01,-3.606717778242150008e-01,-2.065631608401521657e-01,4.773149842893690264e-01,-4.009331360005959355e-01,5.226830806381814465e-02,2.280096181041236514e-01,-3.187265883347688566e-01,1.935691868574461738e-01,-3.498802213362191549e-01,-4.738666953419451988e-01,-2.414709406577296713e-01,1.736197772226681368e-01,-5.485329871772253590e-02,2.344089185927710206e-01,-2.313601382860544231e-01,3.271899726087841853e-01,-9.970097417194163925e-02,4.609817493931243626e-01,-3.576762638659389815e-01,-3.246448918021908603e-01,-3.706481721067976798e-01,-4.763390628611136601e-01,1.923104736777548895e-01,-4.358679816383101424e-01,-4.014814969938109573e-02,-2.209205150257370076e-01,-2.809116544113001712e-01,4.002168259153754404e-01,3.246526533128368808e-01,-7.205115650662169413e-02,-3.940474424964699462e-01,1.829198507196383439e-01,1.439077090423701022e-01,4.779887753336598544e-01,-2.083852377443769222e-01,2.252426894962666348e-01,-2.507615310659386809e-01,4.654796346451681166e-01,-1.399456436873714738e-01,3.295685627215627078e-01,-3.338326351754727916e-01,-2.597752258035727624e-01,-1.838428790127888679e-01,8.299698005024690184e-02,3.703284928952364496e-01,-1.268305778404821282e-01,3.633075307669614978e-02,-9.261840981341346035e-02,4.177530678722821134e-01,-1.935935607863075447e-01,2.509297188697158232e-01,-3.288967728059141171e-01,5.870033975111758201e-02,-9.916051051615601061e-03,-1.044149550199242049e-01,-8.187435615456645221e-02,-2.120989302653972508e-01,4.420250190623410957e-01,-6.801700900739272859e-02,-1.659533570712216077e-01,4.419791496707549672e-01,3.220252159479926601e-01,-5.116021043470780905e-01,3.725753330336567526e-01,-1.003122866804528335e-01,7.722955023730162247e-04,4.351991182769630595e-01,3.656603500558420206e-01,3.208355820752563092e-01,-3.055577340786533314e-01,4.075428328780181762e-03,4.299296095473451595e-01,-3.775274306958714132e-01,3.056993324702930726e-01,4.513478968510119954e-02,2.778246233481407312e-01,-1.695973874231104517e-01,4.479866341818534159e-01,4.426015823700834018e-01,8.314222463689938114e-02,-2.744645530110387810e-01,-2.817070975600056704e-01,3.983122050796626956e-01,2.280796849853951591e-01,1.492503710199939160e-01,-1.515227022779404575e-01,-2.011447655809764368e-01,1.546672316512019175e-02,3.214280530648181977e-01,-2.106767264149245478e-01,-2.707309639696596215e-01,1.178618124206286533e-01,-4.166638820677641131e-01,-4.348812879485239868e-01,3.231765513269194701e-01,3.990926912274410099e-01,-3.827796135457881554e-01,2.324971417747567770e-01,8.477273405332601264e-02,-3.082946419912424921e-02,2.100262714919245988e-01,-3.072002590679532297e-01,1.358935131162531396e-01,6.981250917653868300e-03,2.401691965857479238e-01,1.810712009156684177e-01,3.463916856060074156e-01,-1.987999020549763296e-01,2.652521276338541956e-01,-2.103445626297493765e-01,4.537918143701653584e-01,3.011944372008240611e-01,-1.398742333368495350e-01,2.326061554653706051e-02,-1.760456272738090133e-01,3.610732261325116932e-01,1.554540165917168149e-01,-1.298511778942134098e-01,-4.818063097096506597e-01,-8.869143254174868124e-03,-4.333312118114986400e-01,3.441953491100775420e-01,-2.820611702700511203e-01,1.333347756757785607e-01,3.061469112364541001e-01,4.619649883655354006e-01,1.912134795491579053e-01,1.218842182279144676e-01,-1.785092308357489055e-01,-7.692434302737848062e-02,-3.287049833870333004e-01,-1.682244403162480029e-01,1.372014818347591925e-01,-1.580419432672927338e-01,8.948087943138352540e-02,1.724136602553932307e-01,-3.418443020179257746e-02,-6.299525661146701538e-02,-8.217961574089432952e-02,-3.653700322024183711e-01,-3.469213843549426995e-02,-4.878741885986292992e-01,4.733868804840039024e-01,5.430675641056519759e-02,-2.467696723658973357e-01,-2.519471877105891044e-01,-2.452529486908734124e-01,-4.126921378667403051e-01,-2.765498645696994329e-01,-2.353358677937688881e-01,-4.494764597644972381e-01,3.131600600634241172e-01,-6.123854664344494103e-02,4.211008572298066133e-01,-4.026124035915152333e-01,-1.409964606814599619e-01,-4.470279122769217905e-01,3.181480168409842602e-01,5.609220707647906423e-02,-1.603072861516333658e-01,-3.166752205952350074e-01,4.431645117085017405e-01,2.997014160819860829e-01,-3.682474177748854549e-01,-2.569342460530265049e-01,3.324097126616126774e-01,2.448147769705527610e-01,2.995362101887151240e-01,-2.130847134649929697e-01,-2.695143119073231119e-01,3.990979739730807774e-01,4.667981396400597838e-01,-4.194410948368945125e-01,-2.993199911189318163e-01,4.311468638333027514e-01,-2.787143672556277943e-02,-3.836577059135286571e-01,-4.612417368870167511e-01,1.518229964083167294e-01,-1.539383197085403554e-01,-4.490154167998997581e-01,-2.298708089140971411e-01,9.979488365692041219e-04,-1.792297976128734704e-01,-2.803153683640317029e-01,7.159274846569356476e-02,3.205890744853194807e-01,3.763551449750786038e-01,6.638933698316509813e-02,-3.752360896245265365e-01,-4.704774966784175949e-01,-3.724195678235519853e-03,-4.781216071771252629e-01,3.054267376547749047e-01,3.337735177282850074e-01,1.809644977177263248e-01,2.395057326777405293e-01,-1.603307220718259637e-02,1.538250425514112174e-01,3.240682486939424484e-02,-4.156222109174209645e-01,7.462188612888343009e-02,-2.308376757551224012e-01,-1.239142665369674379e-01,4.365864232693690561e-02,-2.161681452319274277e-01,4.563814038622931446e-01,-1.300983714992918205e-01,1.706452834624087520e-02,-1.544512240625412480e-01,-3.796981033482643708e-01,-4.180404219982695180e-01,3.957474429955604167e-01,1.892775428585725117e-01,-1.636060563950571534e-01,2.553666368979769508e-01,1.965063026283054848e-01,-5.015600356607478050e-01,-1.046365332350942812e-01,3.525804327508784697e-01,-8.715713176611855628e-02,4.152089177337819903e-01,-5.006497038118672416e-01,-2.726039991269822993e-01,3.218363624331119777e-01,-3.765286111913581646e-01,-3.855514438889053874e-01,4.530883258135616209e-01,3.283443879620826511e-01,2.973596227263596292e-01,3.250562707509108140e-01,4.562618722979582819e-01,1.522996597299222654e-01,-3.353109675765127418e-01,2.195245344549023592e-01,1.630988149176279822e-01,-3.216293074085310733e-01,1.775246728335582169e-01,2.654794463206064936e-01,-2.300316830414713687e-01,1.846826513139503412e-01,-4.638175139818357939e-01,-6.182269977550231693e-02,2.103010685279417188e-02,-1.941514648557893588e-02,-2.262356637694579731e-01,3.263393136231250713e-01,2.968414474200227193e-01,2.874590115669393153e-01,-3.333912730443525652e-01,7.179173796459520362e-02,-1.832531823479698896e-01,3.653750553792098898e-01,3.465774840537185764e-01,1.351281684508031655e-01,-2.870355758116134304e-01,-4.600653005114997418e-01,-3.705505048233720400e-01,-3.283370113886046049e-01,9.954902002740429259e-03,-1.472272991259708785e-01,-1.701659818815118297e-01,-3.081505689873860754e-01,1.853911014689564041e-01,7.975532138076860122e-02,3.395314121990686829e-01,-4.617287784666462835e-01,-2.621132546029562027e-01,-1.284214982838823571e-01,4.643397566848586067e-01,2.653742174996552225e-02,-1.660823208446116639e-01,-4.544847887680244503e-01,4.701235350082831888e-01,9.901292348421270040e-02,1.238609825991046631e-01,2.033041920977824435e-01,-3.200922529295722185e-01
3.366875319449789683e-01,-1.082478163836635143e-01,1.305669096259356177e-01,-4.011237868245805527e-01,-1.124195544078892828e-01,1.630831788166801910e-01,-4.911477255293867361e-01,2.110569970816009444e-01,1.829678136099935626e-01,-4.286043790125020903e-01,-1.170021340114394126e-01,1.802118572035958655e-01,1.867129536922119415e-01,3.261506246239081475e-01,4.604506452284378715e-01,2.440635616063751290e-01,2.777803385305850914e-01,1.859532554290243833e-01,3.913563064571985023e-02,-4.132516306455635280e-01,-1.638562559379575234e-01,-3.051182721443456702e-01,4.558036235559859706e-01,-4.749850166763189274e-01,4.148541382568651792e-01,1.530812254674761286e-01,-4.944445795634632573e-02,-2.372924424637511479e-02,1.389387866046145822e-02,-4.357245027533583337e-01,6.551110313546107400e-02,-4.189311419727266839e-01,-4.748040449723401474e-02,4.660623388302515685e-02,-3.831114176975166097e-01,-2.816300428612811824e-01,5.823355018490675161e-02,5.931682271104302823e-02,-4.475518808781123181e-01,1.540099366482456655e-01,4.738489279843253743e-01,-2.344171084099060665e-01,-1.061220582302976057e-01,-2.834107127620201227e-01,-1.350929288830620967e-01,2.158097631766634286e-02,2.860205536855910391e-01,4.264970574446575458e-01,1.190291519106304041e-01,-1.114754615572128016e-01,-4.822829476737528487e-01,-2.372306200391048961e-02,-1.202472275808675606e-01,-4.314487210521447680e-01,3.036466181957973576e-01,2.754352360864625315e-01,-3.791986535457601559e-01,9.932827007486169646e-02,4.075122939670941524e-01,3.957295664860319140e-01,4.103355585959373442e-01,-2.761499522705946341e-01,-4.435314560645476356e-01,-4.874076851164955149e-01,1.811139227807307683e-01,-6.182974586383673671e-02,1.067666519397073577e-01,-2.871576549477578566e-01,1.415938887939024726e-01,1.630069037053278047e-01,3.073955384284186576e-01,-1.580626664995364930e-02,-1.819273840498152328e-01,-3.093613429923462999e-01,2.927892232582673948e-01,2.966429956797484446e-01,1.677401752376184441e-01,-1.596156109689936542e-01,3.215494559106573114e-01,2.014470060991450928e-01,2.189933298979460374e-01,-3.607739280882570898e-01,1.887988941370844775e-01,3.886321773545983738e-01,-4.583184558227725858e-01,1.356263627018628737e-01,-3.268791913061050436e-01,-5.095667770922115425e-01,-3.155538788140224149e-01,-1.292924375126404957e-01,-1.015449840599268183e-01,-1.749782780908956947e-01,-1.054218834145647654e-01,4.664540510208323720e-01,3.690750813063411323e-02,6.506747941036744587e-02,2.287558398971317186e-01,-4.644217337499412235e-01,-4.642443592224698712e-01,-4.503604406768120239e-01,3.553519151344405880e-01,2.970818611634448714e-01,2.097698134117935709e-01,6.411944011621258099e-02,-1.603737264213348501e-01,7.207909370190261622e-02,-3.973060179055955959e-02,-4.707683512406003468e-01,4.333106624278733610e-01,-2.293931518998324759e-01,1.536634486020002910e-01,-4.273913341908824326e-01,-2.876734242617201009e-01,2.591461865804083886e-01,4.060992367013593340e-01,3.752284174582442566e-01,-3.462213710089029894e-01,-4.761714772653577628e-03,-6.462933242622524721e-02,-3.848195572759182115e-01,-2.926407292122525372e-01,-3.894671495889227564e-01,-8.593994943196062164e-02,-3.657713357661945830e-01,-4.812161743218325571e-01,4.082473329539821338e-01,-3.291004228348004546e-01,4.135116621014831573e-01,7.465151806604078399e-02,-2.749077180763751516e-01,-1.186207044711927866e-01,-1.069560670467224195e-01,-3.185281086793120831e-01,4.129366095689991911e-01,-3.387437043971080475e-01,-8.591852911905843715e-02,-2.191670045870143871e-02,4.438341395543368151e-01,4.315508712712546324e-01,-4.272971742558954733e-01,1.165495782495306124e-02,2.246884907339941895e-01,2.002626060334103675e-01,-1.064145983883549584e-01,2.437133129487569494e-01,4.721758520804039683e-01,3.745429988756939221e-01,-3.472617356494958618e-01,-1.496010992341455931e-02,-2.337169168465682290e-01,2.833496339826830357e-01,-4.449085936818839571e-01,-5.511552352242938407e-02,2.988505097456014004e-01,4.203801630779624987e-01,4.809896774617916648e-02,-4.714969453003883260e-01,2.443282825204358966e-01,-2.664263586457096267e-01,-4.421012385694957914e-01,-5.414019848614533281e-02,4.280188843363941231e-01,-3.450578204113106118e-01,-2.017622858439659661e-01,3.886364877208968172e-01,3.530461486830019924e-01,-4.945849283004472713e-02,8.839458388576940107e-02,9.471640501692171754e-02,-1.641195779791979892e-01,-4.440930336592674998e-01,7.618407661442994083e-02,3.350183533350986620e-01,-4.879571027808241590e-01,2.562351281839143069e-01,-2.274419320348113893e-01,-2.156885701070494488e-01,2.988688838512775225e-01,-3.637530861244326341e-01,4.542614285809976060e-01,-1.143219400647675771e-01,-3.050190954969037582e-01,1.314303107732458786e-01,-1.417696056035462338e-01,-1.752663248131582363e-01,2.671280819514129101e-01,-5.128397188192036493e-01,-8.271618814522382901e-02,2.749528594060721143e-01,3.509895035158265286e-01,-2.480849136030012503e-01,3.651651157576848994e-01,-6.658374464036954932e-02,-3.340359184700541356e-02,1.233793653907306297e-03,-5.064720710581062102e-01,4.239048806344309361e-01,-2.480465661571813751e-01,8.798506416450571632e-02,2.646121180819032137e-01,-3.785665150006027879e-01,2.226537311814148212e-01,2.119235049567810003e-01,-3.450093896458743536e-01,-4.673397859198178961e-01,2.007672491374633272e-01,4.536179186559453208e-02,3.956003509791358175e-01,-9.516412718841972540e-02,-2.132125879754759035e-01,2.738597647827192283e-01,-1.602671273442684285e-01,1.205918391402528156e-01,-1.218046037703878759e-01,-4.849889574347350241e-01,-1.015301217889002794e-01,-4.003596428984989436e-02,-4.553526270440603207e-01,3.657231597562357051e-01,2.959674877059528253e-01,-2.548135735073012720e-01,-2.992327644825938660e-02,-1.307175977476128514e-01,1.771620384807880144e-01,-2.402643350490288043e-01,2.410450471036197084e-01,-2.851889310244188347e-01,6.505423473403230961e-02,-4.532439884219215398e-01,1.762182131665232798e-01,-1.387982078801595909e-01,-4.483767453022462490e-01,1.827091563557290133e-01,-3.719646239508057617e-01,-3.313140659482605721e-01,3.533175277591005248e-01,-3.411645094575243009e-01,2.552637460655392543e-01,-1.675095032751764985e-03,1.142972476954373373e-01,-4.465851581163408635e-01,2.255763439232797152e-01,3.954746411482310542e-01,3.628259010571598386e-01,-3.966677683697416024e-01,-4.212569223221349080e-01,-4.760831898304293541e-01,3.046672537873422182e-01,-1.275460854795996135e-01,1.289476365251046308e-01,4.729651937367895798e-01,4.487200431075559215e-01,2.945364607957646208e-01,8.333143324420580478e-02,-1.825713517215783732e-01,-4.880302492606979764e-02,6.762549791060049054e-02,-4.787421323361538139e-01,-4.695230200703962575e-01,1.344564445658387175e-01,3.927370144022048204e-01,-3.884564960952824331e-01,-3.639830472215482837e-01,-2.855232735947481615e-01,7.231848676240949791e-02,2.480456611163026348e-01,-5.036048847331929812e-01,6.664636542101912142e-02,-6.161677767359846625e-02,4.240528815164824050e-01,1.395259824081152844e-01,-1.414381130284603216e-01,2.047084117962797156e-01,2.662967717130845791e-01,-3.728947414809610783e-01,1.809235200571492758e-02,-4.559062977561090801e-01,-3.534617778967812929e-01,3.279917508379345814e-01,-1.816242430029676724e-01,3.590293421456761114e-01,4.477167433429761201e-01,-7.384673532820706932e-02,-1.780849230043939635e-01,-1.665536737247736432e-01,-2.541611324634894253e-01,-3.232197722829627251e-01,1.723243165563979329e-01,-4.771036581535929022e-01,3.200012510900633322e-01,-2.769146481225978618e-01,-1.740412583125318935e-01,3.286042378329930846e-01,7.654922577712928999e-02,-2.323332911000842160e-01,2.064117916103709871e-01,1.834199827254068271e-01,2.051789710446517701e-01,3.957095679282227607e-01,-5.070641317933247683e-01,3.736730440449591018e-01,4.349142039822037620e-01,-3.086384650508182115e-01,1.411672022755791067e-01,1.247872499167768240e-01,-1.914430555633341025e-01,1.463713384851084987e-01,4.722178392068562824e-01,-1.875807197865319298e-01,-1.376088838111668433e-01,6.272045077817681169e-02,-5.073182401034879163e-01,-1.224844798932439582e-02,2.342876789459004128e-01,4.318406412334238609e-01,-5.932158652481701877e-02,2.073826961951835413e-01,-1.785273477736473435e-01,4.269658968403520216e-01,1.667470050799640391e-01,1.593057870636927636e-02,-2.605783146285885893e-02,-2.765669683944125823e-01,1.902185447312592856e-02,-2.949480853506440403e-01,-2.930187596509229997e-01,-4.228233253026558169e-01,2.229831761898231346e-01,-5.849794633823253431e-02,-5.054985105334812712e-01,-1.691347097594231297e-01,4.209370673559265086e-01,9.497174223967223827e-03,-4.812107317773824389e-01,-2.159914238547076815e-02,-1.778327203274682466e-01,-3.902870192013939143e-01,2.739499097908940084e-01,-3.460837202008110736e-01,2.558513759399644871e-01,2.243595871832204380e-01,-2.452665128445359888e-01,-3.192010667548991210e-01,1.258510724590594376e-01,3.424354564778920862e-01,1.723680941172194558e-01,-5.055968131582542213e-01,-3.976991582765605493e-01,-7.814715172045408331e-02,-1.466481747847003247e-01,-3.065487104810062924e-01,-4.528265567966583971e-01,1.024450298944125370e-02,-3.358967916963150335e-01,-3.516938429793724230e-02,3.413434101543646459e-01,2.003424794194823277e-01,-1.898175027111334567e-01,3.747023819110036902e-01,1.344044756087483805e-01,-6.057326445466177864e-03,-3.129585063716804061e-02,-1.562740195499873475e-01,2.224783311691583554e-01,-2.487738976620474107e-01,1.246498915682795056e-01,1.267146484835887932e-01,1.587036429273562532e-01,-1.198912484454055793e-01,-1.879336977660656938e-01,-2.667715433617385279e-01,2.155460614522573259e-01,-4.499244834105249335e-01,4.990702561223382683e-02,1.473313568441021737e-01,-2.711091871212660265e-01,-1.236383659831648552e-01,-4.775960101897291053e-03,4.663902404054267037e-01,-1.370817346752062904e-01,1.027960177779030787e-01,-2.439365483533837975e-01,1.224897754335168149e-01,2.289713061936317073e-01,-2.107681816765748783e-01,-5.208654289645192614e-01,-2.963991742470917790e-01,-2.177399390231369025e-01,2.700604334140184193e-01,-3.430294913615046237e-01,-4.655815237306286103e-01,-3.957692384447316081e-01,-4.487329543013927613e-01,-2.419150923948705512e-01,3.895705240563006599e-01,-4.594533963005368316e-01,3.676512569217436632e-01,-3.936000963619138981e-01,2.150746736375131196e-01,1.895795669845621589e-01,-2.216282353147635831e-01,2.530858119745242329e-01,-1.003641107279961420e-01,-1.020037073136673966e-01,2.706792154021942509e-01,-4.883546613564151984e-01,-7.430580237789534415e-02,-4.341194852821583794e-02,-2.022479208797580419e-01,-2.977000584842793285e-01,-3.632670008986730870e-01,2.674248285607751588e-02,2.340702220995999616e-01,-8.326716689290172835e-02,-1.927741805721056856e-01,-1.145279474453473473e-01,-4.006037025856261646e-01,-4.770495163385043980e-01,9.185815624844340110e-02,1.022234336541420208e-01,8.856120096120179835e-03,2.880045803033354779e-01,3.893377107817625610e-02,-1.616360198756910671e-01,-2.346837913019582944e-01,-4.091535469851111939e-01,-1.917015875377558187e-01,-2.636462443776977915e-01,-1.533866933227146512e-01,1.463642731099881189e-01,-2.395411962123299987e-01,-6.459581036679259980e-02,2.931085117224933034e-01,2.013633603880663203e-01,-3.532691526802458348e-01,4.143960720841369239e-01,-4.836877910615535181e-01,-3.153184588482613182e-01,4.072422931029281434e-01,4.171216373065481098e-01,-1.232799507161922714e-01,-2.408509741335505550e-01,3.141463237440669104e-02,4.139376523578580658e-01,-8.367755482655733767e-02,-2.812204661865210786e-01,3.234169630081999425e-01,2.805617685899804425e-01,1.294871729664583693e-01,8.199112547791934102e-02,-2.401567092004433246e-01,1.605186490557305168e-01,4.433577299020831641e-01,1.507236134275951878e-01,4.692097849481799976e-01,3.920073155311479263e-01,-5.249816569082843554e-01,-4.673351737791485716e-01,-3.136665198077773220e-01,3.955388780676923934e-03,-4.664106049662848363e-01,-1.038095648430036877e-01,1.855059402798605594e-01,4.520678024081234980e-01,2.853616136973684547e-01,-4.972926962150279184e-01,-4.890532206920581992e-01,-2.411450139841032625e-01,-2.686350764266132174e-01,-3.856198863523567222e-01,3.357216936778150140e-01,-4.935499819183574166e-01,-1.740183803754389580e-01,7.615540833428460776e-02,3.015524827782330511e-02,-3.135207952262414888e-01,1.255783694752172497e-01,-3.900055646663861952e-01,-1.578004516473041977e-02,-1.430849330588435386e-01,3.425572707584160770e-01,1.059794596055977783e-01,-2.322894446748825781e-02,1.145102381031330441e-01,3.968907041840662453e-01,-4.718344090283060344e-01,4.291586704663604701e-01,2.251813828100876769e-01,3.893613671582694113e-01,2.288855143445238938e-01,-1.052917126071595127e-01,1.581642709640014854e-01,-2.667286661469854200e-02,-1.280641885823255166e-01,4.198132410605466269e-01,2.395694313039338150e-02,2.142644956727591254e-01,-3.625261163087912242e-01,-3.202335420180561498e-01,1.298028524317906829e-01,-3.729726969214987586e-01,4.699819057159205227e-01,-2.139700210342338205e-01,-3.111011344436052650e-01,-2.958101798813950745e-01,-1.509844777007804117e-01,2.143243994871445179e-01,-3.683653760429532742e-01,1.852442446553276001e-01,-3.239544122704745011e-01,-5.063590821413395116e-01,-1.881973839510683311e-01,-2.427193376491416643e-01,-4.893104855876222459e-01,2.075133406091124177e-01,2.006582589252386695e-01,-4.399036813868971718e-01,-4.843294674473996864e-01,-1.991985357505949850e-01,3.496676728766806019e-01,4.108547305783990522e-01,-3.071045686280838294e-01,-4.200228931960643952e-01,-5.044909496260523429e-01,-1.795151620264071046e-01,2.238060330097296213e-01,4.165724080575937682e-01,-8.575526768046655424e-02,-2.857405515398918072e-01,3.255393300889662389e-01,-4.863263955540684386e-02,2.844257957990382057e-01,-3.840158153404663044e-01,-7.928947261212901387e-02,-9.023280196374430795e-02,3.843122075717885222e-01,2.671390174149703700e-01,-1.366188263736616837e-01,-8.252117191193644730e-02,-4.576404045945247079e-01,-3.614447718981301794e-01,-1.772838408034857760e-01,-4.103033945897657242e-01,3.757562356762373379e-01,-4.685188927957302241e-01,-1.341289592414276859e-02,2.650385621359814259e-01,-4.662897893230290025e-01,1.031148736122000226e-01,-1.735161550951870024e-01,3.959477807356716617e-01,-4.152317026784556608e-01,7.647502048759965976e-02,-4.341178540959181320e-01,4.194008658711919635e-01,5.478086189671300260e-02,-2.752464122496731114e-01,-1.262625627395165262e-01,-2.239017622037105248e-01,3.388100109641151714e-01,1.353687192128895725e-02,-4.461101274099423253e-01,2.778687539947856666e-01,-1.524149873739553962e-01,1.068425461177940558e-02,2.513341783156438081e-01,-3.952329720156621540e-01,-1.002756222396211511e-01,1.065442153442900802e-01,-1.545495133335970384e-01,-3.012817995260517190e-01,-3.089573513795543791e-01,-2.388317278765171026e-01,1.370198437042721429e-01,-2.831261519778552685e-02,-3.407160240943842844e-01,1.512903454339107612e-01,2.401243749101758529e-01,4.045174422806517844e-01,3.220091668343330604e-01,-3.525187414082127102e-01,2.570386569256795650e-01,1.081765483598931821e-01,1.425343624042374746e-01,-5.463576232676436301e-02,-1.974492997121175264e-01,-3.111166013673673514e-01,4.426203733601629664e-01,-1.654528614092581063e-01,-4.472787093492761046e-01,-1.552164440251158350e-01,2.597387738936935420e-01,-1.956907650083077599e-01,-4.091125879504882712e-01,-1.745684801992113122e-02,-3.527574543856827893e-01,-4.665912540641329320e-01,3.755961055622312750e-01,-3.691528893947035872e-01,1.151352421344886134e-01,-2.428664876959371055e-01,-2.891147449851718121e-01,2.030651948866831202e-01,3.951204584324211622e-01,2.608529532544930918e-01,1.685665631648237406e-01,-4.047615977162651868e-01,-8.207905663473789859e-02,-6.775173769620403130e-02,-5.085968542254933888e-01,-3.450957420483562188e-02,-3.034451473445538561e-01,4.008888491315070746e-01,2.598780198658486029e-02,-2.397675385546583493e-01,-3.076001340487888869e-01,-2.773305433785397400e-01,-2.347265301972993046e-01,-4.645595687226611314e-01,2.416245818324540828e-01,1.877860003205537587e-01,-9.932404730730859388e-02,1.807735137065946684e-01,-2.304525208682740856e-01,3.110179406886000586e-01,8.249123355768142596e-02,-1.236653170850137567e-01,3.167960086270129039e-01,-6.550966599025956350e-02,1.610813858456487946e-01,-3.803609905993677320e-01,-4.170683053160487708e-01,-3.179372594183001999e-01,-1.340935407345879293e-01,4.071822237542183087e-01,-5.023373874073167045e-01,2.786714656341928165e-01,4.340220890082155947e-01,1.012997810771243540e-01,3.216400297043491285e-01,3.824833235479976334e-01,-1.914072995650230313e-01,-3.392991102681878340e-02,-3.671859741745610584e-01,-4.535746346699485732e-01,1.181165925530747729e-01,-4.356115248947940999e-01,-3.229691171522435233e-01,3.612670164335036183e-01,-2.283160371227955510e-01,-2.634468811725568793e-01,2.107457051377117641e-01,2.789709414660774267e-01,1.493881918826376054e-01,2.646957772577205881e-01,-4.291748879917149928e-01,4.741232678693614311e-01,-3.833112739382533163e-01,-1.676727477334933325e-01,3.857448825343912646e-01,-4.479013470332990354e-01,3.608342754692290266e-01,-4.515368248255254846e-01,-4.269639875264838458e-01,1.275896464890394488e-01,-4.838562021241322314e-02,1.177377895159854443e-01,1.251745101475416067e-01,1.275297088348082142e-01,-4.274740490202921100e-02,-1.883382348823437191e-01,-4.874454850395512628e-01,4.367834572550886585e-01,1.085787574606966385e-02,7.952520446687424277e-03,-6.177153331805566167e-02,-5.064651624369885807e-01,3.876750108492968416e-01,2.063393864467379796e-02,1.153377230911106638e-01,-3.608872553015058382e-01,-3.055779027513989832e-02,-4.790859291563299704e-01,-1.951036952668976088e-01,-7.295011777652957163e-02,-9.593166966784534566e-02,-2.520472921932781496e-01,-3.436824268501180168e-01,-5.135117962304681649e-01,-4.664769031704306679e-01,3.588514376243772674e-01,-3.826971073888838504e-01,-5.116070639065050107e-01,3.268450144714258876e-01,-3.098806408453389505e-01,4.236531625902436593e-01,-3.271480266000200698e-01,-3.322068451145560597e-01,5.330407626866109222e-02,-8.165733458814247725e-02,3.120466806817762673e-01,-1.137743929983502100e-01,-4.262723787077979387e-01,2.971795769344672267e-01,-2.515194694651944896e-01,-9.006583768869258488e-02,-4.379279818885361553e-01,4.522792351482599615e-01,-8.833971953887054251e-02,1.242303665989826639e-02,-2.088375670148316932e-01,-2.623435651455421902e-01,-4.472397389992047723e-01,-1.918874553527464000e-01,-4.718633235162089656e-01,-4.860933621278454297e-01,4.214508681377052701e-01,-1.753457542794261415e-01,5.322987848471005118e-02,-3.360230214911860136e-01,-2.329986980973544897e-01,1.884396578700815728e-01,2.459592443886159663e-01,-2.026447588337967620e-01,-9.632514922850873851e-02,-4.554939613733002823e-01,3.172771153559991730e-01,-4.177208068439664523e-01,-4.815447139614820737e-01,1.035434279339793318e-01,-2.524589058014683474e-01,-4.452808658731251534e-01,-3.874032730886966536e-01,9.156902944389236354e-02,1.311002584205700205e-01,6.949509668481487767e-02,-2.916880259221919514e-01,-2.896372341058220390e-01,-4.746009779243351989e-01,-4.149011418690889408e-01,4.584562037231563192e-01,1.622489690854866246e-02,-4.197595522578869698e-01,-4.232289933844282648e-02,-4.757959989711061932e-01,-2.698463417732882563e-01,-1.639735626913029487e-01,-3.236576788787714487e-01,4.266678734661518702e-01,4.117759816765426684e-01,-4.705698165632488661e-01,2.062039397193415613e-01,-5.016726980069569075e-01,-2.710462488356593092e-01,1.648041459273948683e-01,-2.626436099954596592e-01,3.665784694044857406e-01,-4.725827646669393256e-01,-1.974753939717293350e-01,-2.454499676485232540e-01,-1.034016550599609896e-01,1.266671111437022990e-01,2.692274865840527664e-01,-3.159657629010989566e-01,2.502590678109430367e-01,3.431822552289647832e-01,8.388853322314783478e-02,-5.017804724191158305e-01,-5.158486659749681458e-01,-3.055891177286937932e-01,-1.625651572187803706e-01,-3.432453437468099278e-01,4.620283488997048993e-01,1.495691964618694747e-01,-3.851155941730730059e-01,-2.559688831081586846e-01,3.885320293492807164e-01,3.081348876128554015e-01,1.772004782784125307e-02,-3.710751258202609759e-01,1.462574788614775245e-01,5.615367115925242597e-02,-1.389460099540148208e-01,3.175614194958211178e-01
-4.384277588660975833e-01,1.086404437552561386e-01,-1.886057539931138005e-02,2.244664544482953550e-01,-2.134082688820174989e-01,-3.675641723240797298e-01,-3.653855753271436080e-01,1.294804091633570964e-01,4.816724246539055287e-01,-2.731817143453692254e-02,1.533033432409922348e-01,-3.291926218588238640e-01,-3.069328850164429467e-01,2.517069845133692030e-01,-4.136650218049607308e-01,-3.582945231778817408e-01,-4.505602528814331431e-01,2.353303692180554740e-01,-7.027471271505350559e-02,8.199819888057355288e-02,-1.816757788430150289e-01,3.206594585707748801e-01,5.597409269818918315e-02,-3.095437643068550959e-01,-8.803912962634244388e-02,2.098923344185678885e-01,-3.010310800905756090e-01,3.084875318697282709e-01,-4.884814193348246403e-01,-3.365187882974564615e-01,3.766918621804075662e-01,-4.033176148099396063e-01,-6.100936653745594324e-02,-2.178211815647750627e-01,2.301210068400542930e-01,-3.192441326248977584e-01,-3.938472947160808757e-01,-3.205631219475646998e-01,-3.135227835330244850e-01,-3.400096738427092480e-01,2.399789864870602585e-01,-3.768050863721922883e-01,2.914904566371881445e-01,1.419038393540058840e-01,5.681653633552703059e-02,-4.859047113989800049e-01,-5.486077798027382685e-02,2.044543762495439065e-01,-2.402115177760149878e-01,-4.163922593715766451e-01,4.609491063680602463e-01,-1.835549556197603460e-01,-3.256931580265099435e-01,-3.750778092019015769e-02,-1.225136600303591561e-01,-5.314574946128382965e-02,-4.803444893512956448e-01,3.441361044049238704e-01,3.899454939468654513e-01,-4.281768727013351428e-01,4.778016930552113073e-01,1.400345227067774923e-01,-1.181519343867949712e-01,3.307460098002933946e-01,-4.714473423757263304e-01,3.675836680132459761e-02,-4.057464981962307093e-01,-7.037748628825483965e-02,2.123072493701222141e-01,1.343781843140942345e-01,3.505172652592199456e-01,-4.348219859887262895e-01,9.027985999891653679e-02,1.262476535027849955e-01,-4.826539534600825243e-02,-8.159712003606608977e-02,9.300252904289994793e-02,-1.210182607924500595e-02,3.218466107802413489e-01,-3.766539406284530878e-01,-3.145489752266931727e-01,3.491620026140042632e-01,3.627441072004026767e-01,-2.408743506679218715e-01,-2.086136162100137581e-01,1.539722463445757084e-01,4.228450747888826133e-01,4.373968746530242924e-01,4.648497175390148284e-01,-1.312141379616703907e-01,1.827815716905433624e-02,2.620160791321806681e-01,-4.026927678112073306e-01,-3.677855109695813973e-01,-2.525819285689348548e-01,3.411029864200486039e-01,8.759750847306234248e-05,4.759755638459969851e-01,-1.313715825403713178e-01,8.268749422070821586e-02,2.104519409033641167e-02,3.596004192232261087e-01,3.340279804027722066e-01,1.304863668940351162e-01,1.642709473404754816e-02,-1.012345509129704557e-01,-8.007398049073247148e-02,1.673961780338076577e-01,4.138054723510049826e-02,3.789649975015695338e-01,-4.670523908285553749e-01,1.311406133094122628e-01,1.448489885288526124e-01,-5.012898225294202259e-01,-6.282517551141908463e-02,-3.190726043857409766e-01,8.678787835496727665e-03,-2.397450500748233571e-01,1.393039057392354008e-01,-2.582483076518273801e-01,3.913883495106363908e-01,-2.051020607004278296e-01,-3.076316211453439808e-01,-7.275189892924940893e-02,-1.748677050787345727e-02,-1.631013905184492963e-01,1.837640542134246213e-01,3.539345157613527637e-01,-2.624012410842005982e-01,4.432788402561158581e-01,-4.077087876008996803e-01,7.971315079321436570e-02,9.098986343962842116e-02,3.104174279480103604e-01,-4.590390583201258701e-01,1.133053930666226561e-01,1.879928242245267611e-01,-2.646493976401275150e-01,1.811082454806127451e-02,1.194406872215648396e-01,-2.631691832323760916e-01,-1.925381802658916730e-01,-9.018384715889507519e-02,-2.747191207624827824e-01,-1.049177341639099675e-01,1.140996602308426700e-01,-3.987067497024101431e-02,1.539602208930592186e-01,3.584617284894928146e-01,-2.535756929815125363e-02,4.646955200680318865e-01,1.783334618288955065e-01,-2.526328167373977085e-02,-1.071474339152475447e-01,-2.065454308941336858e-01,2.935503930393491001e-01,2.562785882832460671e-01,-4.590641912539263347e-01,2.857412950457771106e-01,-4.562404089501288507e-01,4.507108194783902670e-03,4.295887829996372642e-01,1.791378362816971048e-01,3.291818589981260201e-01,1.106098378783813979e-01,1.584777423992535517e-01,-4.219502692398852811e-02,3.442922225652101376e-01,3.245643865978195541e-01,-3.736140758147212665e-02,-6.617384277775528734e-02,2.548138748683318466e-01,3.065314253979148709e-02,4.110061910677305641e-01,-4.240625937120481304e-01,3.913454720736727066e-01,1.996189666443511090e-02,3.917543137973582279e-02,-4.742691739543558604e-01,-1.597746592835293522e-01,-1.525278796032236150e-01,-3.344270929683700322e-01,-2.716986859400545851e-01,-5.462177675182122716e-02,-4.368762473660710577e-01,-1.951286663089790707e-01,-3.878714953533448639e-01,2.460136552157149714e-01,-4.581438441048407140e-01,4.769705659910439821e-01,-2.003828240985312814e-01,-7.427354667102804842e-02,6.599870346700288659e-02,-2.392664613318730982e-01,2.582182521854445856e-01,-1.041739793294224337e-01,3.609058525370732462e-01,2.209133349787942568e-01,2.872951720605996795e-01,-1.993294081048723257e-02,-1.242945602870696165e-01,3.984604868208455608e-01,-2.647066657175913273e-01,-4.911668992128521150e-01,3.369714264147748994e-01,2.715985197500970227e-01,-4.565039669105966369e-01,2.896639997871264804e-01,4.947531323303645534e-01,-8.276829728624768290e-02,1.829622561340365702e-02,3.035828634327615294e-01,4.446013182475428566e-02,1.881625696003999260e-01,-2.499033997332449422e-02,-1.821735494331705174e-01,2.613904344938358659e-01,7.928852488011907396e-02,2.470425233733716253e-01,-1.784761702673871575e-01,-4.340848892382008217e-01,4.379134145973104936e-02,-4.916030368394445627e-01,-1.184447532197997754e-01,4.305475186300241064e-01,1.407635351429637749e-01,-1.403937798160686257e-01,-4.991757066499898920e-01,-3.966073863614829609e-01,-9.763034300432331392e-02,1.454906233464108301e-01,-3.084559067556543743e-01,2.201578568938886982e-01,-2.715513709313806534e-01,-3.418847551894542702e-01,1.518487872970537556e-01,-2.340599282967548433e-01,-8.848892230244537194e-02,4.180374346357664250e-01,3.774927093278569457e-01,-3.883716118126548378e-01,-3.519192299815167291e-02,6.265070466041017250e-02,2.530225926162116834e-01,4.399851677600860600e-01,1.839349743657210934e-01,2.257264108116891765e-01,1.829640847029356809e-01,-3.345001355264330400e-01,-3.781046408901856393e-01,-3.168464695600644448e-02,-3.972957634208761912e-01,1.348977185260168132e-01,-1.634029781763316758e-01,-1.732505324093503718e-01,-4.374276067506657761e-01,-1.683758040345596438e-02,5.999140374441590262e-02,2.883994916514142637e-01,-3.116489550008160192e-01,-4.596518187762933527e-01,-3.721170890791057340e-01,4.151234819625190808e-01,-2.103332986622489797e-01,4.498310695585308050e-01,-8.123052620398289736e-02,2.157096839390014176e-01,2.005241804543449191e-01,8.218519569121711388e-02,-3.448116132994815675e-01,-1.248647746010298626e-01,4.867134145359790498e-01,8.096837495784792171e-02,-1.563861698368406994e-01,1.304489606776536303e-01,1.539413588644892028e-01,2.681795735684346371e-01,4.234628537197110409e-01,1.703622086283770598e-01,2.902770564223159933e-01,1.794018517945088209e-02,1.869500907923754285e-01,-3.684179019894704421e-01,-4.188482649545450798e-01,-1.712086660528532589e-01,2.820878337979756956e-01,9.058152109727343748e-02,3.691178715747385208e-01,3.971299968214613701e-02,2.492096802470204764e-01,-3.233915590638435367e-01,2.872614140407275807e-01,2.582157142144969608e-01,1.793780524054736925e-01,-3.713562253183941841e-01,-1.264856764472000183e-01,-2.956554181684195037e-01,-2.659880251011041974e-01,2.707680479016653652e-01,-1.626689986504366858e-01,3.907660095720086324e-01,-2.456070144758900065e-01,2.994893627568525063e-01,-2.511925008576464946e-01,1.368096830153708310e-01,-1.326321275549655412e-02,2.198085843950256801e-01,4.289779561667381169e-01,3.851457569466907871e-01,-1.928947995583202568e-01,1.005067445777245438e-01,5.725516832595585470e-02,-6.196399081915399815e-03,-7.145206137669807278e-02,-4.956633494637688875e-01,7.497755953804630114e-02,-1.752359669326042715e-02,4.637542047274895718e-01,-3.592945855876149008e-01,-1.569205108969610740e-01,2.474371118827077901e-02,-2.382444566962862564e-03,1.407714402052599734e-01,1.182419935846978631e-01,5.903042165305764574e-03,1.076416914554956666e-01,3.266695034292403654e-02,-2.821388912051648323e-01,3.471273302208220946e-01,-2.855761244093689699e-01,1.721554163067364751e-01,1.064411871364678019e-01,-2.173073276761702533e-01,6.461189845338886906e-02,-4.271034073249154184e-01,1.464410179357282515e-02,1.281567112256124241e-01,-1.233031414363810196e-01,-4.998964666109946831e-01,4.415165445734482441e-01,-1.015014468235016058e-02,-4.408155111867295695e-01,1.874836193509315241e-01,-4.224092241988053886e-01,-2.893954362573336048e-01,-2.000609778354598967e-01,2.250740543094430571e-02,3.202969099931508024e-01,-1.014499009368246135e-01,4.777916262234315758e-01,-1.930514332225372887e-01,3.627718452947252814e-01,4.150580990678583160e-02,-5.197590985569590372e-02,1.908449393467688271e-01,-4.704992938589816487e-01,-7.206679386622259764e-02,-2.766428775672920004e-01,3.146711660481346651e-01,-2.838238079091833788e-01,-3.113196614536017370e-01,-4.411782777959700752e-01,-3.252337555874652564e-01,3.382580023932167390e-01,-2.205675674626506322e-01,-2.181840494525746632e-01,-3.969437388136093370e-01,-3.051831604050807556e-01,-3.608239223100109805e-01,-6.555510665035688134e-02,4.603082792848451898e-01,-1.434625080834544819e-01,4.223507102760314380e-01,1.403670068774172386e-01,1.993614757258127534e-01,2.212438132681993075e-01,4.333627328319563099e-01,1.378950876113348503e-02,-6.200386703288558038e-02,-3.087830682504436736e-02,-3.820674249926674926e-01,-9.806823324060184865e-02,4.931020859460708561e-01,1.272526530793939292e-01,4.600518533602357962e-01,-2.070044056912824226e-01,-1.735093201448228428e-01,-3.694015402128155712e-01,-2.879597733971934193e-01,1.030385933433241030e-01,-3.225863677498140847e-01,9.739061311568195101e-02,-1.428507470579714334e-01,3.193887247166549703e-01,-1.886315536888313604e-01,2.923648493385286873e-01,2.140151617159603281e-01,6.598387340154890195e-03,-4.866707322083910214e-01,1.069074495830269478e-01,4.447681747036901778e-01,-9.629628348467807186e-02,3.079664866458211026e-01,-8.410619745129135905e-02,-3.668392641191414727e-02,-1.729365897487231407e-01,-4.215080450742360041e-01,-3.485078064880926980e-03,-4.146985686284472283e-01,3.273019178581199617e-01,3.021190965000693507e-01,-4.758247909505215478e-01,-2.216224392083037120e-01,3.349555230842121700e-02,2.546452336556611629e-01,4.264900154907555474e-02,-3.421683977867408522e-01,-2.574367379391627741e-01,4.573386969898252108e-01,-4.525496170892397835e-02,1.403261629839423763e-01,6.568352975438426777e-02,-1.982983112239762591e-02,1.499140831201402346e-01,4.579248459702113527e-02,-7.394640588448987695e-02,-3.410687858303816933e-01,-4.183002237337293122e-02,-3.283988374459895221e-01,1.541821129945502578e-01,2.140998391856239469e-01,2.172613203453570008e-01,-2.532871716627415615e-01,3.095528236481369100e-01,-2.373073266931403913e-01,-4.795850327443236805e-01,-3.933548287627270379e-01,3.374069920741472051e-01,1.061604124039131763e-01,-1.893806969075511881e-01,2.346690930399945585e-01,3.269376691258083500e-01,4.662627805864725805e-01,-1.430772297957100814e-01,4.127139556784969465e-01,-2.761003187141686244e-01,-4.748135192854114894e-01,-8.807543715043289478e-02,-3.441239447342438473e-01,-4.883699618401024511e-01,2.520021476232892632e-01,2.594466384238566792e-02,-4.341478250490616309e-01,-2.198989051395051908e-02,-1.677467105751297982e-01,-4.269205289624972699e-01,1.636480875420485426e-01,2.935372609200289848e-02,9.506138015691806276e-03,-4.230967519562143786e-01,-2.213591425179071148e-01,-2.043979127047554079e-01,-1.743867778770311350e-01,4.724715915060838656e-01,3.600223076682795287e-01,3.037608599327480952e-01,4.533941680242584149e-01,-4.246110459805239046e-01,-2.365148765652091423e-01,2.447794325854197595e-01,1.790049746618041504e-01,3.910970829595649123e-01,1.724035462974380928e-01,-4.183611575653761183e-01,3.842440322170089795e-01,-3.644231914131447758e-01,1.426321437852796359e-01,2.282678075144843610e-02,8.991203232972963533e-02,4.407851369546094134e-01,-1.576511300292917500e-02,-4.872058692578905004e-01,-3.783631817648679951e-01,2.321966367885140436e-01,-2.647452329503749424e-01,1.547517176445964149e-01,3.848528436526260643e-01,1.490235966916518204e-02,-4.410475125246837713e-01,-1.048320005886912987e-01,-1.391788973621672365e-01,3.530952706076442293e-01,3.591906925187953736e-01,1.169097247108292076e-01,-1.432865176571093413e-01,1.373173373399735331e-01,1.238344453040634841e-01,-2.848420795626392943e-01,-1.789317569669719721e-01,-1.868306899783220565e-01,1.345708978047271132e-01,-2.114679469365053910e-01,-3.908755709126419675e-01,4.144542528712631957e-01,-4.277812034326813895e-01,-7.741027582880091740e-02,-2.292497191449359983e-01,-1.331702814654429634e-01,-1.997799680096887243e-01,-3.302470180073258099e-01,1.449573312130862379e-01,1.684628901021435476e-01,-2.283521795502836960e-01,-3.666836527987545058e-02,4.746001378758346045e-01,1.989893597137446790e-01,2.448643978426836565e-01,3.325410702345893421e-01,-3.669580789768109308e-01,-1.000037735433250696e-01,1.534215868759385426e-01,-2.881414326323205044e-01,3.460843117899881638e-01,4.931350303728192497e-01,2.851086089679560343e-01,1.998252191641022857e-01,3.628704803539309354e-01,-1.832204322259459520e-02,-1.435174283880572520e-02,1.983643155183972273e-01,5.356679300736565813e-02,-3.487072881041533567e-01,5.451137606096932015e-02,1.260416479688154234e-01,-3.446915592661042305e-01,3.354343760289519305e-01,1.192659967170911772e-01,1.537672998508061439e-01,-2.869352139263234985e-02,-1.195681711126589108e-01,-2.939401977356371209e-01,-3.022399553417491336e-01,3.035605604877379404e-01,-1.202399320436167568e-01,3.814796019916273373e-01,-3.068080260129612546e-01,-1.265667320688777520e-01,2.731279187260173824e-01,-4.807513168760335076e-01,3.767091222598366040e-01,3.280442270217396317e-01,-7.394119674114371654e-02,-1.112332325913383962e-01,7.598824813662409527e-02,2.698425072590801554e-01,-1.806965516600702037e-01,-5.411984285576933174e-02,3.855050161677104348e-01,4.587215578422044193e-01,-2.228452754939202196e-01,-2.328444553802828942e-01,3.904757104057833828e-01,-4.780726785550554747e-01,-2.806865396043842220e-01,2.047650883311027403e-01,2.175662501460411680e-01,-4.302398484656429906e-02,-4.405293305975169216e-01,1.147219807149603144e-01,7.335237699918747967e-02,1.670054256889530464e-01,3.239682943836461049e-01,-1.762066129093445843e-01,-4.642845404485416161e-01,-4.295872404056197413e-01,-2.016094102102389540e-01,5.775676499603869113e-02,-3.138404070988862204e-01,-2.789158035584567430e-01,1.661192654602431928e-01,2.588128222656451913e-02,-4.724644222761875678e-02,4.907845456147765240e-01,-2.640791054998446463e-01,1.445988883492371202e-01,-3.909765763210120149e-01,3.224521981152828620e-01,1.112652512390195081e-01,1.131740014282253959e-01,-3.717582279719022220e-01,2.305639915426652420e-01,-1.973556610670280376e-01,1.177457787661898847e-01,2.489083316406034974e-01,2.506801440296666517e-01,2.393025671034307578e-01,1.054899805024131360e-01,-1.047744100050582300e-01,-2.076386103045662224e-03,4.620624297061222685e-01,4.424059949651404922e-01,-3.272922243476348858e-01,4.804112047024828303e-01,-4.261327231925889358e-01,4.181962114077916182e-01,-4.027869834745768096e-01,4.721945811972494411e-01,2.350054132527928663e-01,-4.912197671481067229e-01,9.117335198020010134e-02,-1.450495723736547893e-01,4.335377488011426389e-02,9.009420739511043996e-02,-4.661596253172877180e-01,2.734469808996735363e-02,-2.958164726424346302e-02,-2.337478909115921211e-01,2.498613220037577687e-01,7.630053450993524999e-02,4.345592519363540296e-01,9.662309400479285326e-02,3.781296012313412058e-01,1.438994608806293818e-01,4.383277873612546061e-01,-1.859249455397778972e-01,1.073706903091993514e-01,4.132753390611089706e-01,-1.064617692314070441e-01,-3.435628922777175798e-01,1.927628857732813505e-01,3.223336091649982027e-01,2.535576609274812210e-01,-2.825583237320672056e-02,1.967628278921087492e-01,3.714503544153452963e-01,5.424568041592392476e-02,1.831471984698476996e-01,-9.100087619340102574e-02,-1.294385245798127804e-01,4.153313142554770909e-01,-2.235615960999863538e-01,-2.246147084870041277e-01,4.562370397130736249e-02,1.754520082355981170e-01,2.385285288953199190e-01,2.623516029673259031e-01,-3.036530762390948768e-01,2.781651684323644402e-01,-3.255802440413451682e-01,2.136060670783505311e-01,-3.465817166036170294e-01,-4.246717834193330932e-01,-2.503753768918412156e-02,-4.434203632665330574e-01,9.384850414335470237e-02,4.005906159952250523e-01,2.265989641967919299e-01,8.269914918429432937e-02,-1.732690833742648040e-01,8.514501794468719298e-02,1.319691753230514131e-01,1.803928882630913277e-01,-4.574135839886049881e-01,-2.026658476877227777e-01,2.490815579321409845e-01,4.048008967416205084e-01,2.227442005038388351e-01,-8.783211505908632144e-02,4.719274182681331697e-01,1.913219297580594780e-01,3.740538359871473095e-01,-1.418371349077864052e-01,-4.504746118148004741e-01,2.734585392221047795e-01,4.810093678238500786e-02,2.522068072951215711e-01,-2.450335530623735936e-01,3.640259828228551431e-01,1.081038029579180076e-01,3.856666460235871341e-01,-6.533764422960536278e-02,-3.852286481521975947e-01,-3.986864074561286553e-01,8.415188767255682434e-02,3.625553029492719070e-01,-1.075332867807093640e-01,-2.973653902133117644e-01,-1.069015916812133676e-01,-1.245788455090539593e-01,4.070264950629082223e-01,-1.081341658220740243e-01,-1.813123847327869631e-01,3.574037300815561258e-01,3.549212545019289067e-01,-3.734463191663597303e-01,4.637889018968564536e-01,3.654675304574916961e-01,4.066933979974280411e-01,-4.240296077967484201e-01,-2.219652373601701811e-01,2.338906816441087277e-01,-3.156744597337305530e-02,-1.265110376813375070e-01,3.123812646978982310e-02,1.641944759881148463e-01,4.311754328414071913e-02,4.008356394395862776e-01,-2.471070124508929211e-01,-6.280946352643872188e-02,3.040364235157698158e-01,-2.668211838498716904e-01,-3.531344422011175044e-01,-3.023249869765599063e-01,3.649653539862041662e-01,4.574840705597717216e-02,4.589462203770711124e-01,-1.118036973550197294e-01,5.722453223511561604e-02,-3.249531452004027487e-01,1.147174075767980611e-01,3.350056771890102536e-01,2.794719342868556278e-01,1.473256061780813531e-01,8.583603327359573543e-02,-3.549847026651940518e-01,-2.229707553063862424e-01,1.554385750280712075e-01,1.192299205457096611e-02,-1.778323440013548640e-01,-4.294402331983568355e-01,1.518536354683836798e-01,-3.720108184682508479e-01,3.100006969623159692e-01,1.132407896129510039e-01,4.932921934677279019e-01,4.095077862564068805e-01,1.647009558357697967e-01,5.468163451994427493e-02,1.716066919931232837e-01,-2.955070150995482980e-01,3.306876101870729334e-01,-6.474803855300517719e-02,2.206535399029028732e-01,-2.174212976718443435e-01,3.169647145501591212e-01,1.145629403715255762e-01,-2.402161511863969701e-01,-4.890562036908872590e-01,2.573134841791592797e-01,9.947677030537543236e-03,-8.070222967104526135e-02,3.246838788117120678e-01,-6.660744831985701553e-02,-3.389564167664760874e-01,-4.287358785792829557e-02,-5.016131653074799024e-01,4.568765430779711534e-01,-3.198864055188010425e-01,2.262745009984702127e-01,4.010282518047578182e-01,-4.128492303543043751e-01,-1.066765322925275206e-01,4.660369648581548785e-01,3.652639461297264578e-01,1.767124468997242903e-01,3.244490922516004017e-01,3.788492606639113913e-01,-3.187695588000787339e-01,4.809034044531220742e-01,3.675610726451062349e-01,4.364695722299193892e-01,-3.347259458862040238e-01,-3.553791711541851722e-02,-3.301497524956105711e-01,-3.874404301750408730e-01,-7.404382573018097533e-03,1.391408228630834631e-02,1.469114232985494622e-02,2.365621975227864826e-02,3.677023790094131050e-01,-4.350350291957137405e-01,1.548059846091820180e-01,-2.647864548289176612e-01,-4.171702844292740076e-01
-4.212088178670110872e-01,-4.025548285255920455e-01,-4.718467051414701463e-01,-7.285236093585774342e-02,-5.502753240641360122e-02,-2.126578318457341688e-01,-3.645499443498967929e-01,1.110669826304323815e-02,3.800638471746104474e-01,5.049619779199128189e-01,-3.853263406430642024e-01,2.909901718643641000e-01,-2.111181939557583709e-01,-1.519859710379743989e-01,2.146140249889999518e-01,-4.770833460178430241e-01,3.261940874049927275e-01,-2.482289484659419565e-01,-4.053713745120993139e-01,-1.008195994957374469e-01,9.552600251908897888e-02,2.363945073917689266e-01,4.602305275378100746e-01,4.222494781877744185e-01,-1.555304972164168742e-01,2.935090984509738932e-01,3.810564385158496381e-01,2.551639510395199983e-01,-1.565997874242200938e-01,-1.835662721223172561e-02,1.396864416532137554e-01,4.593065331549092689e-01,2.011635950025659758e-01,-3.743521370897794909e-01,-4.054456372958352151e-01,4.352149366661927643e-01,-2.131001748964731629e-02,4.339193502340096820e-01,-1.165129438041275362e-01,-1.155182034768648808e-01,3.555467057597407332e-01,-6.425309783582024929e-04,-9.881520100267555951e-02,1.473392545735310588e-01,4.599218919101856484e-02,3.819378647376214242e-01,-3.698051521321386592e-01,-2.404265701272918776e-02,2.605247018721455476e-01,9.470145813733345241e-02,-3.112115066280405906e-01,-1.927942706444073506e-01,-2.173666946133244737e-01,-4.205642640823008260e-02,1.968338051807346778e-01,5.016990942254097030e-01,-4.211122345673379841e-01,-1.138130660065044958e-01,-1.256023100683179572e-01,3.271037217495958438e-01,1.287237055573708655e-01,4.406207941820177720e-01,4.824142312947315436e-01,-3.379839272883819468e-01,-4.824236864988134532e-01,-2.986013296718789678e-01,1.599402565086346095e-01,4.350717920433420233e-02,3.284752340656711955e-01,-1.528578187882984607e-01,9.800545912059799303e-02,-1.969110431957286078e-01,2.755664602329419011e-01,-3.968884263155127434e-01,-2.771631083120661143e-02,-4.932127122442656747e-02,-1.321071309799556719e-02,2.056656691731102160e-01,4.792390850794182033e-01,1.671267378160404826e-01,-2.231094692371591443e-02,-3.786737849030157865e-01,-3.461105889015778092e-01,4.321694921506102349e-01,-4.713451079224215134e-01,-4.282287039836774611e-01,-4.446087403720868081e-01,-1.874281118157224979e-01,-9.476189932506125235e-02,3.000107991079616343e-01,5.157949968649529898e-02,3.301029839837921753e-01,4.157382790327209254e-01,3.261835892875086240e-01,4.791508796484736932e-01,-3.798559924326711523e-01,-2.581531752688895898e-01,1.649117649238365513e-01,2.933247914101170806e-01,-4.023229644550948558e-01,-2.102508239502459686e-01,5.063860512108242506e-01,4.622464640935199792e-02,-3.573833401109645647e-01,-1.198747730068417394e-01,-5.101990348900802691e-02,-5.280318868549674013e-03,1.164202820988286119e-01,6.245229865220497389e-02,2.908704399908948468e-01,4.670726847279324523e-01,2.667119995266383214e-01,-3.651630233611521947e-01,1.081691602003194558e-01,4.667385316840858001e-01,-4.827489757991865749e-01,1.557750205360611435e-02,-3.304278793370659106e-01,-3.762512959133624268e-01,-8.921219165408458829e-02,3.562738909268226561e-01,3.596612255172357275e-01,2.828589657443123517e-01,-3.934977068463367811e-01,3.450075351438852689e-01,-5.565246675342339772e-02,7.191514802049518706e-02,8.399349555931980016e-02,6.792508574245527397e-02,4.829331874763010402e-01,-2.621294114505919315e-01,-3.159043358083264974e-01,-4.812526646403023078e-01,4.931150816043863294e-01,1.271732933829269330e-01,3.808840747767701651e-01,2.930346956731275654e-01,-2.841007454437627922e-01,3.138022763462564035e-01,-3.904525142993058862e-01,-3.250117247078460614e-01,3.604521736436343271e-02,-3.951089199334882618e-02,-3.641841146018205966e-01,3.063462576720683492e-02,-2.305958940513896105e-01,-5.684241656155149258e-02,4.977540525537382243e-01,3.671517131087302377e-01,-3.408385812640703505e-01,1.578066864522437440e-01,4.197711379509727059e-01,8.128027764290426949e-02,1.885848038253852554e-01,2.125859017164833942e-01,9.538545904304714107e-02,1.192534329492516282e-01,1.501694679160964496e-01,-2.737680858414495155e-01,2.340192823502815211e-01,-5.206382135968041364e-03,3.553897285816323692e-02,7.591676484040725537e-02,3.820401956527557652e-01,-4.295352351199537844e-01,-4.764101108175577415e-01,4.079962140501009471e-01,-4.652068969554820632e-01,-8.009310978243806833e-02,-4.092710834850714074e-01,-1.388934958033702927e-01,-1.561004884219658884e-01,9.350021813686437699e-02,1.897807106970332558e-02,-2.277109039889289033e-01,3.711277765575525522e-02,3.699531349399517305e-02,2.352875700874972054e-01,3.300227551524571035e-01,-1.180220087801982232e-02,-2.024492395026780966e-01,2.356666419424869457e-02,3.959071380231841131e-01,-1.393020999321917808e-01,2.086721332992014927e-02,4.723149471821861400e-01,8.719703082932661609e-02,3.589075642547668865e-01,-1.314631488201476461e-01,-3.906125747900910938e-01,-4.050092390881440685e-01,-3.586476291673701411e-01,-4.581848413598185177e-01,4.455580689722579701e-01,-2.701367499736416211e-01,4.028128642911222301e-01,4.896331082006267210e-01,-2.545393670988885249e-01,7.250422941748350947e-02,1.364398779835020170e-01,-3.166270419469035535e-01,2.468958648633878261e-01,3.107011116334594814e-01,-4.142694070737352185e-01,-6.717115012220792325e-02,-1.178505167695716588e-01,-3.425306144246855755e-01,-2.528560668147153412e-01,4.967297636136829286e-01,1.309816402404790081e-01,3.836711369656470860e-01,3.758932541314807807e-02,1.451873781086376533e-02,3.210367775905904053e-01,-1.642825208492297226e-02,-2.467715281829535590e-01,-4.494853200266671345e-01,-1.201064855053931013e-01,3.569909080641049948e-01,-1.958015487048599124e-01,3.118244342951416170e-01,2.778349569625365167e-01,4.509902642210354695e-02,-4.141208491504819178e-01,-3.462372297446200675e-01,4.747239130158710796e-01,-8.500900961322473137e-02,4.371370596234457895e-01,1.074439459301962246e-01,-6.130801266628144175e-02,-1.810872551702591426e-01,-1.473933964651439332e-01,4.458454135007255958e-01,1.812239532358833893e-01,2.651023697098965348e-01,-1.547032081432751782e-01,-4.422553732954632166e-01,3.725128675159063429e-01,4.126272972444728349e-01,-4.140822752158729858e-01,-3.144641386953656026e-01,-2.249514130147022839e-01,1.794774545962364021e-01,-3.735720359515846134e-01,3.121737326299528492e-01,-2.893798697753293681e-01,4.160563987536795572e-01,3.310149633175467065e-01,4.273057709020479100e-01,5.025527656073319749e-01,-6.168011109658895486e-02,3.592348602163886739e-01,-1.233210153000733333e-01,1.969727826554143382e-03,2.395272543379136920e-01,-1.630871291013067173e-02,4.054525738618305897e-01,-2.611339084662041982e-02,3.258033539539564177e-02,1.283890674285513567e-01,5.020313873127062870e-02,-1.942487270614312034e-01,-3.091198865837093690e-01,-4.806283880243516493e-01,-4.153682840086266315e-01,-3.063032320262366048e-01,-1.935470459413878297e-01,-3.394372198491079073e-01,2.763457848687975171e-01,-4.638569241003624721e-02,-7.295046883363873191e-02,4.826698641285203650e-01,2.533494506735165519e-01,3.788664637411839897e-01,-2.520075975694539006e-01,3.439467590805172503e-01,2.541960051780757235e-01,4.332254198835799319e-01,1.832763767301851809e-01,-1.866126857781555959e-01,-3.018134855951066231e-01,4.071509505281789010e-01,2.627174903388154736e-01,2.677302257885775805e-01,-4.853176346166633293e-01,4.422872000208303289e-01,-4.240770105760865993e-01,4.069225760806117753e-01,4.364068516856946522e-01,4.229143973502201281e-01,-2.245614636504877637e-01,-4.197372028456308191e-01,2.787474457653139059e-01,-4.262112243718789162e-01,1.786657093548924338e-02,2.037341440200778619e-01,2.208139516797070490e-01,3.933685494808767946e-01,5.423081520238348663e-02,1.915410982152458697e-01,-1.503024558390751719e-01,1.446300416244489795e-01,-4.448972398494336900e-01,3.857408628647064353e-01,-5.686863349738373319e-02,-2.072190677917383483e-01,-3.957774202103891414e-01,-2.389700837287412893e-01,-3.411069279832620871e-01,8.683788434422938518e-02,4.329284486323897174e-01,-4.010362051442874498e-01,3.801485561300638888e-02,-4.037919771488134302e-01,-4.262655929803926269e-01,3.666440785849457984e-01,1.102484894871001292e-01,2.978624233604298399e-01,-3.963234451100364764e-01,-3.745243335542475793e-01,2.610681152144190276e-01,-3.811393808048147425e-01,4.663728902189425152e-01,3.064387271381852629e-01,-7.194042923645065091e-02,-4.847243865222751746e-01,9.522758230698448456e-02,-1.268355618214190850e-01,-6.787776189522230774e-02,2.047415455756545488e-01,-6.238007592123542139e-02,1.404483334518690507e-01,1.621649057695805640e-01,6.140648196993658131e-02,3.164899697309094262e-01,-1.246334472542430655e-01,-2.663944632663085010e-01,2.236795847354389188e-01,-3.602672308681603153e-01,5.032079349080709196e-01,-3.197386892009863174e-02,-1.029833307746066823e-01,-3.928931319285615120e-01,-4.060308843732051559e-03,2.298786738313146269e-02,3.766027723671705463e-01,-4.647321387250188396e-01,-6.043578378800294054e-03,-1.963405527609893841e-01,-3.736725882367152862e-01,4.759657218497341802e-01,-3.885052724743631170e-01,1.415575382107840674e-01,3.358085615987749795e-01,1.270774664154299127e-01,1.517086645206956741e-01,-4.554177928079412851e-02,3.003445575151481584e-01,9.454366155923185633e-02,5.600213395212264716e-02,-7.837945567395465662e-02,-2.693868674324786383e-01,4.709483539677016828e-01,-1.206052505716393580e-01,3.349903577309590319e-01,2.862753622304972656e-01,1.600144947724684297e-01,3.904037177897484168e-01,-2.302541980652008172e-02,-1.139294466908289394e-01,4.358041368822189732e-01,3.429735678548272437e-01,-9.721334262457011210e-02,5.013118423351533570e-01,-2.611759430868273446e-01,-3.544351434666485612e-01,-2.609004479626942374e-01,-2.678127887698785251e-02,4.219591287969582383e-01,2.186302449850222873e-01,1.167032889852482186e-01,-3.221218643333604859e-01,5.079792328480588204e-02,-6.588794583011162165e-02,-3.296915077147599127e-01,-4.121366874805026947e-01,2.429036952048963249e-01,-3.946941297231522094e-01,3.269173954901463119e-01,7.195950387482250021e-02,-4.384977931671446005e-01,-1.222155017535448279e-01,2.727666026106956854e-01,3.919309980637761259e-01,-4.686741544061074349e-01,-4.220570444976238789e-01,3.725242563594792222e-01,3.464202258204173573e-02,-3.970092828199995455e-02,-3.228487455361550573e-01,5.711538096180637097e-02,1.175261620898346432e-01,-6.496538400361823173e-03,1.312336819370988616e-01,4.126050755209477172e-01,2.448199032266522995e-02,4.847688399105812840e-01,2.310072400703854778e-01,-3.779500856722109448e-01,7.830302417088007283e-02,3.248638457062942853e-01,4.796958914650278905e-01,4.649074856576589365e-01,5.613999660152606264e-02,-1.421286265461191856e-01,2.363339106555095367e-02,4.484204583125548371e-01,-3.947177713856060977e-01,-2.431315126276752392e-01,-2.651546320388262212e-01,3.072792245322543692e-01,2.801486282722358001e-01,1.912936635749380443e-01,-3.443713977087172196e-01,-5.236112502614505282e-02,-1.714271268505722645e-01,3.880194782281740085e-01,-3.526038102271237817e-01,-4.379822954656111822e-01,-2.752654079553032984e-01,5.361064703572197138e-02,-1.187170166667758098e-01,-4.697124628906597099e-01,2.193172702369552696e-01,5.895611736988521506e-02,1.350405700630850636e-01,1.970293265308012964e-01,-2.172284892494377728e-01,-3.654742154129049791e-01,-1.299509810328970949e-01,-2.582802799276558425e-01,-2.024707882903973577e-01,-1.939782487783706655e-01,-3.086000922384576906e-01,2.627593215192622345e-01,3.801960777888757081e-01,-4.495295139374097526e-01,-1.863507663070368414e-01,-3.645085814403936086e-01,3.003819609999976437e-01,4.186141505894697690e-01,-2.939521415782644920e-01,-2.996691458431896549e-01,-1.131241085943304747e-01,7.886521544798197336e-02,-3.659116640167193735e-01,4.701995658718068349e-01,-3.598186450202335851e-01,4.738784528724802048e-01,-2.289912540203763447e-01,9.804959090177889358e-02,4.654360337050037488e-01,1.004369821635559962e-01,-2.027798422581251481e-01,-3.219680399405419058e-01,-3.027791507590976150e-01,3.659615160704385306e-01,-3.267537355467384219e-01,-4.045428146517567394e-03,3.087247488631092995e-01,3.087338085114496589e-01,-3.390153722900627331e-01,4.693451459853377195e-01,-4.593225868397570605e-02,-2.029489261310235548e-01,2.627389635864098572e-01,-3.314372371240212074e-03,-3.312288968873380868e-01,1.188060891691867099e-01,-1.685151135365240416e-01,2.401744091469249498e-01,-1.797739686766234579e-01,2.030585629834502637e-01,3.922345762638979744e-02,-3.222501777282034685e-01,-4.074094582663752573e-01,-4.701873885888768756e-01,4.894785178513898494e-01,4.731377054451610387e-01,-6.416497200486459551e-02,1.043993753475195990e-01,-3.893290752673973509e-01,-3.711087790548981413e-01,-3.377565150466664834e-01,3.152926043796310251e-01,-2.037943389760715415e-03,3.416930725429125904e-01,-3.393896715389315699e-01,5.267902225725433485e-02,2.432815387723892275e-01,-3.722392710907183599e-01,1.967973449170452860e-01,1.732775763701368543e-01,-1.257316291947152553e-01,-4.116321605595135158e-01,4.651072138442948201e-01,2.344927992467967792e-01,-3.176609610781563897e-02,-2.784510940556861325e-01,-2.045338248182588525e-01,-4.592303946616944077e-01,2.487887388540240274e-01,2.135444025190481598e-01,2.148079747137902062e-01,2.626334274878425745e-01,-3.270083523409726967e-01,2.140238796737426175e-01,-4.247842242158472170e-01,3.435331880243394087e-01,4.302898607159513777e-01,4.712406994346116096e-01,4.328281628560105010e-01,1.463382049640259974e-01,4.898862458459604663e-01,3.550721838697120658e-01,-3.052620741319643782e-01,2.757396538492132287e-01,-4.144652433606909048e-01,-4.907015688668760478e-01,-1.190595000858538435e-02,1.562952939608225622e-01,-3.134295720247148309e-01,4.014298382689734379e-01,2.818527757908117493e-01,-5.450978499661322113e-02,4.163668088101597498e-01,4.386048323538814242e-01,-2.452558259677025676e-01,-2.442634415530257064e-01,1.159701990060020560e-01,-1.292183660144412272e-01,-2.289741201976769613e-01,-3.041686467379966508e-01,-2.858409181848846625e-01,-3.182214763429293547e-01,4.571068567094369040e-01,2.667996643370842413e-01,-1.310605154873019373e-01,-3.857180377354563761e-01,4.342951847451524960e-01,2.010438046685113500e-01,3.374934990563300818e-01,4.357801108170067939e-01,-4.530478481244390454e-01,2.200752482381266861e-01,3.917873226949376009e-01,1.587452171782189614e-01,-7.462473877905502484e-02,4.395479670225694302e-01,-1.032972031750935687e-01,-2.259203144669872376e-01,5.003545488653265982e-01,1.453050401582589857e-01,-2.985849613347407727e-01,2.442385945842417416e-01,-5.948856967198029588e-02,-2.351477144220594229e-01,-4.441582713362705881e-02,2.363081865640017931e-01,-1.807753675174448085e-02,1.074737183281321007e-01,-1.709178887601490449e-01,4.286386819715674035e-01,-9.433690966686748836e-02,-2.990412182812389741e-01,-8.789901320630964798e-02,-3.101636297279750654e-01,-2.020854825236579055e-01,-1.880090066603034848e-01,-4.912866321464114394e-01,1.921449552047896914e-01,1.654733821248375591e-01,1.714414753730332808e-01,-3.282992577867754336e-01,-1.076679828455058691e-01,-1.104761168210098010e-01,2.562072545146705793e-01,-3.959252258043350348e-01,1.886817223882872874e-01,-3.879280562543241939e-01,2.403040231340161093e-01,8.447620632669458618e-02,-1.215302491273226038e-01,1.428132736214246523e-01,3.962458977613985550e-02,-3.278667757736070110e-02,-2.864442520693677788e-02,6.326757545708078245e-02,-1.565659704472865676e-01,4.537688684514066262e-01,6.886190351815136418e-03,3.311167766210670882e-01,3.274146069845591533e-01,4.358605923979802510e-01,-4.595394695949644448e-01,2.360713606171087886e-01,-1.742984676908945207e-01,-2.469663406176950474e-02,-1.122065404247823105e-02,4.268568160561851399e-01,5.936227972313913061e-03,-2.663558527656360586e-01,-3.216438362397170542e-02,1.665292210820769614e-01,4.879339994605795261e-01,-8.764921710908672378e-03,-1.181256341687021288e-01,-8.752475310867875724e-02,3.458779350063310165e-01,1.837741693268576670e-01,3.967727416878004121e-01,-3.149318300291455430e-01,-3.903986472906585958e-01,-2.809717470614916390e-01,-4.418648714543498834e-01,4.800817108556318380e-01,-3.952957217135569801e-01,-2.111358381920355742e-01,1.396869755448823525e-01,-2.762170851148104678e-01,-2.402539812670677899e-01,-4.402000943099120267e-01,-1.867960024490019910e-01,-2.884109207909610340e-02,-2.132015889670662301e-01,1.671566399676895354e-01,-2.281389951546798633e-01,-2.239382524816824205e-02,-1.770740465673525665e-01,1.228996560054920334e-01,-1.423115410035662998e-01,2.699232430663765503e-01,2.546268372330825341e-02,-2.361921076909284656e-01,2.942161481252159594e-01,4.186869524953081012e-02,-6.731375976230324909e-02,-3.133267440368643908e-01,-2.398784861115245415e-01,-4.191670103289591442e-01,-3.268892857742405900e-01,-4.132678796156369905e-01,4.071314115930084188e-01,-3.954301990268696554e-01,3.224424370815934943e-02,-3.566149400490783994e-01,-2.658864356968489440e-01,-7.606006695428541020e-02,-1.906679751366060493e-01,-3.924476622606363208e-01,-1.582686475727510811e-01,2.368329855834070963e-01,2.105540123700704869e-01,2.807903370333149629e-01,-3.259195216373718118e-01,-9.209328061997586190e-02,1.656128668683744254e-01,7.017199510321295297e-02,-3.467951269465318620e-01,3.429556297338393067e-02,3.896327948501224214e-01,2.094157145318040758e-01,2.693449685387843684e-01,4.798149345961968959e-01,-5.786277167986145220e-02,4.227166625911599751e-01,4.129959333453057935e-02,4.324926940904111894e-01,-3.519005800908947545e-01,-6.448882063538885490e-02,2.238413584834936798e-01,2.598234154672263707e-01,-4.430691243327049000e-01,1.565724450412063762e-01,3.264219633355887606e-01,-2.943449941938800496e-01,-4.928388711885797746e-01,-1.982748839618867776e-01,1.128097189239187122e-02,-4.012573084490411723e-01,1.854384337110267233e-01,4.531495678178995568e-02,4.298925564600052374e-01,-3.376800908606934076e-02,8.293913376346354061e-02,-3.880440612677709122e-01,-2.626374083777593404e-01,-3.337398411072632354e-01,-4.255462220549116048e-01,3.014862755603086586e-01,1.813224621488496169e-01,2.067799734855808591e-01,-3.333694833919467748e-01,-1.125483733365501698e-01,2.493410981735097731e-01,6.088987488480696042e-02,-1.835005371884222969e-01,2.367833290322781670e-01,2.154888994318847617e-01,7.437717562529486126e-02,4.940524695382541437e-02,2.191860631614540034e-01,-2.396967411248394908e-01,1.151435129111867683e-01,2.544640951460516165e-01,-2.766699971833598837e-01,3.582172553702752671e-01,2.641012111892571124e-01,2.217671355493970597e-01,2.353289598120169024e-01,-2.033494890012977063e-01,-2.203927001012716547e-01,4.719214199426405298e-01,-3.716288746785908481e-01,3.929790874715392568e-01,-4.341326783332631334e-01,-2.044204531090282329e-01,2.663624677964899212e-01,1.024739022947907668e-02,-4.319157957271195225e-01,9.607302216414932705e-03,-3.334166545352705291e-01,7.583422242141550640e-02,5.024238648052992140e-01,-2.839303175513779309e-01,-4.424505693606616830e-01,4.394149158322451787e-01,1.250378006926652352e-01,-1.556061218778053978e-01,-2.585009514047768575e-01,-4.142743537115247676e-01,3.064713099997001811e-01,5.074202332719832675e-01,2.154069517853096083e-01,-4.707405187879991071e-01,-4.810127852205489662e-02,1.029482336787663072e-01,-2.548957727190148126e-01,4.392308241218635945e-01,-2.953540190933461873e-01,-2.437054466745525450e-01,-3.336393613508097100e-02,-4.413115461390985927e-02,-6.597133018681018354e-03,-3.668382026597722390e-01,-3.291234628198615453e-01,2.911250304971421676e-01,-2.635504486129163770e-01,-2.347446461817079832e-01,-1.983055340878698836e-01,-1.000673519123353589e-01,-4.527999441651955892e-01,-1.470132210828921718e-02,-1.675054694911867759e-01,3.602804937328120682e-01,1.896922306632429223e-01,1.067089834835935891e-01,-3.666505466088721410e-01,-2.052277388855031914e-01,4.803323372503542910e-01,3.332269307640127742e-01,-2.819886407367828141e-01,2.294622035643650582e-01,-2.449986010313781049e-01,6.728477874560324923e-02,2.558890041470087140e-01,3.262821407844294641e-01,2.847828266274551878e-01,3.970075919723182190e-01,-2.915079014607570573e-01,-1.560150110535233337e-01,-1.026142616382739875e-01,-3.940550254985132894e-01,-2.728335599241534237e-01
