-2.984808557933881223e-01,-4.992620542766430525e-01,-1.689795122316554155e-01,-1.037330734816179767e-01,-4.165573433675907600e-01,4.336477522286619202e-01,-4.217238483231016133e-01,-8.786713157768832883e-02,-2.005029754542556608e-01,-8.080038158160474104e-02,-2.675145860099223949e-01,-2.910732696595996760e-02,3.779262901875309888e-01,-9.367048672437039425e-02,1.551585827059593914e-01,1.103821429449824976e-02,1.948811194405193348e-01,-2.482416110103956575e-01,1.921013790120846831e-01,-1.320812629688444817e-01,-3.445282482993954343e-01,-3.933753226037631778e-01,-2.734983135072484028e-01,2.285395896089573720e-01,9.760331050867876446e-02,-2.921627461140045012e-01,1.618208729893148012e-01,-3.311667917336678091e-01,-2.643010425452341217e-01,-2.893073590881110047e-01,-5.500154448726402023e-02,-2.759007516230407298e-01,-4.192433397098931369e-01,-3.482253166612373496e-01,-4.236611720198453224e-01,4.167560249956175911e-01,-8.416831180963613157e-02,1.667581924484847766e-01,2.957161803283030466e-01,-3.758930816216953241e-01,9.029748945039972607e-02,-8.882769071604579292e-02,-1.457236835363824312e-01,2.857564661187492749e-01,-7.312072267084102073e-02,-2.089193007639449373e-01,-1.130521160923744217e-01,4.327318308613037345e-01,-3.388981621277490364e-01,5.633457822596221742e-02,-3.962885110097853492e-01,3.242967900014596117e-01,3.528583613692848342e-02,2.226014287378670353e-01,4.848649343145513546e-01,4.640745409207114314e-02,-3.102503420513166299e-01,8.256453667884522396e-02,3.422554227288006068e-01,-1.157093710588931179e-01,-4.671185163088013015e-01,-4.391925362826760715e-01,-2.338590695914213313e-01,4.470365544020826754e-02,-2.260197596190227642e-02,2.052974146615152984e-01,-2.206784027328618780e-01,-1.376690573798275974e-01,4.926766609064103797e-02,-8.061333771041157004e-02,9.603028838574245718e-02,-2.944052633772845651e-01,3.611925345668471898e-01,-4.003490844190180642e-01,2.547217265750069126e-01,-4.187267335221326325e-01,-8.767871136287874734e-02,-3.465252414299514472e-01,-3.037650999725775014e-01,1.305546476374199738e-01,-4.892146811957854835e-01,-4.990665318926912342e-01,9.033182522815041970e-02,3.773090218121382122e-01,-2.987359791350017169e-01,-9.723883597804428014e-02,-3.820585329659998974e-01,2.565547613911253189e-01,5.873070972648652965e-02,2.518976397917934706e-01,-4.934167781906162453e-02,-4.584294148731522522e-01,-4.073680169735619527e-01,-6.035260568034761519e-02,-4.133911324433566792e-01,4.879658106180998489e-01,1.026660270984612877e-01,-1.295071413135910898e-01,-1.601143801546605072e-01,-2.073717060896960174e-01,4.778537400864589779e-01,-6.757088574618963506e-02,-4.041980015806205806e-01,1.346494421061138480e-01,-1.432776110754396814e-02,-2.480059501770951469e-01,-4.163290354767130719e-01,-2.429015179436447847e-01,7.104676012154198528e-02,4.784487301707818219e-02,-4.470731856855179043e-01,-4.501671328901554192e-01,1.487823203821402318e-01,-2.706447263638123157e-01,5.206971135450011445e-02,-4.161977215103146444e-01,-8.634622960961524374e-02,-2.186462617744983072e-01,-3.936554308266964064e-01,4.793088450749091178e-01,-2.059865506423327330e-01,-1.303481153156131889e-01,2.321700839402482952e-01,1.666872456450841922e-01,1.567048052689244964e-01,1.818583197271944618e-01,3.161347513004311161e-01,1.865042219951072999e-01,1.673869814197269656e-01,-1.435630284602462670e-02,1.290050466390119110e-01,3.269900053800881556e-01,-2.641087603686007590e-01,9.862825246070427987e-02,2.968687566267839140e-01,2.597046783104289824e-01,-2.996400648858710269e-01,9.983602528769286444e-03,-3.057459273255819232e-01,4.000499745768058002e-01,-1.879956761947707555e-01,3.115940204036662386e-01,3.772372837352478969e-01,1.574352322570776730e-01,8.739454022681381051e-02,6.473096881507311995e-02,4.005439610923648974e-01,-4.476894425761953622e-01,-3.794149289682213766e-02,2.772868848611195203e-01,3.880560932235754823e-01,-1.841425333266418773e-01,2.697941079927035357e-01,4.817148500599125471e-01,-3.662093854075736399e-01,4.776134936621243554e-01,4.880651897664047834e-01,-3.458048509035540619e-01,-9.813691085401687886e-02,-2.162208019908100631e-01,3.286837832046978214e-01,-3.648428262636971287e-02,-4.495912572196926194e-01,-1.973673859861736490e-01,2.624482366629304897e-01,1.966655750546093540e-01,-4.534128080980456277e-01,-2.994221196026348730e-01,-2.089671334641621803e-01,-7.942897373919466375e-02,-3.580513769995666840e-01,1.972794609819268352e-01,-3.642308385085003541e-01,3.668143262061458465e-01,-2.843637985508711274e-01,-7.189093907003307748e-02,9.422526034793221594e-02,-3.165089569116865675e-01,-2.534958555138959735e-01,4.231975430559729023e-01,4.679778275282693301e-01,-3.180354769221613864e-01,-4.309904479662300947e-01,-2.192553802095257298e-01,-3.216810038278840045e-01,5.740989546620767214e-02,2.370430091059246847e-01,-5.122975132621210292e-02,8.103995959280452244e-02,-4.957943162613314136e-01,-6.035275075697255076e-02,-1.064111362765112201e-01,-2.526976276301163837e-01,-3.273620813276626462e-01,-1.926237449161256610e-01,9.669884886984070338e-02,-3.835376454239969313e-01,-7.261129654748921247e-02,5.944209118235033174e-02,1.614629517942055559e-01,1.070812919091044257e-01,4.403651017408650725e-01,5.622993771583695288e-02,-5.098876391838147448e-02,3.541554684365122441e-01,-1.303134581485031473e-01,-3.422598715458001761e-01,-1.799603548257692198e-01,-1.136780786847269020e-01,-2.609254164359570138e-01,9.096194410221192239e-02,9.466096194145490195e-02,2.783688711968409502e-01,1.525238415661001046e-02,3.658894551441590481e-01,2.892425089317176568e-01,3.683978395148126417e-01,2.827198569199564915e-01,-3.297087960885973779e-01,-4.557609065313602548e-01,-4.515859395715544622e-01,1.337952560743138619e-01,6.006695642924708700e-02,3.900644490809762610e-01,-2.243007074324382399e-01,-8.182296682407186328e-02,4.355279825624784884e-01,-1.747127643593817670e-01,-3.323927763478944364e-01,5.719077195172062034e-04,-2.923117455844367329e-01,3.874686932231752312e-02,-1.935067384049772299e-01,-5.855697804873183365e-02,-2.733658184429043070e-01,-3.467326887971140525e-01,-5.791423768984260700e-02,1.057950067019912677e-01,-4.899208254223926806e-01,-2.828197538339055628e-01,5.941135531350938415e-02,2.798857629957557380e-01,-4.386447900490930696e-02,-8.070027529777734632e-02,-3.518128492086535219e-01,4.791661330698121501e-01,7.625359058302416670e-02,-3.501722557331120589e-01,-1.583546199308150104e-02,2.031457923187935943e-01,-1.591710507157052534e-01,-3.834356788477778499e-01,3.759455008018134370e-01,-1.242514313642352208e-01,3.745665925214840541e-01,-4.590889474731062458e-01,8.091105853840796502e-02,-8.906732568427955243e-02,3.359884573781549699e-01,3.504400457876629682e-01,-2.299779211328635276e-01,-3.233041665302357481e-01,1.736168661487620390e-01,4.184529054966033002e-01,-5.282933862502614542e-02,-4.769143189078827172e-01,-3.166096340359285666e-01,1.066309820353203985e-01,-8.337271680367108750e-02,1.105416425837292271e-01,3.906576569442181679e-01,-3.212966705175291926e-01,-3.367072444440376566e-01,2.290697931334461090e-01,-4.632257709241583976e-01,-2.566529554603994567e-01,1.174539049867947549e-01,2.980704728277704385e-01,3.091977688952043390e-01,-2.465600744130488353e-01,-2.320183483556083059e-01,2.847793647904752756e-01,1.788253064843599027e-01,-6.100215536163511310e-02,3.553155866329636980e-01,8.445481952555156102e-02,2.559531619110114731e-01,-3.396508024986719665e-01,2.610477202813419328e-01,4.913527902017984506e-01,-3.741475436318687509e-01,-1.687784115061444767e-01,2.819521869860861507e-01,4.194180568079368676e-01,-8.281645647214674888e-03,4.740042361762228929e-01,-3.958998714745068925e-01,-3.979047438548269922e-01,-3.780834374197497016e-01,2.647948234743546791e-02,-2.072485103483836522e-01,4.044669770884435911e-01,-3.818022618653826861e-03,-3.530993422858502706e-01,-2.745261681679712629e-01,2.073803843682446857e-01,-3.441960130593225697e-01,1.218370199515323993e-01,4.269994951342970246e-02,3.738324377628412520e-01,-2.660634623559241518e-01,1.681492673807487570e-01,4.011262015309942086e-01,-2.504123943742864178e-02,2.193726024451182477e-01,1.093728564392295599e-01,-2.625846318495556053e-01,3.126228923706713125e-01,-2.974627736900932184e-01,-4.015816005543068057e-01,-9.317310091702002417e-03,2.881333989293904940e-01,-2.952940099164539367e-01,-5.053416710936564638e-02,-4.048071119642394633e-01,-3.062994528832815311e-01,8.724339505149392160e-02,2.584517781798245650e-01,-3.014663974150209036e-01,1.421621667896846297e-01,9.711085120190787734e-02,2.170481649515781930e-01,2.359718196303278726e-01,1.347947435494364354e-01,-3.180172658579416556e-01,-9.377221480694952760e-02,1.892522568527565952e-03,1.089901146122234099e-01,-3.480986911232902825e-01,-2.955827405261053364e-01,-2.891054382298359204e-01,5.849853872777166508e-02,-4.375806408381154311e-01,-3.685798693186337349e-02,4.030113901281288102e-01,3.927913391649531238e-01,1.679341821914372979e-01,1.532773518820846892e-01,-6.951210945656882689e-02,4.020257573722075817e-01,1.408541821054152265e-01,-3.316347135690720371e-01,2.384037222211085050e-01,1.431540164232572021e-01,-4.647669378971973630e-01,-4.246980575199477137e-01,9.318106282620530756e-02,-3.530636917242020445e-01,-3.528184234002451625e-02,-1.971889891159104291e-01,2.776645142994457194e-01,2.863134086038895409e-01,3.204898732934290395e-01,-4.700699148084354073e-01,4.096079005868233924e-01,-4.904233515183217262e-01,3.954462349456766557e-01,-8.409306367179736341e-03,-3.923985577902893152e-01,-2.853546173995133994e-01,-4.287152971193386453e-02,4.972724699885823219e-01,-8.451462799108788726e-02,3.039993407428663863e-01,1.539801861717011722e-01,-4.123402473623126729e-01,-8.024727858589864038e-02,-1.652528379917557189e-01,-1.039933982338656637e-01,1.563817477527191802e-01,-6.376705824258843691e-02,-8.762266732462631325e-02,2.158505702939653714e-01,2.442148855683978770e-01,-3.024853637650867233e-01,-3.473850655863467418e-01,-1.801150965312326990e-01,2.447434627619878844e-01,4.747887338562332138e-01,6.466842362364400021e-02,-2.610296869572480416e-01,-8.173023676030488627e-02,-4.950254864153275092e-01,-4.533248038150963222e-01,3.400868346249596996e-02,4.830336811665203456e-02,-4.991482593809053459e-01,-1.631493320812351655e-01,-3.514735428602636658e-01,-4.154199349028848687e-01,1.288017529628808777e-01,-7.067659103439316581e-03,-8.339774850658920879e-02,4.120721407122173163e-01,-1.133446727580142976e-01,1.363344464147333568e-01,-2.577918115251400799e-01,-3.930583107241354401e-01,-3.101121306151025658e-01,-9.537918840380266161e-02,3.512780819962588730e-01,-2.050106002417618756e-01,-1.403308052776865988e-01,-2.605889121167843658e-01,3.405776155540152228e-01,-1.703384198508537395e-01,-3.481194612103302166e-01,-4.243960170665624920e-01,1.884267285718831397e-01,2.362924268710219211e-01,-3.769974928008602566e-01,-1.656553798542781397e-01,1.769447878328829216e-01,4.613864473700690638e-01,-9.443668453598774715e-02,1.972316963058060590e-01,-3.275033603329580156e-01,-9.945310242786975508e-02,-2.740008447336044206e-01,-2.727469518127292325e-01,4.929430255594905441e-01,2.416949913768934310e-01,-2.839126237663415209e-01,2.350022237118937207e-01,-4.098583161959989951e-01,1.299875133947089312e-01,-1.335722358935900189e-01,8.428740854947780470e-02,-4.584399744183342840e-02,-2.573168409163795189e-02,1.571419789268430067e-01,-1.994444779432476000e-01,3.508060228794851465e-01,-3.081270468280196129e-01,-9.047193731610936318e-02,1.724193845154504690e-01,1.558806922695632480e-01,2.365546959512553338e-01,-3.627399499787540282e-01,-4.768317661158143483e-01,-6.525369046351370272e-02,2.965972885272738502e-02,4.545501561924021328e-01,2.054045358330337523e-01,4.228064107753858325e-01,-9.659212948802664567e-02,2.288796933888559426e-01,-2.226887271486288622e-01,-3.837149691210138824e-01,2.500780355669621757e-01,-2.411552387044095802e-01,-5.863489996552528893e-02,1.134582107446368004e-01,3.725576599715565429e-01,1.928347785906484591e-01,-2.946819872535366702e-02,4.930998396369044023e-01,2.531524186569992230e-01,-3.973928963882513710e-01,2.620695430649344626e-01,-3.770441267674145003e-01,7.585185532603000436e-02,3.510984074993682702e-01,-4.035379682656341505e-01,4.101437759778692183e-02,-3.354739310022428755e-01,-2.445565817917049189e-01,-9.746043011998506422e-02,3.676404383137478193e-01,-3.487383682048786904e-01,3.883924505696142448e-01,-6.940167507909655864e-02,-3.240948958002081159e-01,5.400004318270834602e-02,-3.714442570687782608e-01,-1.280252278194144999e-01,-4.245993854137635193e-01,-1.441757500285538729e-01,3.119974179019160410e-01,-1.080666670605127111e-01,3.589963930581049345e-01,-1.147849524422840384e-01,-1.166556158748011107e-01,-2.956215893628177938e-01,-4.486216801825781975e-01,-4.124334087651562175e-01,-4.992545369538393674e-01,-2.093568821921942824e-01,-2.268822449024687771e-02,3.695463532439129395e-01,-1.249562812491111785e-03,-2.814080367385924930e-01,7.534076875775219673e-02,-1.286587337692378652e-01,1.888765986686183895e-01,-1.736933204999767666e-01,3.529147644609220702e-01,-9.083010526141499508e-02,3.107361365851469825e-01,1.039028778423733979e-02,4.088050014131437981e-01,-3.622340083497039842e-01,3.137297445089292092e-01,3.592900946271876395e-01,7.304226355156795414e-02,2.367355969401396809e-02,-1.217546595192960934e-01,3.135955415043304439e-01,-5.041937356188075370e-03,-9.387333036462008895e-02,-5.082329696127485530e-02,1.067129165021911685e-01,5.732183157391335104e-02,-4.537558461076220961e-01,-2.624769072345241039e-01,4.391042218823424381e-01,1.227451835960686743e-01,4.705096782040472103e-01,-4.928479454371903490e-01,-3.964432521211715965e-01,4.272931595768685309e-01,-2.472419473707380133e-01,-4.277059995356381483e-01,-1.688211284992842121e-01,1.266788299585308586e-01,-2.439076481428212873e-01,9.049554063103437684e-02,-1.024967265414649109e-01,-4.864127554701699330e-01,-3.971171414642159503e-01,-3.473214363305996422e-01,-4.934583614546069752e-01,-3.684005036063996430e-01,1.218788857231979383e-01,-4.797900900255895884e-01,1.549965043275391974e-02,-1.276440325005010479e-01,1.668248767571123281e-01,-2.738629176651697916e-01,-2.524960061326100291e-01,2.319373602897871756e-01,-5.175324066356123964e-02,-4.129431253290758441e-01,-3.332102191018795345e-01,-3.468834423721757210e-01,4.484357166132461048e-01,-1.800688996244527162e-01,6.357891306341700854e-02,-3.496587382474748429e-01,-1.272622569754996436e-01,-6.395144029547406017e-02,-3.084074947998419747e-01,4.755427754033395571e-01,-2.009334532307681664e-01,-1.716272042125831510e-01,-1.693848396234937104e-01,-3.110867342992768014e-01,4.990673622311155855e-01,4.574140440008964692e-01,4.234461588646344365e-01,-4.933571311270106285e-01,-3.704066700476386087e-01,2.961468279607637477e-01,3.180825469091796975e-02,-1.927154453924633248e-01,2.567567614106904816e-01,-3.974927156000752637e-01,2.605067029974308390e-01,-2.014741570689698724e-01,9.274200239352325958e-02,-3.336944316501412322e-01,-1.364807826177688588e-01,-1.736999299399056840e-01,3.597494146382965718e-01,-5.336862375159612260e-02,-1.929648678027182651e-01,3.503687718318084787e-01,-4.269320194935710688e-02,8.809612158904167600e-02,4.542572120662125013e-01,3.900511939598305666e-02,-1.471861095772245553e-01,1.437689191579271109e-01,-4.951216838623586636e-01,-4.784190748541794491e-01,3.636814032206632241e-01,-1.795602340422296495e-01,-3.063031169923546848e-02,-5.650266201627429652e-02,-2.346152736218862778e-01,-2.380944732475424042e-01,-3.383073225670211182e-01,-3.676854026683037402e-01,-4.314661256989714699e-01,1.082594107413566986e-01,4.951854528062091809e-01,3.832396984852850519e-01,-8.862682950505573753e-02,-6.336615853178906299e-02,1.580535618282277177e-01,5.578596113922218436e-02,-4.512037751366965166e-01,3.990848896147595193e-01,-2.264375305213117695e-02,-2.668416023025499406e-01,-3.830333010081006240e-01,4.132382790733917233e-01,-1.823188558179489327e-02,3.887622683352847108e-01,-7.629329172761800670e-02,-4.472424526708056458e-01,-4.540443200709758376e-01,-3.987323490574548046e-01,3.078605565407810385e-02,-4.914542382455743263e-01,3.819775943300475207e-01,-2.865191408134681872e-03,2.946569730454692282e-01,-3.378534178349326123e-01,3.821408531678660569e-02,5.292504352190818828e-02,3.585985106246898368e-01,1.506598900330780033e-01,2.165474366579784871e-01,5.741409487868742723e-02,4.973399088124053069e-01,2.604607936779064215e-01,-5.647724280442423250e-02,-6.345933466465680794e-02,-4.181456258013445115e-01,3.352159338819443724e-01,3.166068454397610310e-01,-7.934555166074641619e-02,3.203072772080460817e-01,1.892249378815650251e-01,-3.995159966342277658e-01,-3.944174563030887759e-01,4.537365032671719645e-01,-1.740885560037441770e-01,1.572037583300763819e-01,2.995966398425287114e-01,3.986123287969426388e-01,4.138474935894587148e-03,-3.464934799713460523e-01,4.884254010600723728e-01,-3.528358205032340322e-01,3.394166976725360163e-01,-9.470346990469236115e-02,-3.327767610446085156e-01,2.280237120412273999e-01,-2.377236924768155735e-01,1.649062435872838961e-02,2.923317238509468563e-01,3.620056122866510684e-02,3.804196493103344512e-01,5.454300751316265572e-02,-4.514928342427912966e-01,-4.688188852915570193e-01,2.668237094014829225e-01,4.715191932703666211e-02,4.434870213931461080e-01,3.106583414477714911e-01,2.693107313103694223e-01,-3.257583521229143741e-01,-1.675351140479974799e-01,-1.245004894632323333e-01,-4.323415792361028354e-01,-4.048826453648247670e-01,-2.147186074372817721e-01,3.867793968857259346e-01,-1.952412838484962609e-02,1.510589861875153428e-01,2.645186004103081689e-01,4.034118466893922283e-01,1.787250787837054711e-01,4.407585977303698499e-01,3.515547188703426196e-01,-4.672558459484110749e-03,-4.922691149034497116e-02,-1.542499153945853241e-02,-5.804145264666848991e-02,4.821353474167111575e-01,1.123824668231154789e-01,-1.495798977163190768e-01,7.207056827510049946e-02,2.389527896309470156e-01,-4.514787695093834818e-01,-4.048498040327078717e-01,-4.096617316267459064e-02,-2.135489681003678308e-01,-1.660207171510184043e-01,-9.443128873059947193e-02,-8.836483091588165362e-02,3.450921223423030204e-01,4.104139901333964113e-01,2.705388219170723474e-02,-1.427569649320067358e-01,-5.864310321955668037e-02,4.041490118328768810e-01,3.687772607884344245e-01,1.896338283950571579e-01,3.550470865916721674e-02,4.164178606634708624e-01,-1.768382397095147329e-01,3.208722144009740207e-01,-1.284337393529000337e-02,3.409450942897120918e-01,3.968447652090378863e-02,4.252709484297306775e-01,-1.295697663330557248e-01,2.746723420715592168e-01,-4.072809363666940463e-02,-2.555439104557084562e-01,-2.622186193476293559e-01,3.833968220029410068e-01,-1.296028139460080331e-01,-1.546404316875060747e-01,-1.479904237012354962e-01,-1.882845630375165058e-01,4.521802964991155083e-01,2.633187226047024598e-01,-1.607474987269637001e-01,-1.673102131919792512e-01,2.525885542516146387e-01,2.687730889211056295e-01,2.749342632989404400e-02,2.689771140039329822e-01,-3.998336358330933926e-01,-3.070772769486489473e-01,-2.215253512937509495e-02,3.495384196240390873e-01,-2.247805457248299721e-01,-4.462091769497992244e-01,-4.752317170115384348e-01,-4.744702543726629917e-01,-4.122271341886004636e-01,3.796542948986414423e-02,-3.327282936977916661e-01,4.868937974454189410e-01,-3.415641274217839918e-01,-2.585936383561439067e-01,3.653502430086819075e-02,2.436863898039876020e-03,-4.429887944532190369e-01,1.412450952011502503e-01,-3.204627390062513292e-01,4.780419044636079473e-01,-3.362643575017723041e-01,-3.625250372700935531e-01,1.981241981638628413e-01,7.848318186877145664e-03,-2.582661889686587164e-01,-2.939698491822583248e-01,4.359297086938972443e-01,-3.486259300910554693e-01,-7.768452664995506574e-02,-1.222766680995602817e-01,3.716439256492510834e-01,3.461043810825336076e-01,-1.127618246987061035e-01,-3.656042827542883566e-01,-1.451493207434884081e-02,8.715849708098566406e-02,-1.550748053352797307e-01,3.242916344781811011e-01,-3.741026247182274167e-01,-4.475541656244472755e-01,-3.017576810521515052e-01,5.926965597794153773e-02,-1.118433052601508493e-01,4.933324047013196711e-01,-9.395787286784140768e-03,3.398306027341513325e-02,4.260334965775764982e-01
5.349341914750116445e-03,-1.367001288576839002e-01,-4.805192956485386802e-01,4.297254751739567613e-01,1.542100616439168181e-02,4.978978545632520847e-01,-2.386223643923337523e-01,-6.718976012109423301e-02,5.680289339365485191e-02,3.820502570862842617e-01,3.532845096824611675e-01,6.694250678328661497e-02,-4.126817052517870454e-01,-3.419852426655450861e-01,4.662718800165268629e-01,4.089851834261989394e-01,2.831733781088676682e-01,-2.568383321874585512e-01,-3.637142739779923861e-01,-1.992050635803708225e-01,-9.568850913257043178e-02,-3.391562483494758862e-02,2.423488224864505103e-01,2.320059769022353446e-01,4.357634119082681723e-01,5.715515089825784489e-02,1.821628442847611495e-01,1.542743124917896891e-01,-1.422015213888147001e-01,-1.995494911877022659e-01,-1.687035901121355375e-01,8.200858212092376753e-03,3.787427174656792239e-01,9.098274688506957641e-02,-3.150857719001719515e-01,-4.616089967150321938e-01,-8.118456950632968461e-02,-3.713771850304318223e-01,-2.722942155338621273e-01,2.801598265717364367e-02,-9.650811221326738298e-02,-1.959581010424127356e-02,-1.722894348386720953e-01,4.450072555145582198e-01,1.808417112956149930e-01,4.484725692902545857e-01,-3.849115869026742409e-01,3.643726162690466008e-01,-2.032942410853755266e-01,5.244751187716523155e-02,-1.996656362622732939e-01,2.394767645354496377e-01,3.689589097827510322e-01,3.334866791531820862e-02,-3.451229110914058040e-01,-2.484646681667143087e-01,-1.052550446925524241e-01,-8.288406009969528920e-02,4.560879764083675125e-01,2.993741385773712738e-01,3.067743039912961267e-01,3.544862427973113350e-01,3.542347171348955159e-01,-1.172697742124312326e-01,-2.177773999036162200e-01,1.906338824064417459e-01,-3.389528368500853706e-01,-2.071799926520329072e-01,4.191655875610877935e-02,-6.317532349708587791e-02,-2.217707453495292302e-01,-4.182020106869033249e-01,-2.802840319019701543e-01,-7.047812058838276439e-02,8.417070483562538730e-02,1.885881657069590212e-01,-2.994086796554540353e-02,-2.031302379733923580e-03,1.301648063212480499e-01,2.468894571484867573e-01,4.827108754335459606e-01,-2.687738357574150916e-01,-4.458214076206669096e-01,2.735137979195370050e-01,-2.693905191807545174e-01,1.475469012779616618e-01,-4.144242188632919488e-01,-7.195390450777372493e-02,3.402510132296363565e-01,-4.036979138183733884e-01,4.368521716098578977e-01,3.349211504075241264e-01,4.781194726935777961e-01,1.397426444948525193e-01,3.916383438995298949e-01,-4.494402875591688717e-01,-4.436056783368383938e-01,1.356459157652951664e-01,-1.018702150575968579e-01,-3.532768972823417952e-01,4.584931428999465819e-01,-4.024522069475839903e-01,7.707091524444875663e-02,3.910917114616252466e-01,-2.993393259043758414e-01,7.843688109740765135e-02,3.811171241217834460e-01,1.459341533723060857e-01,1.516455285767603911e-02,-2.578889767371566055e-01,3.922793180620816056e-01,-3.777310901362578299e-01,8.473133841415303458e-02,-3.149995717140712248e-01,3.991687620047607021e-01,2.556724835488003444e-01,1.914163198272789135e-01,1.960598513106792673e-01,1.737379603877298173e-01,-4.694661186258821672e-01,-1.426157391587536960e-01,-3.625489228295808442e-01,7.903287043428197656e-02,-1.652602305606970523e-01,3.616974500827686567e-01,3.426665033103071245e-01,3.019260823143204986e-01,-1.962882631262183875e-01,2.011507347995300510e-02,-1.286935007165689315e-01,-3.567897838772682295e-02,-4.522697193960311113e-01,-2.475182556799956357e-01,-4.472587018880959109e-01,3.728743948788261209e-01,-1.104627781796242436e-01,1.485022729890195237e-01,1.587499024239981127e-01,3.947916533080708668e-01,-4.269292636879629121e-02,-2.079959729382404587e-01,-1.011535779600104545e-01,-4.702222406990300696e-01,-3.026566760042405102e-01,1.804287474361337962e-01,-2.458711773069259809e-01,2.968102677344601759e-01,3.917995569230592334e-01,2.735648165172281931e-01,1.018839971655838283e-02,-2.957805893939979835e-01,-3.451016922651897190e-01,2.555237234376441791e-01,1.564048417529380064e-01,5.304584011092872142e-02,-2.727062185548445594e-01,-2.438446096158910503e-01,-3.684036019868824896e-01,4.934961214791365736e-01,-1.216577046351901004e-01,-2.732862796117919713e-01,-1.263458891027980924e-01,3.472967146915189041e-01,1.517610320519745537e-01,3.252092908211736688e-01,2.856390825103908293e-01,-3.004567820767745090e-03,-1.764761046081053664e-01,6.437310731197587454e-02,1.057470125030823827e-02,-1.222406222919800722e-01,-3.040353451718603717e-01,2.723259654173935118e-01,2.300074482916572016e-01,2.164960440342742487e-01,-3.113947794286680004e-01,-5.743177297502199963e-02,1.379947390890174930e-01,1.597620583456954568e-01,-2.729857425168720209e-01,2.422183380905296168e-01,-2.902933360094083204e-01,4.340991492762382720e-01,-1.405444188508064851e-01,4.770057788221349071e-01,-2.521271252338448399e-01,-2.701039337391293316e-01,-1.546437694114892736e-01,-1.545132880476780546e-01,5.215652689327665570e-03,-7.302555716276382114e-02,4.415139080401515592e-01,3.258261529071322382e-01,-1.996647060876338697e-01,-3.098706976242550093e-01,-1.268252138367225168e-01,-1.799090289165516943e-01,-1.135216139391119761e-01,-1.165742865006530460e-01,-1.763989215916207387e-01,1.064964355304244270e-01,2.882167666208870216e-01,-1.341482841138519344e-01,-9.836271018595377225e-02,3.402977252539636233e-01,3.656826285383263375e-01,1.428293364975130597e-01,-5.588491959891306315e-03,2.902423187179770103e-01,2.785155834920088891e-01,-2.027485619781143056e-01,-2.624972707654157356e-01,-1.384088676184940248e-01,-7.409505187547071881e-02,2.974082400123729819e-01,-3.745025516674705957e-01,4.384286288908186835e-01,3.498020559306566080e-01,-1.958876869425729694e-02,4.153526681869833537e-01,1.608518846297842808e-01,1.579915846116874967e-02,4.483629378476784444e-01,4.372101771839920215e-02,-2.414016686452096216e-01,-4.154889603796079189e-01,-1.011076206219089224e-01,2.904876420468250897e-01,-1.745419319750702858e-01,4.643760118449604679e-01,-7.876302678104329935e-02,4.162033828090017096e-02,2.580427605494197696e-01,7.581567869922822833e-02,2.399168769773895038e-01,-1.277968286910105000e-01,-1.435920178117433554e-01,-4.791398854841211197e-01,-4.439761301746830702e-01,-3.843426872505883996e-02,-2.364309956565964210e-01,4.266984895191203719e-01,-4.888213494523170333e-01,4.303120609215919101e-01,-3.228947612114918542e-02,1.075277933370581973e-01,-2.586314456643082904e-01,2.078347039877292968e-02,9.238675889277336850e-02,-4.608658938619503154e-01,2.644111143802924113e-01,1.745434065159480186e-01,3.544308031904235268e-01,-1.448897407414696525e-01,-3.439817456286921038e-01,1.870762768064868631e-01,1.262716456664061404e-01,4.079480635071582872e-01,4.090518825694626770e-01,-5.331047099811481171e-02,1.770025534302898107e-01,-4.204976481069898631e-01,1.937191037531630355e-01,1.927862653334811993e-01,3.398162987932539236e-01,-3.544841139512602268e-01,-4.057801976102859420e-02,1.196458724835265386e-01,-4.265097591179709546e-01,-1.049860583737661779e-01,3.091013183804371955e-01,-3.374801373682003724e-01,-2.430444093992967236e-02,-2.114817351019554481e-01,-2.661767143271486225e-01,2.023892681226465706e-01,3.703284692232663433e-01,-4.640180595919016771e-01,-2.380785827545870426e-01,3.943001700243192742e-01,-2.227531680484028387e-01,-2.184176347403150587e-01,1.002082883146624415e-01,1.521161385060858517e-01,-5.710635703937516627e-02,9.220142906683648221e-02,3.902954504979130324e-01,-2.173435993409674749e-01,-4.644020251760007101e-01,-5.168341556115796376e-02,-1.005876211258177610e-01,3.182922215914827380e-01,-3.796803969007837010e-01,1.031355777134242979e-01,-4.933634708711526207e-01,4.512293185092186576e-02,4.714691276913377527e-01,1.749117786412930364e-01,4.346207117348644955e-01,-2.780168148258166383e-01,-1.971370330555812789e-01,3.820735632049759856e-01,-1.058569258615355002e-01,-1.521243511340775179e-01,2.358728597617776312e-01,2.785573337013838024e-01,4.595919805534414149e-01,2.430026128344461300e-01,1.194753077629933102e-01,-2.007031941906851635e-01,1.945473435600588719e-01,1.385786340380187331e-01,1.437157900447081360e-01,-2.096118081181904680e-01,-3.453382757364201749e-01,4.388445456900867958e-01,4.034386654011036244e-01,-4.695655192711618575e-01,-3.611867361078587857e-01,-4.631179619445493501e-01,3.845418846264307966e-01,1.105368616201797272e-01,-6.302869032656410742e-02,2.944170963217718207e-01,-1.642888060022542618e-01,2.529813704071257607e-01,-2.793584512621021254e-01,-2.490895515820563677e-01,1.903678039545021461e-01,6.340647670228327648e-02,-3.641016112422020834e-01,1.697297527052019639e-01,-6.050791659556975510e-02,2.198518653917410637e-01,-4.869346794035961379e-01,1.101894814947242951e-01,4.925107438449638497e-01,-3.464081133858437633e-01,3.908729698761213012e-01,2.429371966440533326e-01,2.625490852145950793e-02,-4.503335540034431039e-01,3.536735290832293543e-01,-3.613999698893317625e-01,-3.205836112656480497e-01,2.253668086592947040e-01,2.126034896207837921e-01,6.095114658618216996e-02,3.075510722867202951e-01,4.729290288341051474e-01,6.034947159631265379e-02,-4.354113120452074437e-01,-2.956068033485987900e-01,-3.721158721263119196e-01,7.847484218722455829e-02,-4.397613070116428435e-01,4.470695273993400276e-01,-3.369617535980606871e-01,-4.341182335682011173e-01,4.035815196631235002e-01,-4.931828893898538846e-01,-3.399668669690577572e-01,-3.991799794185187933e-01,4.781562065108234671e-01,-1.112028109285512212e-01,4.260003024418818063e-01,-3.001434056983348642e-01,-2.256752872668541521e-01,3.349393896190777653e-01,-9.465980993603329008e-02,-3.922325198006979541e-01,-3.503975309786687697e-01,-1.570500883653918045e-01,2.917332770703564560e-01,3.234093323539215525e-01,-3.582828485348290570e-01,-7.931621271428435094e-03,-2.026644147794719464e-01,2.105008475685600233e-01,-4.477079489370996424e-01,3.422561434560906779e-01,4.528969377125675599e-01,-2.218261772666917375e-01,-3.327989630153269651e-01,-4.307337720551199789e-01,8.564605645385714450e-02,2.240633095827818666e-01,-2.691858445114664322e-01,-1.867522821905787112e-02,-3.646079402927150381e-01,-3.616642480566065743e-01,2.687600508628641416e-01,-3.376783765208483112e-01,-7.794360157149737844e-03,-4.030067337381277870e-01,-3.130033209009963624e-02,-4.539412125462128911e-01,-4.654550159452057745e-01,3.671830867576464374e-01,-4.330676783057132440e-01,3.911443039163192692e-01,9.829018458299165761e-02,4.616385599091737957e-01,-4.001444588031626282e-01,-4.157320853090684665e-02,-8.806365406993132972e-02,-4.897658521644491225e-01,4.359749983615091029e-01,3.746317853488105865e-01,4.583791714529922290e-01,3.814231006166400872e-01,-4.197853598384138074e-02,4.354751461222008402e-01,3.140873489056281720e-01,9.313695486292872250e-02,2.165240868382667383e-01,1.833443803294653174e-01,-4.589083389356943821e-01,4.735936047218022305e-01,9.619245683936195057e-02,-3.767256185671264967e-01,4.354660888651071815e-01,-1.972066990365698436e-01,-4.832970759373096392e-01,-3.668575838686747304e-01,-2.726310185994411661e-01,-6.554628253671557214e-02,2.922111333849339854e-01,-3.863463821803969633e-01,-4.432004773788312812e-01,-1.827961533564348429e-03,2.834640861866161154e-01,2.851885676421850313e-02,-2.217664948389186375e-01,1.869654212562458229e-01,1.365523926970378943e-01,-1.636750097752837085e-02,9.370555811010516933e-02,1.725482229705056492e-01,4.906695769783132599e-01,4.611597687072991336e-01,-4.081719061933228865e-01,2.168112701980817736e-01,-4.835458664872918089e-01,3.381143837584393852e-01,4.529684894927621386e-01,2.239817840180813313e-02,1.731726605172001499e-01,1.739218754749964901e-01,-3.975571286665656734e-01,-1.829286217719960916e-01,2.003241533419568565e-01,-7.371738739936328777e-02,-2.520518077996879436e-01,-6.755887317049591445e-02,-9.614077621503136495e-02,-1.777649002952063073e-01,1.970514685080733130e-01,9.603070163893623334e-02,2.741261552440023008e-01,-4.380387030184198505e-01,1.366672195911986520e-01,4.249848243331288966e-02,4.586966349581996782e-01,-3.267129143210301123e-02,2.276000024488677997e-01,2.856084922991400932e-01,-2.385395603775517515e-01,-2.062584878314477344e-01,4.112771848748427717e-01,-3.697882947800974485e-01,-9.710209524143453841e-02,-2.643094086484850669e-01,1.753699810504186773e-01,-4.289623799647854785e-01,2.382141797952589402e-01,2.637659462460055781e-01,9.247581591766318443e-02,-4.307774205489345309e-02,-3.937238102409557072e-02,-2.281600469210158799e-01,-1.895555137838075277e-01,-2.080014492865642772e-01,1.470957181936420888e-01,2.683724689278874642e-01,9.341238553972985859e-02,4.211474941020139084e-01,2.559537733112614566e-01,2.386607733312762214e-01,4.055301279647776092e-01,-4.784876639715223146e-01,2.828597110013371108e-01,-4.042225752755715940e-01,-4.994097144626291618e-01,-2.109905512539124173e-01,-3.730635881230781603e-02,9.024154462017985878e-03,-1.874930219915038609e-01,-2.196461155649598318e-02,-4.554581236365538022e-01,-3.460362497330990994e-01,-2.338140715765422151e-01,-8.272189761388382134e-02,3.514029110700523928e-01,-3.415414968588565969e-01,-1.117027637929814965e-01,-2.228933532432845199e-01,1.850691504287987899e-01,-3.964908932402082531e-01,-5.403960019969000772e-02,4.742052592317471671e-01,-5.632847955426845132e-04,-4.906390663347787173e-01,-1.688758942425503395e-01,-3.801672845542368728e-01,4.822357107971565471e-01,-4.360344799921478387e-01,-4.457600303946051001e-01,3.557457373487880048e-01,1.485134472779044978e-01,-1.319143286188146913e-01,-2.867858528701916487e-01,3.312001110444490193e-01,-2.566003524236638578e-01,2.493008895552536464e-01,3.416415047574410391e-01,4.050633217684681542e-01,2.928878271229734542e-01,-4.656617363162125489e-01,-2.408217228428947143e-01,-4.570393757757970077e-01,3.590912244825724686e-01,-3.916976761822046349e-01,-3.451137240257939887e-01,-5.329099832534311965e-02,-4.925165126923869430e-03,-3.718511246010869353e-01,6.294033692068856656e-02,1.124964278168638643e-01,2.133902481790245220e-01,1.720549976521899005e-01,1.661756057961483179e-03,-1.792706477839645096e-01,3.968755075536467558e-02,-8.564334389965311267e-02,6.843855938363929692e-02,2.782839381477537621e-01,1.533979257718098843e-01,3.608510664389328326e-01,-1.707637522869809299e-02,4.797416521009143509e-01,-1.801388611787914096e-01,3.404712674589627230e-02,6.468413493892033461e-02,-1.213466447722763020e-01,-1.308363221158185263e-01,2.461905881178250155e-01,-4.608978772526989287e-01,-3.151631642206198514e-01,2.003065582197177674e-01,-4.187808281606930638e-02,2.483173780831549049e-01,-1.316173631636885499e-01,2.485371584403329726e-01,3.097190273121488424e-01,-3.212066244568601014e-03,1.668002352304706060e-01,4.559366489161037483e-01,1.961608005351588302e-01,1.676062890817842099e-01,4.446588395307016217e-01,-2.975236828525780197e-01,-3.809666583100070891e-01,-2.923544455144565513e-01,4.252444139024659231e-01,1.649629578507906258e-01,1.635604708031431764e-01,3.077941531927724794e-01,1.627443331752764788e-01,-4.428135648635367350e-01,-4.087834288638506619e-01,2.668834421778073507e-01,2.053255602453538664e-01,-4.787053620923027442e-01,-3.587454380022881972e-01,2.462317870897111627e-01,3.459482875917955225e-01,1.460557537713912390e-01,3.978118964176521333e-01,-9.988593618875807323e-02,-6.577579990029969181e-02,-3.603353948215158864e-01,4.297565219531689351e-01,-2.931559521505213706e-01,3.029990372933522025e-01,3.562607355695770472e-01,3.672004104062839280e-01,3.482693989414691327e-01,-7.018874196937507914e-02,-4.645873614046956979e-01,1.640015924635264133e-01,2.655052887254329974e-01,-1.098859139887489178e-01,6.725920172880095471e-03,4.631752479703803438e-01,-1.351191364681890716e-01,1.532667408636649853e-01,-1.715286980840093900e-01,-4.359259880449384283e-01,-3.479834555429526244e-01,-2.308688403736528505e-01,-4.333238376439646489e-01,-3.340363520032831879e-01,-2.258456140793401179e-01,4.413053255229812954e-01,4.552725794296267336e-01,-2.325728874057124695e-01,1.195259138926600961e-01,-2.148317412777364099e-01,2.362641093262026759e-01,-1.881643552183064338e-01,-4.880593186953485763e-01,-7.673890177351105901e-02,2.522854659129702970e-01,-6.788821016412538434e-02,-1.219002349907379879e-01,2.417959552787820598e-01,-3.718440135355234322e-01,-4.923776606329643979e-02,-4.469687887170382679e-01,-3.783213632058959330e-01,-4.302085397842190240e-01,-4.312608821240531132e-01,4.209665531803954419e-01,9.416758035298933294e-02,4.548422438666541723e-01,1.518997775398593930e-01,-1.046190480998265837e-01,4.408966162442287118e-01,4.778917743436091881e-01,-5.436619312603685472e-02,-4.487982588107586324e-02,-2.579419937133237140e-01,3.819211685102269493e-01,-4.940006367321957415e-01,4.456941236302154330e-01,-3.671644363266302058e-01,1.024555553805361896e-01,-3.322573479783290651e-01,1.441492450176224960e-01,2.436749842048001602e-01,1.050204699370641537e-01,-1.843975157847497215e-01,-3.015343664477906360e-01,-1.361650146823822904e-02,4.986931735651010111e-01,4.932284255895963421e-01,4.039276406418856880e-02,-5.055262137874105832e-04,-1.474309541632640164e-01,1.048390340693220457e-01,1.420072653254136341e-01,-3.677001883382200464e-01,-4.827987269008332527e-01,3.499946533859853437e-01,3.133073887327068041e-01,3.691546496930757648e-01,3.452818158968732343e-01,-1.660305098913898991e-01,2.516056841339349148e-01,3.914997956851957728e-01,8.113530304365068613e-02,-1.376026950946882543e-01,2.049037973305724014e-01,1.907200166078886205e-01,-2.783082149415608830e-01,3.976347586559414449e-01,-2.910986509954011092e-01,1.785178872729784594e-01,5.900444415741434856e-02,6.209423970293503903e-02,2.712601078659481191e-01,-3.254096637821601856e-02,3.299694665272834282e-01,-4.304011579667837983e-01,1.766157569093622648e-01,-2.841923610570055159e-01,-1.565767437896276038e-01,4.301317983518933019e-01,-1.738243073196856781e-01,-4.852470266438053681e-01,-4.969962674055713459e-01,4.375354090888143865e-01,4.740815004838954128e-01,5.791868166968028309e-02,3.064387945172453165e-02,-1.964410371102243147e-01,1.409135091862073752e-01,-3.875537211135150484e-01,1.326026446339059195e-01,4.547232529655304001e-01,-3.954120335024605692e-01,-4.141509928288427123e-01,-1.312982686587716996e-01,4.472512391498543183e-01,-3.196652562789691343e-01,4.705943010303837992e-01,-2.011748775583875881e-01,1.312944927723446176e-01,1.788223427334810767e-01,1.467828246160146621e-01,2.015030066424295940e-01,-3.563879406765713131e-02,5.441912031553020057e-02,-8.889349767952992032e-02,3.721362943228869735e-01,-2.821922618542239691e-01,4.141301830162744668e-01,-5.566698172692208235e-02,9.384579432230899521e-02,1.902952827779177403e-01,-4.032099586263627744e-01,-1.019565044132604292e-01,-2.054684752996411845e-01,-9.794489707665077205e-02,-1.050887056337819203e-01,-3.169718148152291803e-01,-2.354181189566378896e-01,7.715055001991910633e-02,-3.144060846250821273e-01,-3.222647688271503830e-01,-1.407001950668904655e-01,-2.310784425884685467e-01,-4.389962721875062535e-01,-4.785422994033899924e-01,-1.664821391426151154e-01,8.432141288181549399e-02,-3.942599672927723509e-01,-4.570444463877736396e-01,3.415782538785691047e-01,4.870548028783501238e-01,3.592055477409029640e-01,4.974178738713114223e-01,-3.990947762512440100e-01,1.353218207160742370e-01,6.891441397971276306e-02,4.080364917536882796e-02,4.677441619834266096e-02,-6.183295781022946080e-03,-6.702806432867458586e-02,-4.170495779834266781e-01,-3.829187857037427145e-01,-9.754158213696406676e-03,4.616334292947744666e-01,3.179952104595058504e-01,1.879234024565181738e-01,2.292239995114980777e-01,3.981495861054218377e-01,7.432238942084623545e-02,4.051448960442610714e-01,-2.408932859860212217e-01,4.193266058261964080e-01,-2.876945496646646783e-01,-3.911859720673075413e-01,6.307182569515834558e-02,3.774142288524453548e-01,-1.085509336406765835e-01,-4.086361115039603975e-01,1.271452164161003262e-01,-1.418773521235131563e-01,2.759527272950746957e-01,-2.346711727680085291e-01,3.164322811605368990e-02,-4.494047790126113329e-01,4.702956934870029526e-01,-1.976915513593766605e-01,7.735898156639386958e-02,-2.357460473448912408e-01,1.865871790198998514e-01,-4.396943677947172668e-01,-3.551935675404763737e-01,2.969967751856332772e-01,-3.607583847523186948e-01,2.346707955942518575e-01
1.560979540193714321e-01,3.630833575334114771e-01,6.290782051153831489e-02,-3.660116624912524985e-01,4.119128662666301510e-01,-1.519033634657700471e-01,-4.760932318930251039e-01,1.778301037658186479e-01,3.720867330594008759e-01,3.845867259970815466e-01,7.917736752484094698e-02,3.869707744681958328e-01,1.762026741629375559e-01,2.545508239928629957e-01,-1.314051073122672886e-01,3.855519682346469912e-01,-4.980473949516794896e-02,-1.583749871229969131e-01,3.117507025579964175e-01,1.802451464908043643e-01,3.577201078344323104e-01,-1.573589296818866945e-02,-4.061031505229051319e-02,-4.482055370916560033e-02,-4.925242842723251968e-01,-7.927224834924739838e-02,-2.683174834488206706e-01,-1.278086977939441038e-02,-1.245291369281029681e-01,-2.538150386113700030e-01,4.873877170531888403e-01,-2.113850628891658090e-01,3.025169154435021213e-01,-9.277675808237595412e-02,2.478239440479305111e-01,-3.072823202981065371e-01,4.354213645465863092e-01,1.508121456222696333e-01,-2.367605152861836926e-01,-2.576497777532658073e-01,-1.902139594468211792e-01,4.691932010146271370e-02,-2.659692462129340518e-01,4.099194043088859596e-01,7.652499078514940489e-02,3.911806688821269917e-01,-4.260775082332501906e-01,3.924748703503692093e-01,8.690381220608556223e-02,6.205142562372589765e-02,-4.580267690145152226e-01,3.040940205922288975e-01,-1.336664294627213367e-01,4.255534575709456480e-01,1.921346333831770448e-01,3.012918005527909227e-02,1.372666425124644540e-01,-5.952006772134077472e-02,-4.097687675132144491e-01,4.109927126947480192e-01,1.765677681709133529e-01,1.629908203174936787e-01,2.495695757255489422e-02,4.973287770152159393e-01,7.928482849635443142e-02,1.347121951039931265e-02,7.560447049788676654e-02,-2.756082874203744648e-01,-4.384015007012443954e-01,-3.260825300860326070e-02,3.961078715384023230e-01,3.775079375973399154e-01,1.382895248932908272e-01,3.873197918514224014e-01,3.326808024321059598e-02,1.208405914043118035e-01,-1.562481619324043169e-01,1.855388567461594418e-01,2.027604268946111565e-01,4.414198512684124331e-01,3.926243195260475938e-01,3.973987893537953564e-01,-9.207062268112387038e-02,3.070116901927399944e-01,2.904030699409126948e-01,2.433041080246568511e-01,3.234756302534310679e-01,4.301357419217559652e-01,1.521672740490322973e-01,-7.043817257896567430e-02,-3.579406550170276535e-01,-1.614415897945066236e-01,-3.156365133335350404e-01,-2.230608541103096254e-01,6.984627871250426168e-04,-3.762685444045228422e-01,-1.991502427321835134e-01,2.750808980838830298e-01,-3.415338580653889400e-01,-4.324601940455474747e-01,3.199831085726152491e-01,-1.268584279238821333e-01,3.114173401722776235e-01,1.354467862940150757e-01,3.104192214487224710e-01,-1.785765505308930523e-01,-2.784421963694033719e-01,-4.783981609233090015e-02,3.183867738641765754e-01,-1.966656134377174903e-01,-3.612527223325943115e-01,-3.854667876741276755e-01,1.015585908349061484e-01,3.938938194876129284e-02,-3.639940379140725879e-01,3.411303298546995988e-01,2.241261979704960439e-01,4.072551217699670323e-01,4.386453025073276946e-01,-1.049285738805928458e-01,-1.888745062447353407e-01,4.984825775480867804e-01,4.336916232130308968e-01,1.430962439531074937e-01,1.647362698261835012e-01,2.892879406639301543e-01,3.449542723107196229e-01,-2.827628189728425001e-01,4.563348145989267746e-01,1.108206642991904634e-01,-1.599396614543674433e-01,6.805086970033469296e-02,-8.942778001246265429e-02,-2.312407233709566912e-01,-2.914617936703527423e-01,-1.971399181911235310e-01,-3.217765052632253209e-01,2.399494278389355806e-01,2.475306608862561930e-01,-1.718097408351737521e-01,2.790484654306479850e-02,4.100397320821166369e-01,-2.481071005119236395e-01,4.771624763775683675e-03,-1.163303093455526627e-01,1.450981675907747626e-01,-1.114116188447922262e-03,5.354690782575333152e-03,-3.560167530958143756e-01,-1.916983472966465873e-01,1.681154042315453623e-01,1.097662205867665497e-01,-3.652570061415808533e-01,-4.700161578282109343e-01,-3.848828240602855111e-01,-7.266109124012309906e-02,1.430359492781411168e-01,1.370303477110975665e-01,-6.426280307648235546e-02,2.138378551925702586e-01,-4.751074345693914180e-01,4.630382025024356585e-01,-1.584192522785433654e-01,-1.443235445370287806e-01,1.252261268606558176e-03,2.614432555730905605e-02,-2.492429788395672530e-01,-2.910549568793102670e-01,1.512876031590705272e-01,4.806831472508561465e-01,-3.441055906543090126e-01,-4.253898857888536167e-01,7.688436728145964238e-02,2.858493921603874055e-01,1.013930709680673781e-01,-8.026786545077346791e-02,2.665583466170472482e-01,4.581864103304796876e-01,1.162470979849034025e-01,3.153330095726937232e-01,-2.190328542503989784e-01,-1.849070248282415063e-01,-4.335815884175133750e-01,-1.286720686623210597e-02,-3.152392945586243167e-01,-4.607813511568173981e-01,3.031224052406678027e-02,-2.750755241741478230e-01,-4.913903612671948196e-01,-1.083811362668856138e-01,-3.160861815167451683e-01,2.575368353385473208e-01,4.274005123900159742e-01,8.273305350779525114e-03,4.877523390294244976e-01,1.102815136924796269e-01,-1.162674714632927486e-01,4.827616487907404608e-02,3.528547234402518162e-01,2.623552425408859357e-02,2.665989314412897659e-01,-1.490370742412679972e-01,-2.696575230634490339e-01,1.519071909027642775e-01,-3.078341304388592103e-01,1.973871658406003426e-01,1.559530172566241379e-01,-1.751307451509208635e-01,-2.501137775391698570e-01,3.417479847540867421e-01,-1.508012531781064425e-01,2.972445083602728300e-01,-4.147924816132145809e-01,4.516897941678055250e-01,3.420423611730930569e-01,-2.974674271586227325e-01,-3.882275746838711461e-01,3.661698145415809291e-01,-2.791157837905908767e-01,-3.464371050801929863e-01,3.139390447134691176e-01,1.477761859824034962e-01,9.527819677917859220e-02,-4.106694731073639026e-01,-3.147850822517549441e-01,-3.154290113823423614e-01,3.736781450998136744e-01,-1.653141467442450496e-01,4.550031044779807576e-01,3.552246584385573280e-01,-4.570761602377338972e-01,2.946309565646345607e-01,-2.497250719342299918e-01,-4.859318602118061214e-01,1.057240892605866289e-01,1.336476410491586053e-01,9.752400663913363132e-03,3.739629388299190449e-01,3.104937366370841278e-02,4.801150944698820977e-01,6.654434506972795038e-02,4.132833160148978724e-01,3.111729760340657958e-01,1.276441253023634648e-01,2.540440615750305664e-02,4.613309004911380073e-01,7.330050906793750265e-02,-3.445129173582152093e-01,3.604436929720350458e-01,1.677554722959057054e-01,1.838187141157865412e-01,3.798147680578700669e-01,3.874191237261304099e-01,2.513933424999906796e-01,-2.069525566146237505e-01,-1.294374844895547216e-01,-9.080387619824403789e-02,-1.077917672093130497e-01,3.658881004709589879e-01,-1.067889689481823501e-01,-2.223212107296123063e-01,3.131457661113786761e-01,-2.060540717776272457e-01,-5.392721052625060185e-02,-3.519627672194675094e-01,-3.808293884617200975e-01,-7.370001834790940176e-02,-8.094881123104202825e-02,-2.547410575475715921e-01,-2.057122137727828148e-01,8.855030496170435139e-02,1.755365388662349924e-01,7.525969554886680069e-02,1.017533967352786117e-01,-3.228791162026848349e-01,4.396022806600151656e-01,-2.867976522909354564e-01,2.438933060627723748e-02,6.471605464825080922e-02,-3.601735510862267287e-01,4.902122173593430610e-01,1.110816346655485454e-01,-4.737670527012362021e-01,7.828227550312605310e-02,-3.056647454423199184e-01,6.689405235466672206e-02,-3.270658915742329365e-01,6.959210344517041680e-02,-2.952105097036313852e-01,-4.354855938402820703e-01,4.210481944086197359e-02,1.211881919363675397e-01,-4.571822833541155928e-01,2.641001996476777247e-02,-2.427910493140783554e-01,3.162496418766808093e-01,2.430919783816420932e-02,7.298782247146196056e-02,6.140991469680867620e-02,-1.566904489023738245e-01,-2.198951636677570765e-01,-1.308561395121203841e-01,-1.742117034178251034e-01,-4.364739621035954587e-01,-1.701025162049865092e-01,-1.140164882612860753e-01,3.165996991798010196e-01,-1.470974989865799776e-01,-2.991970038965853229e-01,-1.374057369220926805e-02,2.728512773813832615e-01,-3.997050880029403563e-01,-2.646976155375795337e-01,3.583672254108871691e-01,2.180902704496370248e-01,1.822082567917208129e-01,-3.418080739864092221e-01,-4.138351247491540708e-01,4.712956746302906508e-01,1.436023136249167109e-01,-2.372633679622925262e-01,-3.302702741458664049e-01,4.832635018373769853e-01,2.979740323587196649e-01,-8.399360524046961540e-02,-1.325918113910351526e-01,1.977830198334455947e-01,-4.467715773756397724e-01,-2.769838781377813586e-01,1.692846444451617804e-01,-1.518593216214003672e-02,4.838302156480930316e-01,2.154253727932426976e-01,-9.850219028288420553e-03,4.521284553053337429e-01,-6.195140884488681277e-02,3.137926106309263385e-02,-3.827353619789659600e-01,7.773836336008599357e-02,-3.142687192749384906e-01,8.944492303245310527e-02,-3.025667608518814999e-01,-1.153788152171146830e-01,4.890852543185220114e-01,-2.799652068632074720e-02,-1.164716901916299507e-01,-3.949566009309761760e-01,3.472435344793767253e-02,5.248829314487579722e-02,-4.610979439129715418e-01,-4.815465752189984627e-01,-6.019809144686549818e-02,4.549650845702990498e-02,2.809455592482545949e-02,4.484832410369249400e-01,-3.820526840713589500e-02,1.475309652381830983e-01,-2.449953220119366337e-01,-4.210964757056210317e-01,-1.523935574104805513e-01,3.818055429351423502e-01,-6.852588589480346215e-03,2.159518252981007524e-01,-7.232116104789809707e-02,-2.326964247860829893e-03,-1.316066648844199660e-01,-1.266377199798603970e-01,2.697103908007325579e-02,5.419436461997240162e-02,1.633172378662747226e-01,-1.985379776602980151e-01,-2.427883960263972352e-01,9.530169019802414709e-03,-3.763719115603113563e-01,3.956756190983015120e-01,4.824062591243968301e-01,-2.698943590081669397e-01,2.209465787857725072e-01,9.159141899817035970e-02,4.319090939569031340e-01,-4.005241561884548274e-01,3.770475461840570031e-01,3.727882923949995542e-01,1.233034114923181601e-01,-3.210930633294140080e-01,7.274448151901247162e-02,7.876603521204184055e-02,4.894770525177405407e-01,1.012814645093331745e-01,-6.239632523376947848e-02,4.704306228260336509e-01,-9.267558105632955900e-02,1.833299938421926178e-01,6.300235128910725013e-02,2.131639568063837809e-01,1.151658398465050803e-01,-5.197860777219986961e-02,-1.007134554666339055e-01,3.794225692965875751e-01,1.636839236186369284e-01,-4.029961936192846261e-01,-3.354643890992863309e-01,-3.097441070888408143e-01,1.507656164888950823e-01,-4.936131274354282894e-02,1.900562485044247074e-01,-3.219891361484944481e-01,8.483834553275149126e-02,-4.903961038294719632e-01,2.717110728116634011e-02,1.911624899503218122e-01,6.862483260133733776e-02,-4.516922062356938383e-01,9.032341162556800640e-02,-9.320239254381768035e-02,2.614456327947112246e-01,5.998483475745297611e-02,-3.178267865613793042e-02,-8.020459208071861745e-02,-3.295086409922137749e-01,1.330833001106562774e-01,2.359900249113103810e-01,1.309213191299446466e-01,4.960439977162984793e-01,-2.193116201145519639e-01,-2.933453856607936006e-01,-3.312908943120129734e-01,4.113923635840830428e-01,3.817671746117242693e-01,7.107629690016614710e-02,-1.646379454690364286e-01,1.218652375489723827e-01,-2.936176514505585144e-01,4.133848126873329587e-01,6.936888839592925127e-02,-5.111032349767619110e-02,2.137147696658553420e-01,3.945684018597055420e-01,1.785983930987179447e-01,3.766763552972552942e-01,-3.007539829948988608e-01,-4.504163068310941265e-01,-5.768921154617145941e-02,6.862780425463022027e-02,5.056755223274944644e-02,3.523926907596510727e-01,-3.375351195236658830e-01,-3.817462869663972302e-01,2.774434081379006933e-01,-2.127571137290987791e-01,1.658756762352175951e-02,-3.330915364780546728e-01,3.497024777888926295e-01,-3.987156275396053218e-02,1.365462312049395832e-01,-1.317864014775940174e-01,4.135704369319015417e-01,-1.137361593040460139e-01,3.411554883081657774e-02,3.206514845297123717e-01,4.421988858453166360e-01,1.370485665503127226e-01,4.292611919876735405e-01,3.136677063237992558e-01,-4.322795468707846256e-01,5.168950099908253826e-02,-1.581680203948799823e-01,-3.117398676520510836e-02,3.134071916239167255e-02,1.352092572840918328e-01,4.570945173262406236e-01,3.345042400627240564e-01,3.317234261807752160e-01,3.123893741907248778e-01,-3.649577264720902381e-01,-7.920816337107527971e-02,7.366085475150396800e-02,2.487849949517639825e-01,3.960420198922242063e-01,-3.870502132637813064e-01,4.033605516349775266e-01,8.011114247100459274e-02,4.686229399454926448e-01,7.937090783066957922e-02,1.172972981483794142e-01,-1.201003666021029925e-01,-4.400439804893612195e-01,-3.361219094620040426e-01,-6.345563779343987854e-02,7.543801686377493709e-02,-1.420229741305298887e-01,1.285419767777151723e-02,1.412873267551767453e-01,8.740900316756283761e-02,4.966072217848138681e-02,4.130385682116658463e-01,1.682406722335790805e-01,4.952014296275342176e-02,-3.522623318775873758e-01,-2.746243323597659103e-01,3.150442165838934772e-01,-4.462191784818895224e-01,3.607828932157913782e-01,-3.067173300103487321e-01,-1.157763518302505901e-01,-4.559219382038475210e-01,-2.323876690906095943e-01,3.247948422813828895e-01,4.219058789557639244e-01,1.270767979788695046e-01,4.438637265936981047e-01,-2.147028222859977964e-01,-2.367673382001028726e-01,-2.131239986927784269e-01,1.442282185734544697e-01,-3.674068821820232200e-01,-2.385189654505480705e-01,3.429247388331224666e-01,3.241778296170889639e-01,4.635577967847562819e-01,2.627685335457377036e-01,3.690036707686373818e-01,3.688741375442192716e-01,-2.039554813539288247e-01,4.520255961187957805e-01,2.887047324141278626e-01,2.878562388988267218e-01,2.622314227399075159e-01,2.843557792280301255e-01,4.330462496197070577e-01,-2.901015384042560097e-02,-1.624160887727117419e-01,4.343108712007009986e-01,1.729212048171169247e-02,-1.654384895498303143e-01,3.616963756117500539e-01,3.437646048822950995e-02,-3.245323165245093122e-01,1.817092339435988357e-02,-2.813734767754617616e-01,4.843731461650002679e-01,4.641201456191554886e-01,-2.533182095478493379e-01,2.504754038962440088e-01,-3.269475297285512339e-01,-1.003795664400335408e-01,2.112400152138571574e-02,2.868421418608613216e-01,2.771887158605679247e-02,4.011257715680682789e-02,1.093286698682045532e-01,3.335650632733633270e-02,2.443095888782912395e-01,-2.530276320908353416e-02,1.144339822191724476e-01,-2.437879475791175921e-01,-1.317656300801524072e-01,5.374148174783066612e-02,3.380632729529285951e-01,-2.256673142451968150e-01,-3.356739132262309688e-02,3.519929971238699995e-01,4.270685684965944695e-01,-3.577340559448628499e-01,2.429969457104788066e-01,2.660342332597415149e-01,-2.703254958308205502e-01,-8.992433746761496760e-02,2.442712761490309914e-01,4.085684752818065091e-01,-3.868935267627101604e-01,4.503024169506392171e-01,1.576261717958764574e-01,-2.675235488871107181e-01,-7.908991039050405902e-02,-2.187937460756012031e-01,1.767670421671307945e-02,-9.044142044032144057e-03,2.204437489353801016e-01,-4.034020607123528501e-01,-3.885473015504262717e-01,3.772031029294110605e-01,1.574509564050394772e-01,1.296744846563501197e-01,-3.085226839014676425e-01,-4.234831018494720212e-01,-7.085840129390752473e-02,2.609656187343155631e-01,1.032120944175823896e-01,6.102426331205101917e-02,-4.650136119917889221e-01,-3.110329983131614462e-01,4.682620404728322638e-01,2.740375145908503507e-01,-1.274095105722575783e-01,-2.881420279255193506e-01,-2.317345123300611487e-01,3.625312672100082789e-01,3.743083841825656233e-02,-3.289586337845176178e-01,-2.617511402426317968e-01,-4.297576431072641645e-01,-2.061370897521852541e-01,-1.403928818702535608e-01,-3.020234710533842293e-01,-2.686012742850909518e-01,-4.961394893079951185e-02,4.869224815232018333e-01,-6.415224561799703906e-02,-1.027176012035269093e-01,-2.444598558466120064e-01,2.132998130715885177e-01,3.633698102814371111e-01,2.369475825879526765e-01,-3.824630101938597537e-02,-1.154513573885035393e-01,-1.290435700100350802e-01,-2.651593762419238720e-01,-4.548539902121870870e-01,-1.145890830551613560e-01,-1.619274267034908066e-01,-2.038458370157364419e-01,4.687576604829846172e-02,4.276534116275162445e-01,3.113280703927734372e-02,-4.067222187888459572e-01,-4.197461027776169251e-01,-4.012913801701051275e-01,1.854406210786242459e-01,-4.351437907825523865e-01,4.111215481313399422e-01,1.308088426093920731e-01,-9.825966155778398381e-02,-1.363150377076742803e-01,4.130221804631006854e-01,-4.425919143570273828e-01,2.177068245181202899e-01,3.166592596374048219e-01,-4.363479863299130068e-01,2.694531181300097167e-01,-4.268884639977619244e-01,2.654569357586722411e-01,-3.492084556036393339e-01,-4.409867978494820262e-01,-3.000875291570244130e-01,8.140364159921475995e-03,2.288719220438288904e-01,3.427292376148783903e-01,3.390147547075864631e-01,-3.483268683931732834e-01,4.436939934806165553e-01,-3.936685009402940416e-02,2.851962252587484370e-01,-1.562557844967388254e-01,-3.671209811984161853e-01,-3.580142719124413953e-01,-2.337377710405422748e-01,-1.810898362244486304e-01,3.383134507870405594e-01,3.400522976996309676e-01,-1.128981434438605103e-01,-1.998146311811083153e-01,2.102235867441946127e-01,2.508173739575033645e-01,-2.450236605801773271e-01,-1.050109909002628905e-01,-1.979979300609480131e-02,-2.982708897783968860e-01,2.131676826211460485e-01,-5.144997589890032419e-02,-4.310702325214295083e-01,1.958951514537035088e-01,7.787705943693190580e-02,4.005980585594799415e-01,-8.667548416580417303e-02,4.138913620826198958e-01,-1.136792173313929677e-01,-1.500279134547424231e-01,-4.619563852807453408e-01,-4.727424563536775093e-02,4.047641310661334035e-01,-6.976242626398165836e-02,1.929192824519162519e-01,-3.832230817646880006e-01,-3.354487745970173851e-01,-4.503361872027249468e-01,-1.876924288164802945e-01,-2.266685888074291277e-01,-1.573976092951152594e-01,-4.068934428591788333e-01,-3.768754548027662965e-01,2.026163234104167987e-01,-4.496938089014714812e-01,-2.204507801232409303e-01,-4.311068539475567674e-01,1.617850626798256197e-02,5.953721014310808801e-02,-2.658258169630204337e-01,-3.965926111857376313e-01,4.141806937883218964e-02,-1.359978000049583136e-01,2.958037875755344936e-01,3.836644214702480404e-01,1.190399125592966900e-01,3.691444011526159308e-01,-2.252132184114479241e-01,-5.821579143561184111e-02,-3.375130484115220764e-01,-1.572708715723530881e-01,4.937697736930640735e-01,2.105389553204890518e-01,-4.802381013704482005e-01,-4.050606265608757139e-01,-4.854420918262272178e-01,4.047963222087497259e-01,6.949686787859676862e-03,4.968641204399972811e-01,-4.549667563905913648e-01,-4.615074123040376897e-01,4.237666183752433202e-01,-4.769493112037861415e-01,3.600697546978274266e-01,3.632793763546834365e-01,-1.452067988968366308e-01,4.987115392204229947e-01,1.227882997763246609e-01,3.972995703609096818e-01,1.440815128251684563e-01,2.502605648031281937e-01,1.706250061268917984e-01,-2.853589253551191973e-02,-3.284822877668595043e-01,-6.441946059768643984e-02,4.431222160504080243e-01,3.292860033684104071e-01,1.273795479704996625e-01,-3.243420548286840566e-01,-3.531686221473948617e-01,-1.467365334428608614e-01,-4.870540057155391400e-01,-3.531249502224003134e-01,-4.694432142379081352e-01,2.303916232876769277e-01,-6.587536068876331807e-02,4.151010714692349168e-01,1.673438814851477829e-01,-9.541449404766044751e-02,-2.621620321386486374e-01,2.943716408372724080e-01,-8.102242298221207228e-02,3.219731675540643545e-01,-4.010303604059279881e-01,2.462139751019850609e-01,1.349018235198045090e-01,1.727654892935837072e-02,-3.622450823397824760e-01,5.466537056470621714e-02,-4.317796970721967664e-01,-4.532781556562173186e-01,3.791259700069747884e-01,2.601935935641470632e-01,-4.728192044257394366e-01,-6.303264230280747338e-02,2.402772929501590937e-01,2.931687543344141389e-02,3.446238921198333527e-01,1.764322672591909225e-01,-2.394630032220559368e-01,1.043477813288131717e-01,-2.711309277585276512e-01,7.076266369546513335e-02,2.080936118839658011e-01,-4.410265328463314205e-01,-3.206150674497894038e-01,4.549605259426793280e-01,-2.754019945921236667e-01,1.568311664855496224e-01,-1.249226696075449450e-01,1.570288332460978431e-02,-3.583237577892709469e-01,-2.259464739414686063e-01,1.083498313612222264e-01,1.323583144235098707e-01,4.403708398130479207e-01
5.745563943697828968e-02,-4.730718196049638058e-01,-1.085343191282742703e-01,1.973463834150619434e-01,3.613227186126769519e-01,3.669571731072418519e-01,-8.777917113076605382e-02,4.335611618370815989e-03,-3.779534481550667069e-01,-3.596952799562388448e-01,-4.463953596618193131e-01,-8.192266378248258540e-02,-1.785192269793948183e-01,1.315892956679919346e-01,-2.862803293493063617e-01,-2.254324435202510468e-01,-1.697579349275032401e-01,2.116722332994379618e-01,-2.910294512366478070e-01,-3.199304790471991788e-01,-2.281779590339954034e-01,-3.363978131977772845e-01,1.865795254096059841e-01,9.742377701845861271e-02,4.092465098784235922e-01,-3.389135590365921491e-02,-2.551100491423266003e-01,2.240873358521622283e-01,4.727750282593767839e-02,-1.917113349218723117e-01,-4.358566573750011219e-01,1.717387451628548112e-01,6.987830437805153672e-02,-3.879683768837974833e-01,-9.244953887206386334e-02,-1.162531780718781826e-01,-4.876310502101266486e-02,-4.874306609695858716e-01,-2.814621037260898184e-01,5.755792886796440300e-02,-3.831016171460621678e-02,4.299151226180337737e-01,1.286259414028366743e-01,2.359464868944760596e-01,1.456792884038106139e-01,3.856355017101944505e-01,-3.767603317606271762e-02,-1.468053910020996611e-01,4.310181264286283565e-01,-5.488524989251231112e-03,-2.871423189581364666e-01,-2.139711476227643683e-01,1.436469974777858649e-01,-7.090614142317475110e-02,-2.560087092735605641e-01,-4.902701278194266932e-01,2.128798071775271916e-01,1.504355157054908521e-01,-3.850344187759469072e-02,-7.926391654503117667e-02,-2.573779443728563265e-02,4.233715156224951981e-01,-1.525339856531254812e-01,2.456710727786016735e-01,-4.819669295919425389e-01,1.443411569971131403e-01,2.554985358487930069e-01,-6.081778475692489749e-02,4.951000413383345178e-01,1.615778564419135810e-01,-2.039443320189489040e-01,5.844994995729757559e-02,2.538554671483232994e-01,-2.884656676436377909e-01,-9.996033150423577762e-02,-1.708765144227519794e-02,-1.872920324087503641e-01,-4.841826915204151538e-01,4.732527133631521110e-01,4.332582305095034059e-03,-4.683607985281330599e-01,-4.177553222495180574e-01,4.881212735168938277e-02,2.477981543542830956e-01,-3.166285109550354138e-01,3.477908589303086995e-01,-3.836680903958775701e-01,-2.687121946284460883e-01,-2.628657012463210263e-01,-2.358809607448094647e-01,4.886892611670027309e-01,1.582955994273387290e-01,-3.493293926550541384e-01,4.412294258719851037e-02,2.032915636011993765e-01,1.745616715652420492e-01,-2.361226746522697706e-01,-2.613719633653600605e-01,-4.765098737554307462e-01,3.055269522724680664e-01,-2.269780487124807289e-01,1.321361664140329184e-01,2.871188254630245851e-01,-4.954620021438206345e-01,3.606031373987432787e-01,-2.205895602575441705e-01,1.929379006533489260e-01,-4.209985465210784872e-01,3.239763174397389811e-01,1.855552593407424622e-01,-3.517123555031885784e-01,-7.707514387463509919e-02,4.922363045857814923e-01,1.455062842596032135e-01,-3.171588159766246529e-01,-2.186251382590266301e-01,4.635507245378754915e-01,-2.921195486780117090e-01,4.505450326032677255e-01,1.759510867732710926e-01,-4.524988090437997990e-03,3.937226923657473066e-01,2.922497669702023293e-01,-1.313881690373340794e-01,-3.942998217936144467e-01,-4.371592216119207785e-01,3.120551307667863705e-01,4.915066839995518855e-01,2.648907371467313920e-01,1.261602949643253480e-01,2.297052854623992113e-01,2.869370116450675745e-02,3.353124128704338958e-01,-3.183433770256663964e-01,3.693355837516859586e-01,-3.752808361112708324e-01,-2.276901211716439999e-01,-4.716641945658415214e-01,8.117756332857872792e-02,-5.663576059464481283e-02,-3.824676007701821590e-01,-4.135498956362477774e-01,-1.377572613516065969e-01,3.987011658430812400e-01,1.262767011483497681e-01,3.772720902025847867e-01,4.399428577609049151e-01,4.286047721020177503e-01,7.193386878754337577e-02,3.249859196582786103e-01,-2.313532063691320362e-01,-3.598197014046233821e-02,-3.880549481491921693e-01,-1.980026701508953435e-01,-2.863303040163368562e-01,2.643814237348790508e-01,9.577718190142991972e-02,3.034445744883947915e-01,2.940518979791327814e-01,3.181087247374156934e-01,2.612937419392926675e-01,3.436675665624416842e-01,-3.330327226562289633e-01,-3.029764882963403849e-01,3.802763391274085469e-01,-4.854325584062649801e-01,4.319931059657957650e-01,-1.033705006304427299e-01,-4.003998539889004338e-01,-4.725844173418913829e-01,4.738676105322103815e-02,-8.266100305718027119e-02,-3.450666332003188286e-01,4.694796622715073919e-01,-3.679904137239926598e-01,-2.446798762547972572e-01,3.100774208743208860e-01,4.958525926210272106e-01,-2.570295212209025015e-01,4.585172267172366034e-02,-2.308486128028388595e-01,2.758816568400559444e-01,-1.738090134773191409e-01,-1.422066652448825685e-01,-2.976269535482374273e-01,2.105400868407173443e-01,-2.383129708086435539e-01,8.593664977571424668e-02,4.294632498864644488e-01,-4.582646183769641945e-01,-4.930226820739355142e-01,1.762510936203676160e-01,-1.831461433017771423e-01,-5.921480804019418898e-02,-2.233881386958146420e-01,2.622228923519617227e-01,2.775167011747771140e-01,-1.184768586748685681e-02,4.974353536953864952e-01,-2.408531309853403357e-01,1.745821084908881771e-01,4.718124292517138496e-01,2.571166357781914380e-01,2.998674331090434020e-02,7.805862864077872665e-02,1.907485997784608145e-02,1.438619135667331683e-01,1.584955799487794970e-01,1.124816182027005285e-01,1.642199702219901969e-01,6.471409841730024759e-02,-3.180944074720259973e-01,4.343074318557960112e-05,-3.404803136547144282e-01,-4.708014542582924511e-01,-4.560412394168473771e-01,4.014618633849434959e-01,2.780789009046660265e-01,2.669634358956129994e-02,-9.971619700741751746e-02,-3.383558335765654013e-01,6.448284778155510821e-04,-3.972072740643586286e-01,-5.973973923081510318e-02,-9.465148904476539116e-02,-1.003445729106283713e-01,-7.381731764456100908e-02,-3.185747868431223484e-01,3.919083934991884899e-01,3.002696265565106826e-01,-1.522031891750780241e-01,-5.833972813319820983e-02,-4.682849490108953461e-01,2.235035488254927261e-01,-4.137232592755131222e-01,-3.148484699814907417e-01,-3.644070086466804081e-01,1.230471030844390024e-01,4.576399957273969976e-01,1.609605590321110391e-01,1.832657101087978857e-01,1.372200799470966182e-01,-1.454786574419532075e-01,3.992818837949985156e-01,2.879870402015428654e-01,8.420084083791246066e-02,2.854998392461154388e-01,-1.660894874944296440e-01,2.421597304964107078e-02,-3.887666752837580786e-01,4.290862447781959021e-01,-1.700679969987162199e-02,-9.782934450812064142e-02,-3.978580478305587809e-01,3.675621381940439303e-01,3.302568516118230546e-01,-5.910485102023077530e-04,-1.267608578996626267e-02,-2.645572371029498715e-01,-3.236147251595177243e-01,2.643896771357426845e-01,2.458044845793552202e-01,1.417463546120405482e-01,-2.589757604771563138e-01,2.836317994460405556e-01,-5.072905303203512073e-02,-1.767579880627373479e-01,4.019612538278852787e-01,-1.449050405288903054e-01,-1.113162650096132245e-01,3.701439011206832941e-01,4.243659524372510594e-01,-2.869488133147819475e-01,-1.148564863337661057e-01,-3.632288967690239234e-01,4.976000227610075655e-01,2.792233761684055349e-01,-3.433354124896651483e-01,-1.282826068485346527e-01,1.272810661490831885e-01,-3.989639659891397461e-01,-9.865361343574474695e-02,-4.421909711267818510e-01,8.223698063300588501e-03,2.112781446102085514e-02,2.892649321968697729e-01,-8.956535234254070499e-02,-4.728683672156708262e-01,2.257139537698047427e-01,4.792817933640107775e-01,-4.149697658541261491e-01,1.147829697508546687e-01,7.468844326598444994e-03,1.994929354496940421e-01,1.040003347339868434e-02,-4.057053203282140474e-01,2.482580490624819447e-02,4.127089542312704085e-01,2.673011277798710283e-01,7.971990511703530569e-02,1.907048278948416664e-01,7.171401461680726452e-02,2.524095287525142117e-01,-4.684918871416273722e-01,4.695138320026753798e-01,2.138409099624432042e-01,2.453821214639098081e-01,3.733765233459085398e-01,-3.313500071581720885e-01,2.083493549838897341e-01,-3.382635009669098247e-01,-4.833286632999251875e-01,-1.395331029325465044e-01,-6.397423955554648600e-03,9.726407422816085724e-02,-4.349194675349229433e-01,-1.179683097847958884e-01,3.182317800610136027e-01,8.482156991174050198e-02,6.177261927096922012e-02,5.424797258236924158e-02,-2.457161035004522542e-01,1.687194592174862118e-01,3.494385969062941966e-01,-2.979786223110700849e-01,-1.491130748116568094e-01,-3.116597921437631591e-01,6.160338631918327312e-02,-4.491124841292363223e-01,-1.448861735285364993e-01,-2.589624969663669729e-01,2.766823276432052170e-01,3.317763518786756016e-01,7.632507230938434528e-02,-4.754401108769190643e-01,1.166137490051912806e-01,3.388381457061242497e-01,-4.414378534026379697e-01,4.358128481444870639e-01,2.763494846816338946e-02,3.545801947643891783e-01,-3.172353961351844776e-01,4.325825617579434068e-01,-4.761818529639881836e-01,-3.382262732573264596e-01,-1.884076463775108401e-02,-6.771640087359620530e-02,5.968551908358576963e-02,4.317780236824630968e-01,2.481524741302767456e-01,2.002281688126904546e-01,3.692560338324737401e-01,1.642154539529951940e-01,-5.224344916576861841e-02,4.302986326998281541e-02,1.270268250892581108e-02,3.728365809471282377e-01,3.377133153077020999e-01,3.371169670206550784e-01,1.671485521102008542e-01,-4.579194724231218094e-01,2.479417261553962248e-02,-4.838921243116535154e-01,-3.887794198731220341e-01,-4.954192341519136900e-01,-2.067838066270255570e-02,2.153515709893565333e-01,-2.010011362569330551e-02,-3.191982693309775021e-01,2.178489858080245867e-02,1.792814751224772740e-01,-9.514317832113161622e-02,-1.790542375667181219e-02,-1.353757414692366989e-01,-3.844084587595437696e-01,-4.668718892685567168e-01,1.083162776954780249e-01,9.151594650610472836e-02,2.844151570474937607e-01,3.369545283395614099e-01,-1.437816953995590952e-01,9.000079622854451067e-02,4.255836224156654968e-01,1.533586111528173479e-02,1.683689869565482278e-01,1.711000890968805699e-01,3.441322208480945832e-01,-8.924108830240640167e-03,-4.181739079397999159e-01,4.744234837949442563e-01,-5.719930044869270258e-02,-4.316297402800166605e-01,3.903223539621140104e-01,-1.499248337452347979e-01,-2.968061711289218252e-01,3.361652604165644709e-01,3.249020170239244054e-01,-1.497499914085547168e-01,1.529667272902401898e-02,-4.023036819733412095e-01,-5.273590104905767628e-02,-1.498338503405377553e-01,3.534910310259303801e-01,3.724583273214330248e-01,-1.820163193381973965e-01,-4.865499001213449137e-01,-2.228787983710038834e-01,-4.413166044986428505e-01,1.352275508194880071e-01,-8.653052863373922321e-02,-4.307965150664168075e-01,4.759023376390580928e-02,6.923427596348952218e-02,7.572934780322460036e-02,3.507991497447680018e-01,-4.385004221458559392e-01,-2.895178582133920431e-01,1.365834887967328770e-01,1.639577209711809980e-01,3.081660759310432818e-01,2.651699198236930899e-01,-4.704870306556205861e-01,-3.698239703953987156e-01,7.719134903284685656e-03,1.407018013633091202e-01,2.547987186252747005e-01,1.419622156358353315e-01,-3.744831582397567526e-02,3.974565363757708303e-01,-7.370421718464403860e-02,-3.454238324142978600e-01,-3.525150605015254790e-01,-1.064426234056125020e-01,2.142280252531058027e-01,3.830299653812396787e-02,2.969714393456616142e-01,4.559249165149148464e-01,-4.073022811388971043e-02,4.485923719986664171e-01,-2.424205215046604245e-02,-2.943314667005658691e-02,-7.260163611570724651e-02,1.578307630042932175e-01,6.526339411236636856e-02,-3.379213673985620447e-01,3.339914551644707075e-01,4.448538870480372998e-01,5.759176986275849064e-02,4.267846323752103599e-01,9.605710325511063186e-02,-4.522851156631721992e-01,5.014742820045137162e-02,2.910843359237069716e-01,-1.762771095376993724e-01,1.149898729929443864e-01,1.680298706540770404e-01,-1.362673536087022352e-02,3.210751650315140093e-01,3.165551141380009703e-01,-1.965128575258158206e-01,-4.482723063046826217e-01,-4.229028025974975735e-01,-4.705139784456681129e-01,2.670064971157204425e-02,4.161470886557688820e-01,-4.821143055335286309e-02,7.867114026029609075e-02,-8.984528979949835126e-03,-1.510734640942200668e-01,2.144978950763575254e-01,-4.340774514690174390e-01,4.219376685474448552e-01,-4.774159658315084709e-01,-1.918019566313561297e-01,-2.267128774037682204e-01,-3.306945880001053162e-01,2.879640856375637048e-01,1.403098310377752789e-01,-1.202034092382610053e-01,-2.233544353334363519e-01,-3.362790564180979658e-01,2.521932333286347472e-02,1.372509315081049674e-01,-4.248767915906930259e-01,-2.698361199659558007e-01,-4.543039573449698665e-01,-4.946072988283611860e-02,-3.750023166091859261e-01,-3.486078330708405337e-01,2.188188963850216107e-01,3.083261767801686037e-01,-1.187346686190104972e-02,-9.999314121105429276e-02,-7.624889097777887148e-02,-1.173877756553557417e-01,1.104743032994405239e-01,4.396466363116026121e-01,5.433154916866755890e-02,-2.753492982824344848e-01,-8.477363556338080031e-02,3.507500332911920315e-01,9.129012106852640862e-02,1.588750895000294872e-01,3.101344913341431697e-01,-4.608687580214094748e-01,3.843365386429385966e-01,-3.242417661241489002e-01,-3.537026196832000480e-01,-1.091661677584563339e-01,-4.738191448989599319e-01,-2.971632237953906186e-01,1.320653085717985453e-01,-6.356781673756828344e-02,-3.013149931186138719e-01,1.875789177864040091e-02,-3.297696621570720410e-01,-3.715518731852742729e-01,1.004738470673200990e-01,-1.008657999090164514e-01,3.210467548556176220e-01,-2.367921718742387327e-01,2.227560928588356859e-01,1.867601366217901404e-01,2.080487339116993128e-01,-3.138333942478302996e-01,8.987978880122804437e-02,-3.199473765152837101e-01,-1.459789497597974162e-01,7.807504256829023159e-02,-1.061809422868125186e-01,6.681856369983640853e-03,7.326815369165240455e-03,1.750507285565761073e-02,-8.364354115096439557e-02,-4.216386579589429529e-01,-1.952194528242475746e-01,3.200042856707571159e-01,4.752826432807716328e-01,1.446861432257614544e-01,-3.876822957740063691e-01,-3.863784539464197865e-01,-4.643818461133996101e-01,-3.780273212627927037e-01,-4.557862633127244267e-01,1.158557678325992102e-01,4.401205416161261263e-01,3.303966999681641203e-01,8.237613532168230890e-04,1.274438776964222919e-01,1.561928936733404383e-01,-3.070616580008720398e-01,4.073355534471756467e-01,-1.789910325059296259e-01,-4.963508104469225302e-01,-5.424379566647230533e-02,1.028337099556528855e-01,-3.716215714302912865e-01,-3.199486211563660198e-01,-4.134296668607418956e-01,5.313384444887370162e-02,-2.685622287502122951e-01,2.352106405377382137e-01,4.262018875200325185e-01,3.582326652294073321e-01,3.557933829037907003e-01,-3.593922645567229068e-01,2.574368433149510915e-01,3.116626319932269684e-01,4.591795568291041629e-01,3.464247736202935579e-01,-4.183687852419245568e-01,-4.877815610138425129e-02,-2.229640568156810998e-01,-2.620973167117475189e-01,1.460977287540040637e-01,-1.688536493845649300e-01,2.788133542130502018e-01,4.377088037749887750e-01,2.456554281014270424e-01,4.330404577248144760e-01,-9.910560286202807490e-02,-2.357289551890391355e-01,-4.919183738894543634e-01,4.966640510922459839e-01,-4.487146720499191055e-02,-8.202296786504281734e-02,-1.835212764688819442e-01,-1.317677157895091877e-02,-2.884663624511496494e-01,-3.066814312753393112e-01,2.715532622276305430e-01,4.839944844692289916e-02,3.116963251032460747e-01,1.905567785710805540e-01,-2.805745145368979676e-01,-4.932760567017204778e-01,1.961230914467768649e-01,4.117856054008272038e-01,-3.827037065596321508e-01,1.926527257609242927e-01,-4.783736080552275505e-01,-4.860193972445550070e-01,-5.087332947564893182e-02,4.430739206366235416e-01,2.018166861275612067e-01,-9.648526432700665900e-02,4.857908500274780161e-01,2.749758274565541338e-01,-2.451951647804154755e-01,-3.417576919536668978e-02,-9.223414765036097585e-02,-6.128353801065600237e-02,4.395818751822565540e-01,-4.412018727544506635e-01,-7.756501973270635286e-02,-4.817074874709075250e-01,-1.804064653450897504e-01,-7.642826214855324984e-02,1.513130820258669074e-01,1.314772421821563952e-01,3.079378359747031446e-02,-3.813156379008559860e-01,-4.175338735065099449e-01,-2.209594254367492905e-01,-6.169324622959049265e-02,1.740709422029869113e-01,1.442421135162015311e-01,1.806117576964250127e-02,-2.186653386423380585e-01,-1.730254676305770234e-01,-1.780991537059659624e-01,3.480990910297707686e-01,-4.722728980767043616e-02,-1.927460736649350137e-01,2.676745202743479046e-01,1.533087702212799774e-01,-1.449719462783394253e-01,9.754044726027488732e-02,-9.983885967722094801e-02,2.107653338041629576e-01,-4.688960824272703221e-02,-2.951729588437140839e-01,4.378741142470609082e-01,8.707509705531768507e-02,3.181087569266829451e-01,-4.829790112211695963e-01,-2.437487900841788235e-01,-4.185778042661850717e-01,-7.594986600272923827e-02,-4.710852300384235081e-01,4.507418639705702557e-01,-3.621909561040944636e-01,4.059907996875555813e-02,-6.976451155671181681e-02,4.568473931007582811e-01,-4.006999728608666711e-01,-2.208981797478919429e-01,1.629935612744074502e-01,3.501878904915046720e-01,-3.196424428032529352e-02,-4.937326033899076538e-01,-3.256858990385494979e-01,3.478586527845721754e-01,1.989245767362534112e-01,1.938804480871449964e-01,-2.603580834910199648e-01,-4.158556318037185395e-01,7.582407778620625649e-03,6.516821212500611971e-02,1.004019271726154239e-01,-3.373320554951042549e-01,-3.935204783453517541e-01,-2.398446157197586803e-01,3.129250651503155956e-01,-2.687969675722456930e-02,-2.710013269881490494e-01,2.856888330259996778e-01,3.501153037803720336e-01,3.747718322051237783e-01,1.472271616535114624e-02,-3.854001764397729790e-02,1.427505567348641424e-02,4.043744196341969577e-02,1.614091154268937345e-02,1.878726775164307750e-02,-2.129806406045423595e-01,-3.314500991399347285e-01,-5.069831167820770812e-02,7.573903267627690727e-02,3.810588124454379333e-01,2.480396356658357560e-01,4.589718135839526703e-02,-3.554735155682648973e-01,-6.144089170924826870e-02,3.833460126975689608e-01,-2.637658199287904459e-01,-5.243470723014842516e-02,2.084392176910880856e-01,-2.755017428204858954e-01,1.703378961995808405e-01,1.861089666971289525e-01,-5.116693733732613492e-02,3.135838762606244501e-01,-2.328527547132953623e-01,4.304840768861301070e-01,2.950826560434618440e-01,-3.454657988831761894e-01,-4.169683230823546527e-01,-1.317059640046741587e-01,3.578764579828265235e-01,5.156494749238504927e-02,-2.981429029414383036e-01,-1.290983042047282314e-01,3.819214000052667535e-01,6.629477000064454284e-02,3.322955518717340961e-01,-2.109180631599066880e-01,2.195904337680173457e-01,-9.668340922940732440e-02,-9.449224081371077055e-02,2.267073042864404808e-01,-3.052092814081960315e-01,3.231965787669065504e-01,1.147232966295607115e-01,2.502332603266161914e-01,-1.547192722247024976e-01,4.760959345906848883e-01,4.021496961373645096e-01,-1.026400795212178974e-01,3.907099545149910202e-01,-1.537589442105712356e-01,-3.556327255163457268e-01,3.884981869665995458e-01,1.583521185761125327e-01,-3.124311092737599438e-01,4.365891235136537540e-01,7.241539385673234630e-02,-4.088599883657173528e-01,-4.958918994427929938e-01,-3.205868639049339608e-01,-3.040356275033504474e-01,-3.918876633798290543e-01,3.817065407737596505e-01,2.818161696950248762e-01,1.414908197359621145e-01,2.612794294880417256e-01,4.220511981146966018e-01,-4.798457051253679495e-01,4.351355320032056495e-01,1.734638705127082847e-01,2.208096632070608578e-01,4.214287327531381910e-01,3.717250746062936706e-01,2.064688736897963839e-01,4.279769140017334328e-01,1.203404377886798660e-01,4.857479996712809056e-01,-2.256634674921492723e-01,-7.634766695077555010e-02,-4.533872914143389776e-01,-3.670826272729399431e-01,2.706734320211596767e-01,1.290459587982739631e-01,2.749806710497053608e-01,-3.127692795794396741e-01,3.702679154335575262e-02,2.259578724873133604e-01,-2.265706407969696468e-01,-1.346138145387404395e-01,2.010976210785598850e-01,2.486718364442306317e-01,1.404072239916266396e-01,-2.749807117645973742e-01,-3.669267926268694469e-01,2.274973188412402481e-01,-3.645772019762608673e-01,1.356160994549143739e-01,3.584299260460870329e-01,-3.122383167000039039e-01,4.374233526920706661e-01,4.065344601289520021e-01,-1.892815420234041923e-01,1.423071169699456906e-01,-2.629708000070535290e-01
-3.557904382819069289e-01,-3.449633415675306125e-01,-3.841429419426571901e-01,2.795500593895190455e-01,2.619501927337202218e-01,3.575135621763062543e-01,-2.728936365335393743e-01,-1.358269144519065330e-01,-1.206752991001597275e-01,3.941469135558575143e-01,2.889349278637075580e-01,4.656364659474190315e-01,-4.392491934657005714e-02,4.297366879651838278e-01,6.950860196424824000e-02,-2.738925396919600352e-02,1.769299320179595902e-02,-8.396144316589759793e-02,-2.603156042718808294e-01,-4.876880960966223366e-02,-2.184177780411197256e-01,-3.944796555866186827e-01,-2.192225632771538368e-01,3.116039971769937189e-01,3.721936995681383031e-01,1.759174449799423279e-01,-9.525694969368903031e-02,-4.692444442854968312e-01,-1.593726364754410874e-01,1.688922550343326945e-01,-2.622818817981054096e-01,3.888737063038886221e-01,-5.315652115662716781e-02,-2.666492039667046621e-01,-1.926520110821610121e-01,2.296567003297116383e-01,-2.617869313754017657e-02,4.983718582818844611e-01,-2.326097871510416359e-01,-2.265104551080775463e-01,-5.601738743642981078e-02,-3.745157935598053545e-01,-1.139404291477440490e-01,4.001053072865942140e-01,-3.934376947685820358e-01,8.356553434626112775e-02,-1.282736597877166540e-01,-3.243472584162072625e-01,-2.640882217052025194e-01,-1.833500420870385339e-01,1.597600358043040902e-01,9.965438342439125741e-02,-4.883070338735246985e-01,-4.342628884494745822e-01,-1.304386680881522986e-01,-4.617035331251151398e-01,9.441940947884897017e-02,4.977437306506218295e-01,-1.400694452578477023e-01,3.205356832489381080e-01,-1.633119105004394722e-01,-2.097219709186328718e-01,-1.946186692804157126e-01,3.008976971255844512e-01,4.827647936225798464e-02,1.664079539181749778e-01,-2.812758327186156704e-01,-3.146781648234792117e-01,-4.298507209759548919e-01,8.857824079363629810e-02,-2.987336923881452888e-01,-2.980307203081331568e-01,1.965249679945491046e-03,2.967055748793719916e-01,2.988788792244821968e-01,3.397523318729877007e-01,1.165044021181238509e-02,-2.979994679677547831e-01,2.515539515568109286e-01,2.448899032159430611e-01,2.276354183781953422e-01,3.774287417211062978e-01,-4.134823956690076852e-01,-6.127303732361499833e-02,2.159994639426767726e-01,4.331380222552865256e-01,5.752625251739951207e-02,9.896889722562240976e-02,4.402419002999872211e-01,4.256853790996970588e-01,-7.858088717807465429e-03,2.005082718657358321e-02,3.679492304679050640e-01,-2.731768094683522108e-01,-2.036693014602124485e-01,-4.567589711067854275e-02,-3.931994622958534524e-02,2.859432835879884838e-01,1.688181697572244122e-01,2.771241285872504401e-01,4.452497871066601887e-01,1.161798261185010839e-01,3.494939774271887956e-02,2.621813932220917742e-01,-4.786097313036095091e-01,-1.730139850568098714e-01,3.291831081820362215e-02,-1.707884429537857018e-01,-1.443816066657355179e-01,1.741926080524093257e-01,3.098699926037077335e-01,2.573286275897823661e-02,2.824534032853003307e-01,2.991824693736176988e-01,3.118818109839790464e-01,4.675548691412202418e-01,1.083421295402755558e-01,3.084024223644850071e-01,-2.586913463886029163e-01,1.420688814045520942e-01,3.345114697529771863e-01,1.092516050024877616e-01,-6.312531599485349254e-02,3.485127940590797557e-01,-1.373987811271375481e-01,-6.210895803757776612e-03,7.140058733217391485e-02,2.965186442348284324e-01,2.113411084249690042e-01,3.801999556726409768e-01,3.708764318528243731e-01,1.684400636332632484e-01,-7.709050841032105694e-02,2.070730672589793375e-01,-4.716652862298739146e-01,2.275290315252309625e-02,4.155360589342544930e-01,4.635550198959154100e-01,4.325373800889803499e-01,-1.249280699450719956e-01,-1.051275858904419103e-01,1.975983251603996571e-02,-4.969441291662939353e-01,3.975032183732043478e-01,2.552575710597978498e-01,-4.059385472327281530e-02,2.575235816761027863e-01,-1.631891014812414387e-01,-3.602266811113817857e-01,2.068146402063670841e-01,-5.883903041970028891e-02,4.278153911028171885e-01,1.596976675675149115e-01,-3.234575205274957677e-01,2.239761667567478076e-01,2.045052756848021458e-01,1.441442342529358767e-01,4.800767213699173031e-01,-9.931615703596496925e-02,2.732462230036947215e-02,4.763470412221685324e-01,-3.301727547452023570e-01,2.195565834907569069e-01,3.503545743578173610e-01,7.988430592175199685e-02,3.857592123234602211e-01,4.614649151046079645e-02,2.090972546995104597e-01,-3.918470467135710678e-01,3.558159508310531072e-01,2.053829697080783445e-01,2.539038625376326408e-01,-4.848257686799432031e-01,4.608999121390517928e-01,-4.253147899401656939e-01,1.832591124818598871e-01,-2.704346204992503777e-01,-2.291019527594131411e-01,2.239003904153780145e-02,-9.240611467253279088e-02,2.579647936092448468e-01,4.540595961657740709e-01,-3.904056527617372208e-01,-4.883058369631122497e-01,4.134889954804359391e-01,3.985716592602851494e-01,-4.757308012393826058e-01,3.450451575394796189e-01,4.263013797979195996e-01,4.305970127691719496e-01,3.335690347513632359e-01,1.590358060830070475e-01,-2.835461789717480530e-01,1.164276841022687803e-01,-4.472582962202997781e-01,2.398195386369701421e-01,-3.486700282646033600e-01,4.244520612615608757e-01,-3.080088618284697599e-01,-2.568644667069582832e-01,-2.911069037816540472e-01,1.063227442439157455e-01,-1.292586909782682536e-01,-1.009314812007416906e-01,-6.629088260859938853e-02,2.817672553430303761e-01,-1.247220368115173894e-01,1.732707803395636681e-01,4.739514582533677078e-01,3.569588887117371989e-01,-1.018243727992921288e-01,-1.285234141510823713e-01,-8.722648128567711545e-03,1.259444672646191643e-01,5.134319501959860865e-03,1.761640834615301188e-01,-3.956647814496172533e-02,-4.862220124814061739e-01,-4.780168442509356019e-01,6.225530354924779797e-02,-6.325170570751326160e-02,-3.951387680938965863e-01,-4.536675046393401356e-02,-3.773296352478611171e-01,3.723421284815174870e-01,2.594856935236258266e-01,3.572736413213778439e-01,4.941252187143543306e-01,4.081557364790404652e-01,-1.157100022518362525e-01,4.608480923688715869e-01,-4.147211018808849570e-01,3.648788165750666002e-01,1.049220714059418968e-01,3.190635210824341872e-01,-2.262673410798607954e-01,-4.931523369057655426e-02,-4.799114287738203144e-01,-4.985392049300897410e-01,1.089487318002027028e-01,2.806205140752927596e-01,3.286566056701457628e-01,-4.773285219476981478e-01,4.385356845601029452e-01,-1.394414361685165638e-01,-4.581517185649308654e-02,-2.609813462027229525e-01,1.556305459443915185e-01,1.979007249235178456e-01,-4.528348969482869357e-01,-1.695576663088096403e-01,-2.984635290200466917e-01,3.288901345084416228e-03,1.622564840778417672e-01,4.074052459942502091e-01,-4.282072197946672487e-01,-4.858645822245336587e-01,4.107850520508805614e-01,4.065258417934360935e-01,2.738125832207216614e-02,2.736562483904125820e-01,2.756268850008612992e-01,-3.880263643892989389e-02,7.340988608006848715e-02,-2.761007368960498587e-01,4.605744287323951802e-01,-3.904645433894217144e-01,3.933231259335419061e-01,2.569350213004927275e-01,-2.699643973686216558e-02,-3.522749938629149424e-01,-3.921472424137696366e-01,-1.957044970118411165e-01,9.871074815187663720e-02,-3.273069843928513301e-01,3.064194504061189539e-01,4.961010969751964428e-01,-1.338948343101814542e-01,-2.785399099867217343e-01,3.088935053100283490e-01,-3.198346255291671936e-01,1.415062718225301719e-01,-1.439771780995270367e-01,5.204606946994405625e-02,-1.502710646910434544e-01,-5.547979058689411769e-02,1.112170962177685407e-01,-9.510334454481872424e-02,7.550957433281357822e-02,1.568539862047316769e-01,3.823125921871119992e-01,3.559147964242332929e-01,6.399562616100662460e-02,-3.817878856137759680e-01,-2.349087007896351054e-01,-4.199160254838901762e-01,5.022799659921761695e-02,-1.649703513386503451e-01,3.246756404450741318e-01,2.366809183748390666e-01,-1.436860423190310376e-01,-1.927568164396739059e-01,-3.376501640241552638e-01,-2.002240028051428533e-01,7.781051686955642310e-02,4.080908906606889319e-01,4.214800434628193093e-01,-4.772585366744279689e-01,-3.326215522399537106e-01,2.492781244157793452e-02,3.059280249606940449e-01,-4.553019633943231614e-01,-3.407583180463906736e-01,3.583545527476134085e-01,-4.582552240586146297e-01,-4.529097824861711974e-01,1.861331606861089671e-01,4.072933962505091987e-01,8.762759702250211280e-02,4.970865432266513562e-01,3.440407549332965553e-01,3.430185048495071332e-02,-1.039758900118755713e-01,6.257273194144596928e-03,3.789892495690844187e-01,-2.813036325380808833e-01,2.747721162052915167e-01,-4.029896356094775367e-01,-2.292329006922843027e-01,3.374818129344322459e-01,-1.549218658748812150e-01,-8.841104392306808890e-02,3.587432388365148217e-01,1.373203178634522237e-01,-2.312633322886107345e-01,4.595540110155148517e-01,-1.781631888232293459e-01,4.428445478293493442e-01,3.834065496667148354e-01,-3.899788466242992691e-01,-4.320697782213820393e-01,-1.778928263588348546e-01,-4.539118971145292836e-01,1.901015960712149067e-01,3.378643087607254847e-01,1.431520307449344331e-01,5.855356605575945395e-02,-6.221682822783880518e-02,2.409033606571753250e-02,3.207462839042327651e-01,-3.402697299672854392e-01,-3.856067070890917270e-01,-6.137522152406749143e-02,-3.171196578151490586e-01,7.920755985791994025e-02,4.173203087123927846e-01,4.210509893199124720e-01,2.756530379388371088e-01,1.127532769747429109e-01,3.801929837066770901e-01,-3.579788750766550454e-01,-3.230427460838040110e-01,4.614378865634415350e-01,2.135381115694707788e-01,-9.990434477314513728e-02,2.813017063842834231e-01,-3.204659512671800270e-01,-2.509091992080078048e-01,-2.616109757155243853e-01,4.590091446564285027e-01,-3.523335747629093850e-01,-3.686538961393607261e-01,-4.585205126222847705e-01,2.100021110841143734e-02,4.220321046164579037e-01,-1.718367320084718264e-01,2.245150518747095481e-01,4.786088369926329023e-01,-4.131604240347125367e-01,-2.001150747450288758e-01,-1.489573296192978624e-01,-2.885388303268100474e-01,-3.342669432122230555e-01,3.844651064936513984e-01,-4.872805865284546289e-02,8.624132441959975193e-02,4.428381188207175523e-01,3.112178248976690265e-01,-3.108574493850502218e-02,-2.187777928200689281e-01,-2.800331723067269740e-01,6.017542014315513388e-02,-8.175772840482420367e-02,4.703386705883951802e-01,-3.534034133524024401e-01,-4.964834683430152662e-01,4.499953454736966840e-01,-9.442346982124338872e-02,-1.555227805548607956e-01,-1.209842003810945865e-02,-2.274548088138844681e-01,-4.813774709714443434e-01,3.202874785457325846e-01,-2.791426247958098683e-01,-3.335433852249971576e-01,3.182832641522174155e-01,-2.954101476967238016e-01,1.001260666032788293e-01,2.520214050893732072e-02,-2.983462671795228394e-01,-2.382584565350803762e-01,-3.119704026835893318e-01,-3.266531511341681515e-01,3.252800242668132391e-01,-1.368633383977148066e-01,-2.916542859718432856e-01,4.456921272723137761e-01,4.972966002085682513e-01,1.902765432258951561e-01,2.700185914661444864e-01,-2.049750239255698769e-01,2.227885342526285672e-01,-3.922010837005376338e-01,-2.617867410463429190e-01,-2.357302170770966265e-01,3.433768160814549830e-01,1.427555504858402102e-03,2.219868184213905637e-01,-1.719661288337756000e-01,-2.802349682004214859e-01,-1.722535918582529524e-01,-3.149098624633513976e-01,-1.145116011024922553e-01,1.387227857338705350e-01,3.945707782723087975e-01,4.427219873016112750e-01,-1.377760093905506800e-01,-4.179140651724081446e-01,4.633343830083013204e-01,2.048756270226778087e-01,4.028034474390723707e-01,-1.687624671789665909e-01,-4.366012803539015552e-01,-1.969960103574730503e-02,1.517174919671705480e-01,2.033786911083365068e-01,3.023425272070510150e-01,-3.289053329293973871e-01,1.799177946547698692e-01,3.778836136697607540e-01,-8.809030000678597094e-02,-3.018916199632534214e-01,-1.678197774556791089e-01,3.227455834875823104e-01,1.635507247235812311e-02,-2.908115100783230655e-01,2.155913716736741481e-01,-7.231492173035303228e-02,-1.978294223065512059e-01,-1.931747816966677966e-02,1.352602989832862868e-01,-9.089046474130413333e-02,4.821654014963153712e-01,-3.220716792584605859e-01,1.158451878352462217e-01,-4.606493754134858287e-01,-4.219570399472061251e-01,2.463042667797252783e-01,-2.952421908652873572e-01,-8.307492590567810975e-02,4.897166788559322859e-01,1.130831499123234885e-01,1.228947442186000272e-01,-3.669457389343240283e-01,1.698979223783226855e-01,3.311631949261695240e-01,1.256734188742091307e-01,3.229311834527576197e-01,-3.485558784485548456e-01,-2.382661237734756687e-01,2.071166228585770153e-01,-3.165291203191005209e-01,4.202394086885343771e-01,-2.665858799928035872e-01,2.272793635573278070e-02,3.445036962789888024e-01,1.915001418703569103e-01,3.915578957180061437e-01,-3.224076280131047412e-01,2.390327945471539817e-01,-3.672813721851816426e-01,-1.736630598971639072e-01,1.885230339361920748e-02,6.053606096990826746e-02,-2.292478589743168760e-01,3.587291085426200787e-01,-3.315135322303163212e-01,1.811614226010100914e-01,-3.366985312284460630e-01,3.754047104322911776e-01,-1.935906847941253339e-01,-9.374875524631010038e-03,3.066771205142637680e-01,2.402303896551688522e-01,2.176087661665553341e-01,4.749209991774994144e-01,-3.635958341138806338e-01,-2.307667045982306764e-01,-1.603643204377037668e-01,4.950917804979915182e-01,3.229064358010768077e-01,-3.522898189941070513e-02,-9.567750104744132678e-02,-2.378956400296022844e-01,1.129922120606257074e-01,3.934013756250424043e-01,4.150826803206549842e-01,3.212119656977315829e-01,-1.247841935307109074e-01,4.738667246635719366e-02,8.142285269023563643e-02,1.639438089052991376e-02,-1.984816230367982826e-01,1.228968848338241049e-01,3.341672325901620111e-01,4.324335207486280641e-01,2.802630941062461689e-01,8.203335241335307781e-02,-1.009103804382598391e-01,-4.081277368705706898e-01,-1.795898272003317864e-01,-3.964312332599052580e-01,-6.064558556687604796e-02,1.107747840895770830e-01,1.082945858274242390e-02,-2.330857631174242384e-01,-4.486759001306527272e-01,-2.582811480493407696e-01,1.115530287123709385e-01,-2.682354716455648269e-01,1.777939670927738414e-01,-4.253423573194263785e-01,2.528590143195297291e-01,-4.577060039080030895e-01,3.866856613720119906e-01,4.938084553523555131e-01,-3.375881082697851365e-02,4.848469132764406941e-01,-3.008254857879155697e-02,4.374959470655401805e-01,2.520237019432962633e-01,1.581672177148886194e-01,-2.671037094852919402e-01,-6.774586647936686745e-02,6.424609638023826008e-04,-1.478052226870629760e-01,-2.576063906258445613e-01,-9.167862654769520780e-02,5.845352571682727039e-03,-1.749437072448861707e-01,-2.421311160237993310e-02,-1.387570371826400972e-01,3.916493605746538265e-01,-5.006113566595649100e-02,1.085558676279502199e-01,-4.819433840696601967e-01,-4.876845030900093247e-01,-3.677370223088182177e-01,3.483636286967906059e-03,-2.565936039086786913e-01,3.584436842145136692e-01,3.742901830560230181e-01,-4.107354583602150777e-01,3.128393156057448499e-01,-3.136731627340160200e-01,-3.474460044565608197e-01,3.344373202250561228e-02,4.622989554196960116e-01,-1.958637041050689254e-01,1.962075043638460414e-01,1.881151759662917922e-01,-4.992038963746130431e-01,1.693775742178451615e-01,2.274567846106047009e-01,3.259880893805026103e-01,-2.228484979130390675e-01,-3.014355319784228771e-01,-1.529012933153095499e-02,7.250833310882920379e-02,-1.568779571916124604e-01,-2.903598757070247061e-03,-6.406931971599205689e-02,-2.583760748318314482e-01,-4.657018785696022123e-01,4.166629036106936912e-01,-4.881305034718278479e-01,3.583364753148441384e-01,-2.883072897236357290e-01,-7.658324641017255630e-02,-3.098063280225958893e-01,1.707913268647440752e-01,1.344884736736222663e-01,-4.373995706977668041e-01,4.632692189369496116e-01,-9.771679485663764542e-02,-3.655075424130371786e-01,-4.007986558738232397e-01,2.008122388275672687e-01,-3.452300993470395207e-01,5.162792748880074001e-02,-4.244217706066703011e-01,-6.737140580273148771e-02,-4.484585429923827471e-01,3.359462746261462351e-01,1.430828057958144495e-02,3.463451841406384180e-02,3.910836575710904262e-01,7.778344646276114105e-02,9.952990215163837195e-02,-1.125402128606944885e-01,-4.332126904523143640e-01,4.995178421824567616e-01,1.090768534941078949e-01,3.175751504679973358e-01,2.363898802834174528e-02,-2.417903226493354207e-01,-3.181705381594174264e-01,-8.078735773571232848e-02,-4.576318004246017201e-01,-4.309648237992402819e-01,-2.945121267630410600e-01,-4.607277420765856224e-01,1.639934992551748127e-01,3.118599600082507806e-01,-3.445342222878577942e-02,-9.328301212073863979e-02,1.205856442002509743e-01,8.760152848921176627e-02,2.767297363049763259e-01,4.516358057347387156e-01,3.406661763814016197e-01,4.573446667858674930e-01,6.103478911110482574e-02,2.075054208401212463e-01,-8.881514453903727180e-02,-2.188093895488950613e-01,4.123681063882522757e-02,-3.436846173403687033e-01,3.703858689639835111e-01,-6.970713821885954342e-02,1.377150410500922462e-01,2.500423132178924979e-01,4.932122593312063819e-01,-1.234749833579360523e-01,4.703317706795964170e-01,-1.566879443306362640e-01,-3.130385474427963555e-01,5.854569271099674399e-02,3.800522116916119630e-01,-2.103070988181857670e-01,4.064343878872455074e-01,3.098665448408223222e-01,7.209645688502142047e-02,-3.812392283391023984e-01,-2.876251064834509652e-01,-1.239530827132070412e-01,-2.977436634412049532e-01,-2.928594889666091827e-02,4.463338430847030303e-01,-2.089513452399681670e-01,-7.352058856861620750e-02,-2.821892118422897333e-01,-4.918368419423591043e-01,-4.086424108594086668e-01,3.438047469202637485e-01,-5.046245928980452877e-02,4.002106083044112417e-01,3.749147346425564242e-01,1.006084413480733408e-01,-2.918295279385836327e-01,3.646112175153766177e-01,-3.181048147032560225e-01,-1.161800158574228803e-01,3.172557828436294303e-01,3.719372532906712880e-01,1.662892149878486547e-01,-3.115279553023972969e-01,2.638447340670554420e-01,-3.771531386867310598e-02,-1.526874487366580713e-02,-3.317307834149739731e-01,-2.719550843713695043e-01,3.617719767833349476e-01,1.369474294323825836e-01,-3.605427286241458251e-02,-4.944388654768046010e-01,-9.555873851224672144e-02,1.609545316898542966e-01,6.270249084739309975e-02,5.083580263745557382e-03,9.389488609826379673e-02,-4.037209555870691080e-02,-2.654733171693183236e-01,-3.624096910509111424e-01,3.746427417052595743e-01,2.027806451486665607e-01,-2.271198113424266474e-01,-2.722766867098712629e-01,-3.318028313029806053e-01,-3.465049254819827507e-01,-3.777843100370325002e-01,4.438832608534355462e-01,1.050567671732073327e-01,4.302403031126968980e-01,3.696509412915576220e-01,9.204091402839920111e-02,2.537629218199811687e-01,-2.296328362934092482e-01,-3.727228119043579646e-03,-1.221968789722749360e-02,1.873886533710859004e-01,-2.755842390725393720e-02,-4.502079338465894143e-01,1.223203698919921312e-01,-1.193607830959866334e-01,-2.123610253856740293e-01,3.623561274416002842e-01,8.519491841939819121e-02,2.755162924782894596e-01,-2.227617353702533443e-01,-3.940957266206848164e-01,-8.384111906272584402e-02,3.300140898388254085e-01,-3.350353242439262358e-01,4.625299833251941273e-01,-2.462733607160619842e-01,-3.892941082604536307e-01,-2.090176840640887157e-01,-1.421379982182046087e-01,-7.976594067392750453e-02,-4.656823031000861812e-01,6.605673700256486924e-02,3.450704798731761835e-01,3.924847692241806296e-01,-5.832297612131065456e-02,-4.603663263252556481e-01,-2.207731053745131122e-01,-3.778600129560553134e-01,1.446005879977689812e-01,1.554319280810589898e-01,2.392163245034290009e-01,1.578177528032737031e-01,2.286769280594223019e-01,-4.022246023424173034e-01,-1.861384725170265320e-01,2.000761160067449085e-01,2.753291357199799672e-01,-3.180766285199417842e-01,-2.082943175171736439e-01,3.582804804127496245e-01,-2.931827555176745870e-01,2.162906627424969752e-01,-2.506427880617209114e-01,2.269265915532014954e-02,4.568455247777285511e-01,2.911442505014439908e-01,-4.150957835479138769e-01,-4.652028655872237906e-01,1.524896374473482252e-01,-3.915606024399925778e-01,-4.391807952813087113e-02,4.325961608886270682e-01,-6.886430292919465401e-02,2.076542413594650860e-01,3.327524843255347253e-02,4.945690709143706343e-01,-3.136467981459600818e-02,2.188313417427751872e-01,-4.456268888424685937e-02,-2.345933716835958416e-01,-8.995142469580108546e-02,2.237560671400944390e-01,-1.518239821989288973e-01,-2.274299669801250756e-01
