2.856337171756025972e-01,-7.993221241625605433e-01,-2.277518879232335536e+00,-9.687446797634950979e-01,-9.870059882672227447e-02,-1.524189410802678557e+00,-1.057663120035682969e+00,1.949731771994594798e+00,2.048530885903514953e+00,2.289714026545801584e+00,1.935143581819365854e+00,-2.106142670294417762e-01,6.499299994068617400e-03,-7.264085811306569829e-01,-1.245151094105725997e+00,-8.623891541683175177e-01,-2.152721730309802517e+00,1.216763097910586316e-01,-3.274723160786241483e+00,7.409994235162289389e-01,-2.140635238316380418e-01,3.125845810538219749e-01,-8.742441817429708051e-01,-1.594181482794767346e+00,7.072507643888027440e-01,-1.554343154544430172e+00,2.116020822516403221e+00,-2.105347494612336501e+00,-1.045278865322716522e+00,1.670325004607647532e-02,8.005158534123098246e-02,5.110959540565837012e-01,-1.349770904492941792e+00,-2.529153910682844231e-01,-6.586849211342540311e-01,-6.280192537685114207e-01,1.339088695972888265e+00,-8.606923363868681509e-01,2.348300002563908917e-01,-9.369696093800393699e-01,-1.962434179758065111e+00,-4.369290407693646183e-01,1.071347340225438892e-02,-8.956697185397408112e-02,3.291167084340753113e-01,2.502356565330779437e-01,-1.173975256363892106e+00,4.702379396014190749e-01,3.051689762107019921e-01,3.506292887089905719e-01,1.754150554004634266e-01,1.208439034671395795e+00,-7.804048007258198583e-01,-5.667090236730628616e-01,-8.338141153466327449e-01,-3.115570782174910125e-01,2.029335595878366316e+00,-3.589387651907089416e-01,-8.510109676010862989e-01,3.086587915724935127e-02,2.280692670323804183e+00,2.604032984792203909e-01,-7.291175724401107727e-01,2.541406859980354760e+00,-3.991451948731084554e-01,2.534497022491901230e+00,2.859001367024886608e+00,-2.190014287416922611e-01,-5.983399400852534161e-02,3.302091335074742728e-01,-8.162065533794800043e-01,-9.412639790484849112e-01,3.287462353342282206e+00,-2.227647950702838775e-01,-4.000588979941558931e-01,1.510745953236204198e+00,-5.594964942259317286e-01,-6.047117296956278087e-01,-5.061510349545502718e-01,-1.053681825572315711e+00,6.788461148456321759e-01,-9.058152841660076574e-03,-2.132581537888671441e+00,1.976894564240672947e-01,-4.334450177920785574e-01,6.898567516411105993e-01,-5.667350283674417177e-01,8.977123879657334937e-01,2.300093362434910693e-01,4.716942624910760440e-01,-3.759799419965567102e-01,-7.930510198583274883e-01,-5.654291921135636695e-02,7.489102349490694976e-02,1.311649651536846983e-01,-4.458229251686415262e-01,-7.505243445195876051e-01,1.821344639125553888e+00,-1.118722898199568272e+00,-9.127366431914669676e-01,2.638081440576563463e-01,-1.787553961086308929e+00,-3.193201206869100695e-01,4.620436564921911460e-01,5.437240966210740711e-02,-1.049942838089647168e+00,7.862275188714622498e-01,-1.242932776999448041e+00,-1.225870851927541638e+00,-5.431776659746305747e-01,-9.656283672722693057e-01,1.098561027982159155e+00,-5.523429862516012756e-01,1.177817857291106884e+00,5.626542258400028806e-02,-3.528725106039262704e-01,-8.739298523130014651e-01,1.480601536645730354e-01,2.714732154382224483e+00,-1.876334980593236779e+00,-6.274323561331534016e-01,2.345530894874674477e+00,-6.209216768491560012e-01,9.263548952333207076e-01,-9.031201649565030742e-02,1.411140657067125881e-01,-4.797444572304906951e-01,-7.257185465329495377e-01,1.124433004684642468e+00,-1.826561685028132431e-01,-5.421424963382637241e-01,-5.373670032487599668e-01,3.254425559164160209e+00,-1.827296265327153085e-02,3.213839430110229656e-01,1.482009821453532883e+00,-6.630615221609121868e-01,3.881446258261357363e-01,-8.448137378829906341e-01,-9.100890744444165570e-01,2.778752597180425554e-01,1.004842507312083688e+00,-4.639407140560922738e-01,-1.295685383395128176e-01,1.539806753121241378e+00,-2.142639559801131632e+00,-1.395482429533046131e+00,4.704546350762382062e-02,8.308041446914903316e-01,-1.655476879815038327e+00,2.265558037529015190e-01,-3.739288765269571657e-02,-7.010774357631521791e-01,1.631006505077161162e+00,-2.081552616476462503e-01,-1.236061827394215440e+00,1.822359445032767922e-01,-2.619861363886658023e-01,1.679382616299708239e-02,-6.041683523361857100e-02,1.175891584757569538e-02,-4.930593285895034650e-01,3.981337240387506360e-01,-7.618100739028647039e-01,-8.746830593187626679e-01,-2.822087237614704591e+00,-8.062203067980946991e-02,2.240693478488690271e+00,2.419144620635793955e-02,-1.074606556543487690e+00,-1.057301306010129949e+00,4.223006630991985588e-01,1.182042726874378502e+00,-6.935017793474802517e-01,-2.822042417493262345e-01,3.877505304131132480e-01,6.323285653900458936e-01,-1.231315810972287261e+00,-8.781123084443347437e-01,5.918629169318732064e-01,-7.091497865959698332e-01,-4.443092270338141470e-01,-4.668864510104843157e-01,-6.844826229597557044e-01,7.472722072451414010e-02,6.233879491790855765e-01,-6.211266864450804004e-01,1.460476057600377242e-01,-5.698303752677720269e-01,-1.412862630118115748e+00,6.076538425564790430e-02,-1.190685666433952461e+00,-1.202386386516329120e+00,-1.057469894799358129e-01,1.219441169833337391e+00,1.185580628586577978e+00,-6.585801470205294716e-01,-6.682493338817300232e-01,3.604965332936008182e-01,-7.638405507294443453e-01
8.875692133319980082e-01,6.851476095449039461e-01,2.021586374054766821e+00,1.569186698901211541e+00,4.172826978695833300e-01,1.985215734004889265e+00,1.480987208509120023e+00,-3.049212156755402581e-01,-1.799659305081075245e-01,-1.085021605329183236e+00,-2.707835840043048670e+00,-1.739613408154287999e-01,4.134273945514439497e-01,1.851613331930619388e+00,1.741782253046392892e+00,8.528956472794763100e-01,1.559235416204250102e+00,1.568494844850720216e-01,2.683537797539024883e+00,-1.787102153341645766e-02,1.545379477653402722e-01,5.418771017547445445e-02,9.492425746190346070e-01,5.426983074968276810e-01,-5.259930157110012106e-01,1.149599645242520118e+00,-1.153576229536674713e-01,2.675053655806257868e+00,9.721892210492534270e-01,7.717948038062950877e-02,1.002981233172682396e+00,5.045264994254067270e-01,1.194838456004597482e+00,1.154223471274414825e+00,1.624546933244685576e+00,4.368199229811462470e-01,3.441794742714267552e-01,1.033262541204192253e+00,-1.228083387938248006e+00,1.449987009576045649e+00,2.355732356646722092e+00,2.073207821387414995e-01,1.372278972381852369e-01,-1.508703605258258050e-02,5.147045338273414927e-01,6.420699116828360031e-01,1.426216949834817838e+00,-9.689930416055338169e-02,-9.399709862863885046e-02,7.171650650149924422e-01,-1.554963332901347917e-01,-1.135877074972385659e-01,6.338121845699552503e-01,9.824774443446594452e-01,4.990707949372881203e-01,7.946048747982579208e-01,-5.286990018821681181e-01,1.002778289046813320e+00,6.390262800728327974e-01,-1.545330849587797997e-02,-3.027887081469385233e+00,1.041386725307532179e+00,8.413708207669114980e-01,-2.115619840184630451e+00,1.046629893172235315e+00,-8.063784592575483634e-01,-1.804222276260134095e+00,1.156232166664721728e+00,1.332745873415437377e-01,5.927574433292498446e-01,6.221257714673559258e-01,1.188251964977930175e+00,-3.309123383798667106e+00,6.462104360518764468e-01,2.096070816976164097e-01,-1.261647278109215620e+00,7.735971379769934764e-01,-5.736499536771130781e-02,1.226717741117967053e+00,1.582353894660826432e+00,-4.584761290190274008e-01,4.791456003331276969e-01,6.182562736239457513e-01,1.543334579844633625e+00,1.765401971322716479e-02,1.152337500760157285e+00,-8.086274512263937064e-02,4.189643911287933842e-02,9.070232568366123349e-01,1.140961807055205002e+00,1.007707627314310628e+00,8.302044037479502925e-02,1.204006386339121493e+00,8.288727106985622761e-01,6.523661282680051077e-01,1.042406484347685458e+00,1.875496575415536604e+00,-4.934074796989195572e-02,1.744258161532181495e+00,1.703786323452433304e+00,1.006196081581156365e+00,1.450544228107372824e+00,1.463573376531521752e+00,9.926314857346658638e-01,3.569715558857322057e-01,1.090379399336211863e+00,-1.166949337385311924e+00,1.765044083832986610e+00,1.084616367327607245e+00,3.135111879105573207e-01,5.578779631190110555e-01,7.586838493071070832e-01,7.299045678540724280e-01,1.510206102501449564e-02,-1.481814043282672522e+00,4.152947305009600520e-01,1.156579394519887116e-01,1.340975743345518278e+00,-1.830284726072618051e+00,1.000242670654142740e+00,4.564091498511519407e-01,-2.503981870631295070e+00,6.573160569897911198e-01,-1.788602686841364031e+00,6.266060063685130466e-01,4.294031275644765722e-01,9.978578139321186979e-01,7.970924412437129236e-01,-1.599577397277018864e+00,4.292855233547216431e-01,1.237054504642515873e+00,4.654398999355860433e-01,-3.474583212512881047e+00,8.886358000481602293e-01,1.252848539546414397e+00,-2.285712841567892339e-01,1.224045552054783270e+00,1.378236720709812846e-01,1.129207070128630974e+00,2.204746377804206681e+00,-2.066738931500366749e-01,1.657657743064251954e-01,1.236729177808557401e+00,1.149443348477888538e+00,-7.862542253522328828e-01,3.298055921514180699e+00,1.277674332518327738e+00,1.299982073874295541e+00,1.419981520002356334e-01,2.057800704168513573e+00,8.270216627596171932e-02,-2.191296842632867725e-01,5.020324249644236847e-01,-1.357951896686258264e+00,-2.247740442648494541e-01,1.408930234974173024e+00,5.687352554534105264e-01,2.192892433237017547e-01,4.505519853452508161e-01,5.086374565369358169e-01,1.752527561251839283e-01,4.216480029695969800e-01,1.030342337047502665e+00,9.037848868951321446e-01,4.345325963336240660e-01,1.885581180021849601e+00,7.662554117967410594e-01,-9.834535326719874571e-02,-3.639166873430335625e-01,5.255924000967499010e-01,1.142283270370094028e+00,-1.669459868097349586e+00,-5.645564642797384902e-01,1.115511584284946123e+00,7.427013905312931374e-01,1.284497023188987841e+00,-1.033524606520983324e+00,1.942582695509475377e+00,-1.549371190518178398e-01,1.711693792059163499e-01,7.475066766199855994e-01,4.067408600056539592e-01,4.010748497735301399e-01,1.446456317530658620e+00,1.593569682099336138e+00,7.719620898122502295e-01,6.402673076245158912e-01,5.897772835762506993e-01,7.608329869716626837e-01,1.394241005949016454e+00,1.003989958401712679e+00,8.152184388579718499e-01,8.282192717994192321e-01,2.219955354482773813e-01,5.665971921015853230e-01,-5.230315518047162771e-01,5.610000243058903546e-01,3.548670735590660485e-01,5.268704367734975552e-02,8.226806978990192087e-01
-6.497112004668708085e-01,5.953624247617785026e-02,-7.213780220523046127e-01,-3.996373523920961346e-01,1.242669397321083113e-01,3.025715579049732540e-01,-6.344631392053908803e-01,4.164803313552055686e-01,-3.668580872100919710e-02,5.853809317830833692e-01,8.149838497418645522e-01,-1.045293643272256823e+00,-6.704822248216906200e-01,1.771539039716244768e-01,-1.895695869935959121e-01,-1.077565452949203750e-01,6.307457686559758692e-01,-6.421558107049267772e-01,-5.734469794308185708e-01,-1.634772446110190902e-01,-9.708194026682102906e-02,-8.813552974423517483e-01,1.066193755343941146e-01,-4.758757380902320921e-01,8.385831445939022633e-01,-5.092995899669026244e-02,2.152040905426608475e-01,1.238267843147471847e+00,1.293713312999684173e-01,-6.251287270940923957e-01,-2.952881064203670691e-01,2.778126012919653887e-01,-6.289101988977229274e-01,-1.279590324350232122e-01,1.631562120530404558e-01,-7.603255712502957619e-01,6.229251897433669694e-01,5.093654685302517054e-02,5.401798107716211383e-01,-3.099470210488481925e-01,6.419427116846471160e-01,-3.290064169224172219e-01,-6.654593419928239717e-01,6.476739871542612770e-01,4.256336579536180165e-01,-1.683117588028487377e-01,-3.736907747553057657e-01,-4.769044328213099815e-02,-4.627564328992617715e-01,2.152426977275850306e-01,-3.716024582298859541e-02,1.890871577098842404e-01,-2.159078291565456886e-01,-7.511082473834798101e-01,1.930906103549002162e-01,-5.781104024519488904e-01,4.098386840860309688e-01,1.355848898147458403e-01,-6.450506319115903997e-01,-5.552159403442511465e-01,3.589380318427100036e-01,1.748560159547700790e-02,-1.134118484996679971e-01,-1.995287190620536055e-01,-1.530541823674391178e-01,6.608039887794839862e-01,-1.330211453171243452e+00,-5.532989166557524818e-01,-2.823202181065758570e-02,7.526518966088222018e-02,-7.049233988524632455e-01,-4.417270197821714928e-01,-6.037336167924445274e-01,-7.061835258492049627e-01,-3.232652026118168487e-01,-8.953687115191119594e-02,2.792078804012374516e-01,-3.319759533240498328e-01,2.793641891633978913e-01,5.381318474543933528e-01,-7.995928373469326500e-01,-4.487262239605851466e-01,1.640014850424974524e-01,4.289199835309003700e-02,-3.757634492602938137e-01,-6.770445671490061823e-01,9.713742301075956043e-01,-6.431245974184137681e-01,5.024615660336050338e-01,3.542490904782182870e-01,-9.642547618704168377e-02,6.261830303289507293e-01,-2.000310041606093991e-01,-5.909899082054095310e-01,-6.806899801387109594e-01,-5.111206583750516064e-01,3.284874882338878477e-01,2.481782109179690998e-01,3.895547257700127108e-01,1.559289162276873142e-01,-9.479180343989789259e-01,-1.262367955360314875e+00,7.345274588826332385e-02,4.436914221392904145e-01,-9.935117295489460654e-01,-6.513289466424985186e-01,7.513859570038404767e-01,-2.799567696311151543e-01,1.335132513015370725e-01,-5.578243413812223883e-01,2.548417209477426004e-01,9.252845716392319453e-01,-5.715493965259794973e-02,-3.058857244773192652e-01,7.738770669204542152e-01,-4.476495268113976356e-01,-1.265809172044033426e-01,-2.042596569494820047e-01,2.105090400152268559e-01,5.177219029179799259e-01,-2.668795211596040051e-01,-2.437439205595531844e-01,-2.072954844704010258e-01,3.768596006112878705e-01,-6.075557217096749785e-01,-3.034519934297927879e-01,-6.054881606554236573e-01,-3.776490728266528318e-01,-7.150420571494838784e-01,-7.909813617672398767e-01,-7.115034001255171603e-02,-1.070833229381620511e+00,-4.707194074467993539e-01,4.526717233354164531e-03,1.514750083816216765e-02,1.477732292865563624e+00,-2.335677008450769698e-01,7.103628299085023023e-01,-5.853589678595724211e-01,5.073047505932666290e-01,-6.061110443943975579e-01,-7.148794525326908691e-03,3.690659310838607932e-02,-7.433249901067277010e-01,-5.869778760226456171e-01,9.957771079121924274e-01,2.612199422433288953e-01,6.162653603518430945e-01,-6.389679390723909114e-01,4.772845613954298377e-02,1.003172758793711428e-01,-2.215536493046650901e-01,-8.673207826159641254e-01,-1.523720752218613583e+00,-3.601226448998181007e-01,-6.797833772431605137e-01,-2.251990241924706482e-01,-2.475868492023877987e-01,-6.003725998405051896e-03,-8.764585108552402914e-02,-7.373337969294271321e-01,-2.317235366582128531e-01,1.241929453872050726e-01,-7.405976123977252579e-01,-2.009104992289016123e-01,1.026527505960096676e+00,3.048559305262144373e-02,-4.594725486718509444e-02,-9.125134689740959093e-01,-4.593174386845959578e-01,-1.452639435795558508e-02,-9.043827466443971064e-01,-6.135805481915427295e-01,-7.839947419393193950e-01,1.276942457894350846e-01,-4.257343510426050970e-01,-6.884550725207266852e-01,-1.398701393647373004e-01,5.085429799648489430e-02,4.400409091798004324e-01,-2.121319636928825081e-01,2.975198894341729572e-01,-5.906956947545699554e-02,2.588911077633921920e-01,9.774567495065902833e-02,-5.129279721090571759e-02,-1.632856155616784488e-01,1.188422789701255589e-01,-2.571460019358916549e-01,-9.692055931721725859e-01,6.117329219132473794e-02,5.366562710006755887e-01,-7.176815892025679711e-01,-6.094228805152738238e-01,8.680855516232414137e-01,-1.082066045293544665e+00,-1.146871946521162700e-01,-2.711342663905458306e-01,-9.403066304953220378e-01,-2.999429853244684474e-01
3.341010806158021818e-01,-4.986405627495314463e-01,4.060320676096738080e-01,5.062758162170464260e-01,3.109672812959880517e-01,3.587386364010090034e-01,4.673705779219186063e-01,4.180389885945064443e-01,-1.598559313675347038e-01,-7.278202450761924736e-01,-1.070647745196596917e-01,-5.516513000586279469e-01,2.971777154809724930e-01,-4.664750655399059198e-01,3.915526599128508756e-01,-2.052996513692909308e-01,-6.462896092082173194e-01,-4.711739317648854231e-01,-2.010014078069135776e-02,-6.645669564553841058e-01,7.146823614358884802e-01,-8.370061476096021802e-02,-6.585488459608509482e-01,-1.073201534070026053e+00,4.361733590842726271e-01,-3.815940067598719287e-01,5.513655291004814218e-01,8.975466452104118309e-01,8.917864041948074527e-03,-1.932817989034144868e-01,-1.402728626263125555e-01,2.827667449138259181e-01,-7.925560122666764906e-01,2.160892578247012585e-01,7.133485716925727638e-02,5.019269457859054651e-01,6.263169686641943679e-02,-7.799814879076583107e-02,7.242674151701541385e-01,-1.745401874927448305e-01,-3.728771184665924388e-01,3.354874726678304109e-01,1.053599918421665171e-01,-1.640984477954124943e+00,-1.551089803476837226e-01,-3.486853458224032365e-01,-2.014782186634790917e-01,-6.734290638823070552e-02,-5.416679015547832821e-01,3.743962892087499550e-01,6.578390272301947173e-01,7.255358942764226216e-01,-3.129924816927494025e-01,-6.667027090579061843e-01,-6.195069029361107704e-01,-4.688753321850251954e-01,4.202875114069758444e-01,-9.285199677414163189e-01,6.444742258017728265e-01,-6.050724866987196027e-01,-4.056012139440339226e-01,2.806928020965236970e-01,3.948894605237256994e-01,-8.454925288609002054e-01,-6.365480055417217509e-01,1.249902477689757596e+00,3.499879631546649189e-02,-1.317921556992844301e-01,-8.298085262702324938e-01,-1.214891860846936539e-01,1.869213918520347406e-01,-7.045516169015555441e-01,2.669447628180776980e-02,-1.027564670594566382e-01,6.144612312426239731e-02,-5.797615133323906766e-01,-3.447369905319231931e-01,7.627657429574999925e-01,-4.325399673289066077e-02,-7.623642389670190478e-02,2.932348520779278211e-01,-4.480086161251959909e-01,-3.013781528533721610e-01,1.318167147136089512e-01,-4.518029243422506114e-01,5.322592419484030168e-01,-6.792615985844741022e-02,-4.465477818452290304e-01,5.766799042867700592e-02,-4.700178786083724636e-01,3.923117799621493318e-01,2.905671853133984239e-02,-8.799028455816326755e-01,-4.436892070160810553e-01,-6.126575739132400500e-01,-3.757198044168765794e-01,-7.178024860440848642e-02,2.749826251588471937e-01,-9.086677792335604575e-01,2.881543076884687804e-01,-1.554660970848616708e-01,5.523165033226897780e-01,-1.738096996902296909e-01,4.652798716058075823e-01,1.504940753827730127e-01,-4.376238053578956899e-01,6.826903383522440194e-01,6.150023605858995213e-01,7.199056078441480322e-01,-7.511533707752110489e-01,2.985055693770758203e-03,8.350830894876619670e-01,-6.795165900462096786e-01,-4.450279492032075401e-01,-8.657608055576406780e-01,3.214288406821261268e-01,-6.947656151312903150e-01,9.399540802001267112e-03,-1.878096231591488696e-01,-7.263995471517762370e-01,-5.418052244160602715e-01,-1.403873645051905816e+00,-5.550385216061151095e-01,3.727894035675885509e-01,-6.006476502969714248e-01,-6.075502416902048841e-01,5.255227112096008124e-01,-2.424552394114841136e-01,9.126289169817789482e-01,-3.780139136549335865e-01,-1.692715982202374625e-01,-5.434398797670288994e-01,2.294711049832935668e-01,4.501760144008686709e-02,2.001429867010570685e-01,1.479294914395054894e+00,-8.102061968350205978e-01,-2.032902131996646988e-01,-4.298423042446568032e-01,8.493551594503322422e-01,6.344917410052324236e-01,1.585681753357631452e-01,-5.208617161365186599e-01,2.359089676517780454e-01,2.791141442911160842e-01,5.504893647235662435e-01,2.556597723977706571e-01,5.670843717431598430e-01,-5.128423324122046711e-01,-9.209365758606058439e-02,-6.294002615265559264e-01,-1.676346891919183069e+00,-2.156991624886235859e-01,-2.762364954988882348e-01,3.423739741639024725e-01,-5.092071304157467226e-01,3.607485030859030606e-01,-5.871664186006402275e-01,4.192848351892415615e-02,-5.230062630372988020e-01,-3.742815852239277374e-01,-6.625095346337427360e-01,-1.285709066232769149e-01,-1.685256821134224481e-01,-6.028786200404365747e-01,1.997354375285957939e-01,8.158659769671901263e-02,8.394761070098510913e-01,-1.900604717163033031e-01,-5.686979787203274572e-01,-6.077623094359547729e-01,-9.026967317418629344e-01,1.949956512509823658e-01,1.364911500480657514e-01,3.376470924206124297e-02,9.436260611636781981e-02,-1.537529669916428976e-01,-5.790887220513833977e-01,-5.668612960025232184e-01,-2.406215072783298436e-01,-1.465529009294812557e-01,-5.831057838738312737e-01,4.301318738339859893e-02,-2.565608570136101441e-01,1.566510299067309098e-01,-4.979811260075612256e-01,-3.051469781409347215e-01,2.283409492232588156e-01,-5.921052316638594215e-01,6.529876078870504585e-01,-4.822920891191916914e-01,1.227645514362571064e-02,3.430621385368366472e-01,-3.785331036512136205e-01,1.258517650868216653e-01,-5.165398605283844091e-01,2.968830569452057463e-02,1.382375538311388097e-01,-3.042198609783368091e-01,-4.846570629240261156e-03
-6.869215037887770325e-01,4.076908007542102697e-01,6.924730422582469069e-01,-6.362510198405101347e-01,-3.916097592302171804e-01,-1.624142287412800589e-01,-6.315380221134435645e-01,-4.960369654300325615e-01,-4.195378954643628755e-01,-3.046638197179557528e-01,-3.286270431569794925e-01,8.063752343682715207e-01,-3.853098796509726864e-02,-6.018822274047972432e-01,1.546850427284354734e-01,2.882370633216616018e-01,5.782392736726494897e-01,-2.086104503166759036e-02,1.577921977135491871e-01,-4.098264015542520955e-01,4.175060181230305645e-02,-3.966237373127154409e-02,-1.584003532191674002e-01,1.166408956720029755e+00,-2.406213887223105641e-01,-2.337308883263642945e-01,-4.583963674986555881e-01,-1.317856881218117060e+00,2.498908922850990588e-01,2.975175542358906577e-01,-1.864292621722961063e-01,-3.714803229115769545e-01,4.782601523073944927e-01,-5.754929116010168433e-02,-7.333832512201358955e-02,-1.583230735498757369e-01,-9.168228535603306639e-01,-6.357987652855594529e-01,-4.356616819438420829e-01,-5.657368211541707881e-01,-4.638031515083668732e-01,-4.225300360182172033e-01,-3.235001113334004530e-01,6.043418615379472225e-01,-6.691963215137317622e-01,-4.627701261327393789e-01,-2.331440259840287521e-01,1.583439407409627520e-01,3.842940163044832325e-01,-6.470283474671144341e-02,-3.503605292600901477e-01,-8.412010126087696715e-01,5.654219512322150587e-01,2.623813017942762116e-01,1.154286674473662400e-01,2.036525646491961772e-01,-9.612091951818773072e-01,-2.223741716900128895e-01,-2.378621345540349319e-01,-4.504631232194990509e-01,-2.399327270889221875e-02,-7.415851197879675949e-01,-5.309775014401716398e-01,6.652579044147406417e-01,-4.861919628149632966e-01,-1.336754849986527161e+00,-1.050377874354660346e+00,-4.960609262274633807e-02,-2.995924751819231679e-01,3.839585425694757581e-01,-4.028126787910938367e-01,4.477424529832962907e-02,-5.614482518572209147e-01,1.837860568271508788e-01,8.425365568398028582e-02,2.964026713912131794e-01,-1.605748971995287211e-01,5.235754667352453540e-01,-6.887915980275847172e-01,-4.025487832841762592e-01,-4.169188037907788913e-01,-2.063953492822012681e-01,4.281550108570033042e-01,-1.316290036405490249e-01,3.497001393698995209e-01,-3.917777765324602646e-01,1.414623808091957646e-01,-4.019362179678023228e-01,-9.869802111324866845e-01,-7.248512850164903210e-01,-3.065938157840797373e-02,-2.588058577714550390e-01,6.191291663717717331e-01,-4.135280280521937968e-01,-2.354360499368498005e-01,3.215351789807163047e-02,-3.065390416097369397e-01,-5.996115967664844559e-01,-3.197915812862486135e-02,-8.328063931007118059e-01,-1.965203992893268040e-02,9.937250156987058325e-02,-6.492377662405514060e-01,-5.975129905626749283e-01,5.751819171238744532e-01,-5.897123468943176183e-01,-3.303873072666286270e-01,-5.325170828690659608e-01,-1.874134381073017941e-01,4.839585317445221913e-01,-2.298603882635497642e-01,-1.203804565827399919e+00,3.683048613367577717e-01,1.381777999387076017e-01,2.904261941038486228e-01,3.883161202232556231e-01,-2.875875817396961881e-02,-4.956620746976537761e-01,-1.608712248319819557e-04,7.828251483359760510e-01,5.710312734446220118e-01,8.911781427549265722e-01,5.904265333977474217e-01,-8.148685143148408361e-02,-1.844260187936434814e-01,7.393384883923759254e-01,-3.255594639962474668e-01,-6.492448257792030053e-02,-1.013876949731331578e-01,-3.357128102947404824e-01,1.926697428044030214e-01,8.266998239637937118e-01,1.726211277522338994e-01,-6.133750745885735434e-01,-6.295693514439245630e-01,-1.753821025688482305e+00,-3.397962545944371859e-01,2.610155503876969707e-01,4.178801528258630493e-01,-1.175932680440459288e+00,-2.960510568734223691e-01,-8.811461711998707091e-01,-4.125027649498025917e-01,-8.253521767843011725e-01,-1.081099763255145785e+00,-1.383837345068117175e+00,-8.713599778049011535e-01,-1.293387864735888959e+00,1.514760482805499464e-01,3.764205167487088000e-01,-3.549021033205616849e-02,7.680750016567000626e-01,-2.996066013997208954e-01,7.877713072672822836e-01,5.987690765208251303e-02,7.801639829852394237e-02,-5.805302055047755205e-01,-2.604503334541989346e-01,-3.372013532497269983e-01,-2.294814029427059421e-01,-1.513004105938255406e-01,3.998271317569038197e-01,3.885672865972366052e-01,-4.698123511030755095e-01,3.623977386884603136e-01,2.413784935965852807e-02,-4.684878773005796693e-01,-1.343723525811743036e+00,5.720360632752130581e-01,5.706261184173620771e-02,-4.403629506783378056e-01,3.509932915003019516e-02,7.398793263856517921e-02,-8.841591321108824286e-02,-6.107466633674580869e-01,-6.492574405205411292e-01,7.819067281404494807e-01,-6.777668746995353655e-02,3.291876670147514394e-02,-7.268499441074144363e-02,6.775650980209771967e-01,2.917333791507007446e-01,-3.410224577556990599e-01,-4.960007355069005475e-01,-8.078582414438968407e-01,4.792528670615608388e-01,5.571442821481423779e-01,1.011900146581884707e-01,-4.121037956389424495e-01,4.650870749546983651e-01,-2.152091663784124476e-01,-2.306544453965101993e-01,-4.903786207408840081e-01,4.219164725014595829e-01,-2.830102259319870472e-01,-5.878728472493432999e-01,-5.473480521249107777e-01,1.545822908854514455e-01,-1.072473459542172963e-01,-6.545072534127651664e-01
6.052061746973681489e-01,-3.495656663772468975e-01,2.681491488376455679e-01,1.465051453260538539e-01,-5.064056468610037554e-01,-5.668065338341710113e-01,-4.691006463525509984e-01,-8.554971264233138251e-02,7.249842459497220226e-02,-3.384792476122902016e-01,-7.119268742550131923e-02,-3.102386299344294662e-01,3.673500217194414774e-01,3.898324521167093049e-01,-5.639573509159496734e-01,1.021871788098919764e-01,-1.083188626610472660e+00,2.432615434893730388e-01,-6.980478416879026815e-02,1.899569071916230312e-01,1.221677281439167767e-03,-1.298006575917185212e-01,-2.581856779061610929e-01,-3.391964971575347487e-01,1.653461638840253711e-01,-5.932687539188231662e-01,4.396245487730637280e-01,-4.417116648156088066e-01,3.473863021466073731e-01,2.429260656095365567e-01,-4.612286104217884763e-01,2.227073883199264248e-01,-5.096760960151563991e-01,-5.567813751424078444e-02,-5.525323055055140209e-01,3.189131663922268323e-01,2.124641786239306884e-01,-1.593698593700325176e-03,5.022255543705654926e-03,-2.122375759220699598e-01,-4.486229144190129192e-01,-2.601742508488037453e-01,-1.638536637109938299e-01,-7.443406198966060483e-01,-1.642267622843061048e-01,6.424708247565609487e-02,4.571436085168002483e-01,1.347664286967616420e-01,-3.732996191957436150e-01,-1.020571199270113860e-01,2.951598018843775151e-01,4.640814800702537934e-01,-5.999622051745915341e-01,3.399814530910605925e-01,3.403795212714630369e-01,-4.645866966222400585e-01,2.893835299049409837e-01,-6.053084915440476443e-01,1.103263483426831929e-03,-4.000962292761507944e-01,1.880120157371310829e-01,-3.175795742873370187e-01,-4.221627305283315867e-01,-1.670829394216115649e-01,-4.897961808769784597e-01,3.258840157212881672e-01,6.928882446851597487e-01,-5.594441671302232549e-02,-5.024960485096005014e-01,-2.520165267870216330e-01,-2.404884452317144761e-01,-2.243322954772562217e-01,5.564777511054052050e-01,-1.425430444248061146e-01,-4.109422571694313353e-01,3.423301560809197674e-01,2.801916878503202812e-01,4.061652628177913060e-01,3.847826983575979298e-01,-4.748117637693216042e-01,5.620063834465802710e-01,-3.155914401564003380e-01,-8.686591560198109185e-01,2.128657839116616657e-01,-2.358816768523486207e-01,6.520600471867493697e-01,-4.271802678509230566e-01,2.024314476586451528e-02,-4.984051191500686595e-02,-2.296546092037330400e-01,2.541486302467046432e-01,1.388413552624977454e-01,-4.086706185588485085e-01,-4.030312619176361633e-01,4.503029367562714214e-01,-1.527493741622885925e-02,-5.940829491219289799e-02,2.710504396032422658e-01,-2.702701340443534606e-01,-1.967220304884476911e-01,5.606893308564920853e-01,-2.251535070217568768e-01,-3.191019230303352439e-01,9.670567697551794850e-02,-1.057762595619435031e-01,-8.407985286359891119e-02,-4.656656825279097967e-01,-1.479516248126079743e-03,2.649665881381597574e-02,-1.044884831508059719e-01,-2.881391978430564715e-01,1.428845143476974722e-01,1.060132157267167641e-01,4.216326611257219525e-01,-4.814737215214350829e-01,8.271210355179717255e-02,1.041376945621538472e-02,-4.509106242724587599e-01,-4.791552091558869408e-01,-1.657240882522171277e-01,-4.176568150970734750e-01,2.900083026043792644e-01,-5.700713080499724139e-01,-9.168416341737611885e-02,-1.837277379510861286e-01,-4.795903976474403252e-01,2.293714060725590698e-01,8.292858226449606462e-02,3.779714574792537030e-01,-9.671984876365255501e-02,-1.882936556384355309e-01,-5.557430255170384692e-01,-4.427958235171396972e-01,-2.660065568587862139e-01,-5.882672022994468730e-02,4.009892127836518078e-02,2.431770839868480916e-01,-2.549933946992390399e-01,3.442826867604932839e-01,3.542648803259993984e-01,4.155100971168310120e-01,2.179549731505655563e-01,1.462277442534546668e-01,5.789396013800258700e-01,2.077356253224262872e-01,1.900291997277121434e-02,1.297632935127885634e-01,-5.339857770361623457e-01,-2.932042388841126779e-01,-5.199407226538292903e-01,2.842321261020928080e-01,-5.931073430155735515e-01,3.623274558058185990e-01,1.694639116638348986e-01,4.669600737808767832e-01,4.736511975200564939e-03,-4.241320365160285155e-02,-2.948044455919866524e-01,3.508800546314531643e-01,-3.702626180273771439e-01,-4.750401286373611698e-01,-3.956665893194906136e-01,-5.433194237349530109e-01,4.927810903609499693e-01,2.265166458602786703e-01,-7.705719884062374181e-01,-3.027135828651950633e-01,3.170209571721923081e-01,3.741744683015501560e-01,-3.389763619109605886e-01,-4.549233327708085972e-01,9.954699099260344575e-02,-2.951827538330417111e-01,-1.290806880017908720e-01,1.397632145702182027e-01,2.404518313731505430e-01,4.672400733119566607e-02,-4.745179721732514788e-01,-3.036044770996006448e-01,-5.504565332889764795e-01,-2.487291275829678350e-01,-2.699246690923765568e-01,-1.578699006989067732e-01,-1.854926526222525074e-02,2.614614168250147808e-01,1.586929664525204564e-01,-2.222348000446223160e-01,-2.892998817881761164e-01,-2.871330114989781856e-01,1.092264313184802549e-01,-5.603047965561724908e-01,-3.192915600259720321e-01,-2.946512846793272189e-01,-2.034694998638899854e-01,-4.637567545757425025e-01,3.000430943195376288e-01,-4.078265817113601033e-01,2.514093900230240375e-01,2.663866178435104759e-01,-2.456988339404324873e-01
-2.693575630379449470e-01,-5.461466138484305510e-01,-2.899350491864878879e-02,1.933591815698564309e-01,-6.142134159082710543e-01,-1.186865779670162935e+00,-8.931843127061332988e-01,7.435074493130346962e-01,-3.552093458390844782e-01,8.681480925706563934e-01,2.023831638106194097e-01,-5.748832573526471146e-01,-2.995328529589373345e-01,-2.444134109144938671e-01,7.361514933882320477e-01,-5.523231769086568432e-01,1.334039890274370643e+00,-5.385755109964653897e-01,5.896636016943042069e-01,2.356924813510714312e-01,-3.079748413186843004e-01,-4.567337653503483752e-01,-3.963577556092706122e-01,-6.752301032826596439e-01,8.759743469325076415e-01,3.968483031576338083e-01,-2.128019262496076980e-01,6.137480076107185711e-01,-4.289309257959625366e-01,-1.297443394687278762e-01,-5.729289946845966819e-01,-4.194180374234619535e-01,-6.765680626238027573e-01,-4.254858453192359447e-01,2.109703113662792506e-01,-8.322519067936127168e-01,9.707382372174707674e-01,-3.431176934916619348e-01,1.704368313560157278e-01,-5.974550488694616718e-02,-9.584723796519354355e-01,3.100332978608239531e-01,-2.787883830315406319e-01,7.713884612925916429e-01,2.833974692098618631e-01,-5.563541808938772260e-01,8.560470152747844466e-04,-3.812059665723143698e-01,-5.003939372441884581e-01,-9.189794124186982938e-01,-5.457068666332244300e-01,1.456559204069495517e-01,-1.199721230124703303e-01,7.037459671695391883e-01,-3.994700861459346553e-01,5.253941941265077853e-01,8.742309533007522337e-02,2.932119157020452449e-01,-4.376661473851552464e-01,-4.852335339435402406e-01,-1.036725255802591006e+00,-1.063590128187322098e-01,1.519486532924620437e-01,1.542348386589781351e+00,-3.257091213525815654e-01,-1.759684741370108885e-01,-8.880693061685180911e-01,-3.011145444558943063e-01,2.832482466870833160e-01,5.390173960979339762e-01,-6.024448610248090974e-01,-4.619140853153121395e-01,5.348020510194485544e-01,-3.535337222966188353e-01,-2.119453941458016299e-01,-1.634080981127086427e-02,-3.789450991951351932e-01,-5.540978461359661322e-01,-1.351904810210624863e-01,4.495739233769835419e-01,-9.818928055635079977e-01,-1.788381250836019731e-01,-1.523061853034999580e-01,1.277247007478198026e-01,-6.160436624282369378e-01,-7.201330506805719844e-01,4.480561219865722977e-01,1.852158058039981847e-01,4.618395483002765145e-01,-8.425271526437962955e-01,-7.178042549328429445e-01,2.335467578379246678e-01,-6.692398711893150498e-01,-2.490087900246042152e-01,1.408538047458088027e-01,-4.200235835392733819e-01,-4.778601071863237681e-01,2.889190611633016270e-01,1.183204098618891864e+00,-4.518076071371084357e-01,-8.024391659169802793e-01,-1.055277815147626308e+00,1.524171410863656411e-03,-2.282188535150585784e-01,-5.506294378689496893e-01,-5.218553448169857001e-01,-2.092894586562506556e-02,-6.271666517090776494e-02,1.401005836337312627e-01,1.364320711720513057e-01,-3.414813846968720590e-01,8.886188011201564541e-01,-2.767562362300680645e-01,-2.660790017449159994e-01,-2.620733291738892579e-01,-2.992730322162309164e-01,-8.465266330082544810e-01,4.570507379202911613e-01,-9.625085022996706652e-01,-6.788555602920004484e-01,-7.543382899541172248e-01,1.243961580512155329e+00,4.379221500879980356e-02,7.922119855294754709e-01,-4.537894143188511697e-01,2.163058542167529130e-01,-6.365281758435878956e-01,-2.020088800131757956e-01,-5.585513308505687391e-01,-4.861876166114821318e-01,-5.329561643202042065e-01,-3.817625559871287155e-01,5.511821334876684242e-01,-8.591639107279603893e-01,-6.681348865354315159e-01,-2.995190238870997779e-01,-1.918588531988952295e-01,2.139252260307126507e-01,5.609231270070023923e-02,-4.629137661451517283e-01,2.738064449861543626e-01,-1.792584722560807906e-02,-5.025448613872636194e-01,2.380326889216082265e-01,2.008303541134866532e-01,5.496839220279754468e-01,-4.546601414974341671e-01,-4.604789661903227471e-01,2.370465984610941046e-01,-2.575347780136654774e-01,-1.838045526824500231e-01,7.628410086307679805e-02,2.348217503244014737e-01,-1.426785816275692564e+00,4.785660742869608519e-01,-5.135226062701123695e-01,-5.723878196116853889e-01,1.458731877604399312e-02,-6.505879784075284389e-02,3.902490045009496256e-02,-2.827273433364486110e-01,-4.242863908103540749e-01,3.744481304833670032e-01,-4.238460941324075359e-01,-7.298423651228616582e-02,-7.238109935801606554e-02,-7.948872918940035337e-01,-4.112303025071346596e-01,-2.849040772232265817e-01,3.289973205361204633e-01,-6.825649448384409901e-01,5.394043935898609199e-01,-1.707038601910627063e-01,-4.439189368445342065e-01,-1.142451658317559238e-01,1.060215974748847240e-01,-1.019012173187684223e+00,4.112710755110411398e-01,-8.998898849387723109e-01,1.962632467915695345e-01,7.687966117854609926e-01,3.386823987124602531e-01,-4.586123504995622824e-01,4.234631366170167333e-01,-2.248650865047544800e-01,-3.702364084970878322e-01,-4.184939627805747131e-01,-5.361963323963649941e-01,4.093980138639860544e-01,-4.973040026264738400e-01,-5.801179101659351689e-01,6.308066658235881308e-01,1.866072425649025618e-02,-6.466838487338617547e-01,8.413495483733064439e-01,1.540156238135044764e-01,6.232905551728472326e-02,-2.167990045512637742e-01,1.563654774966581340e-01,1.955250518954999850e-01
-4.292642537328767438e-01,2.036951981293065039e-01,3.039805532043174385e-01,-6.601245663347589110e-01,5.810145189110783592e-01,-8.237434091478423870e-02,6.234213110013869796e-01,-6.198450900689185250e-01,-1.280274560997573530e-01,-2.951182863371304976e-01,7.395877776498276102e-02,5.431795090797121306e-01,-3.473569468373753355e-01,-4.263593707354778051e-01,-9.549502809110674839e-01,-4.736893980845969798e-01,3.424266336699786084e-01,6.005614222090949195e-01,-9.699671494023887064e-02,-6.423555223307831907e-01,-2.204058746121271006e-01,2.107976944029296695e-01,-3.404984120221244415e-01,5.838281183512260553e-01,-9.477804146576963573e-01,7.520026156351712343e-01,-1.478791873959828918e+00,-6.520276877780148972e-01,-4.966714369828727910e-02,-1.975110679560599380e-01,-3.129751845426337886e-01,-6.013548463051728854e-01,8.980055766252404981e-01,4.426711140151304291e-01,5.917655667395579355e-01,3.794771135277645868e-01,-1.197501450455895400e+00,1.351747176382983584e-01,-2.626326394513772700e-02,5.198752033432567643e-01,9.110909802423989845e-01,-3.191351779934186172e-01,1.400135755300121188e-01,9.433081261263249750e-01,-2.448467343528878404e-01,4.417539149431873868e-01,-7.729599741986548089e-01,-6.657419256986109035e-01,1.580445455369807461e-01,4.819040225560286550e-01,7.793740163215421290e-01,-1.052403540352404354e+00,4.373389355719659588e-01,2.045168917107371143e-01,-2.316354692292843520e-01,-3.294076677546759480e-01,-1.985199280787040832e-01,9.972757056168812806e-01,3.749471380153695521e-01,5.015288213776527559e-01,5.391095257606445257e-01,-6.816341149199798277e-01,1.022016007021086907e-02,-1.699304502248539128e+00,2.859351628208871982e-02,-1.878173174780370935e+00,7.745948183958529798e-01,-3.457354048726922757e-01,1.507039553442782454e-01,-1.927844670408773720e-01,-1.862283663230003272e-01,2.531034854094844078e-01,-9.081830669260901878e-01,9.999550187715511296e-01,2.151052927363574785e-01,8.251356495507550237e-01,-3.181856377146007331e-01,-3.435752037036471918e-01,-1.517682415980397825e-01,-7.919497282768491742e-01,9.039490698650628486e-01,3.408071097215454315e-01,1.277319493052254673e+00,-8.436629560377160164e-01,-1.048293980903756417e-01,-5.099343907645206286e-01,-1.299191590179885836e+00,-1.753184105659917613e-01,-2.528146118796528174e-01,1.898447968354232962e-01,-7.595914997944104297e-01,-5.782578235990623039e-01,7.884457981840524710e-01,-2.329718563012880828e-01,-7.467849344852747207e-01,4.478258558123365818e-01,-3.845418731600679374e-01,-5.464619331310386352e-01,-1.269119708959207893e+00,1.998689679198130953e-01,-3.000952629270243754e-01,1.407747321950948871e+00,-3.610056049031939995e-01,-1.682656768321763308e-01,-4.423926524336724286e-02,9.491274537546051659e-01,-1.354266024194120233e+00,1.891981919806532686e-01,-9.853796252888953333e-01,7.114255553723475289e-01,4.837027860323999673e-01,-2.212275936212942717e+00,-3.052373455427486726e-01,1.851723258878221375e-03,7.448683270474845131e-01,5.262369973222026376e-01,7.584309324018932985e-01,-7.992727513317868793e-01,1.433123348562491683e-01,4.470121847779860436e-01,1.073543559945777437e+00,-7.823537883621598521e-01,8.844032299317401702e-02,-2.217912264264511601e-01,-4.732292301732282658e-02,-2.204489141145153652e-01,-3.720019883360016766e-01,8.606812253176771010e-01,-1.598093608098130614e-01,2.354928091747282848e-01,-2.960594717164978240e-01,1.352805579672055503e+00,-5.174147509409289247e-01,1.055690009583300837e+00,3.533400279243418818e-01,-1.588162058367739826e+00,4.541749932395499623e-01,-9.589952809487902741e-01,-3.250919975551492258e-01,-2.053281941890845452e-01,-3.988991478501817678e-01,-2.881767000513677304e-02,-2.423930280638275647e-01,2.415177841783795465e-01,1.632335932016971136e-01,-7.657733279526589554e-01,5.631328077286784639e-01,1.099256195296390015e-01,4.430456602789216713e-01,-5.394162961943602674e-01,-4.751159281956889302e-01,1.836433242008665090e+00,3.478383039174010594e-01,1.978742966456516594e+00,1.951360058779101625e-01,9.296614846912314434e-01,-1.964785462131235783e-01,5.399846936503188699e-01,-2.782243564426393201e-01,-5.924008674637262772e-02,1.920671513783900608e-01,-3.898023982535546161e-01,-2.109447954344988163e-01,-1.875024540484221680e-01,-5.046283211820288273e-01,-4.202184082610903038e-01,1.221801171428191640e-01,-6.302114980535041822e-01,-1.229009988641350665e-01,-1.833318525147391020e-01,6.045420451289146291e-01,1.334473069120942990e+00,1.021715623452617461e+00,-4.103000319772866916e-02,-2.296919288606717180e-01,-3.820020190607265609e-01,7.813024347048985740e-01,2.746438988506377243e-01,1.034588723704719548e+00,2.967281729714204563e-01,-7.246593269447484387e-01,-1.803855987875000455e-01,4.529506813167633733e-02,-5.342675439437145624e-01,-6.099829269806679166e-01,-5.951041181046640149e-01,-3.286386530198346367e-01,3.689980942305789990e-01,-4.826610588226201148e-01,-9.129066438989781318e-01,3.556479460909951484e-01,-5.076712622179339052e-01,3.872434840794302668e-01,-3.157032295881790906e-01,-1.422205451582646996e+00,5.231002944020317624e-01,-2.254299362922908626e-02,-5.958182803571886454e-01,6.797710181979695898e-01,5.647974999971366872e-01
3.827043758594332601e-02,-6.163508747579018454e-01,-5.956176613287958999e-01,-6.380981694781183711e-01,-5.977927927804709274e-01,5.707638595337958254e-01,-3.398704095855877017e-02,-2.663151634590854577e-01,-3.120023562555812591e-01,-5.113296724456591891e-01,-3.744138826794318198e-01,9.018726888383817031e-02,-5.782699689592204484e-01,3.763345244517745658e-01,-2.164139572416095281e-01,-2.540304725716230894e-01,-6.188224764816681045e-01,-5.006114105539158921e-01,3.788347385856217775e-01,1.891796695542703743e-01,-5.877268616478924512e-01,9.756316421347677181e-02,3.522034151980223404e-01,6.468726838919011124e-01,-8.326260686512825249e-01,-8.186472206102461679e-02,2.930064231897596128e-01,4.046965103314366652e-01,-5.858342910424619854e-01,-4.942009148644201377e-01,-2.791710074113553861e-02,-4.299410400507759911e-01,-3.690031378076429336e-01,-6.685571697781097500e-01,-6.532279661066063836e-01,-3.069510151329230552e-01,-7.733668306076499910e-01,-6.231901330337542566e-01,-5.104374194307058632e-01,-2.950171244550581773e-01,2.665039161938482226e-01,-5.740961988856468912e-01,-2.937085546433648719e-01,-1.103627308922745076e+00,-6.425421406390325885e-01,-3.187024627214253281e-01,2.364734091977133135e-01,3.868517878504716678e-02,-5.953092441751920427e-01,-5.361759682894253753e-01,-5.929834512540881342e-01,-7.093455757407090001e-01,-4.982958535408593681e-01,-6.335833576381940668e-01,-4.876967513158778633e-01,-4.386197549968618992e-01,-4.043122712053703882e-01,-7.548457235107726149e-01,-1.965285101204814477e-01,-3.557288131057246838e-01,5.048797315012624187e-01,2.553629097425409999e-01,-4.619603119614965614e-01,-2.016211130052786848e-01,-2.957961697121492262e-01,4.243273661781393757e-01,4.195025773799633817e-01,-1.959883790712239615e-01,-5.540514158489066032e-01,-9.671255627253636522e-01,2.337208678420509000e-01,-5.916358651036275340e-01,2.826084266389956023e-01,-9.764672805445804293e-01,-2.506131304988279962e-01,-9.662354780704578427e-01,-5.549733428064161922e-01,-4.087903686350422006e-01,-3.573629561571495805e-01,1.473694648219977532e-01,-4.866986829228782223e-03,-2.046766213208164320e-01,2.434561061006904337e-01,-3.754108645065605265e-01,-5.420470689465550079e-02,-1.077167304987787927e-01,3.193735550136938550e-01,2.670164577018417917e-01,-8.493828728006649897e-02,2.004208922011583016e-01,2.682382820257418476e-01,2.113515716461898952e-01,-5.865725949514553061e-01,2.049556260994716550e-01,3.892099696328480407e-01,-7.246725097955455386e-01,1.385699821323432279e-01,-5.184842534242565248e-01,3.567805582648159168e-01,1.087212023327594340e-01,2.241622481067101769e-01,-3.872790872896756942e-01,1.181464810568705198e-01,-7.545332657110997987e-01,-3.312285197909258239e-01,-3.536151873252489364e-01,8.348245405538605723e-01,-1.386380878331017752e-01,1.643260259543308233e-01,-3.195861918502034826e-01,-3.600293728702061991e-01,4.279426445435105530e-01,-6.183462245871883534e-01,1.791670257626898910e-01,1.603615355777117391e-01,-7.567825988525678227e-01,-2.625616925138117841e-01,6.238562647345417822e-02,3.527008155866448447e-01,-1.311140320970897132e-02,-8.389338427465387049e-01,-7.566037090624558870e-01,-8.847844653995762254e-02,-3.353041154344986174e-01,-2.987757786012212868e-01,-8.750198745958207569e-01,9.542205517123161784e-02,-5.936510199045926806e-01,4.920149650117054962e-01,-5.491628364105380355e-02,-4.931240016557739136e-01,-3.847888703351771134e-01,7.344100287880425681e-02,-8.317720970220434662e-01,3.536318345276067698e-01,6.451798893283259284e-01,-4.003441590626745650e-01,1.264556338313574113e-01,-5.193345683615985253e-01,-3.655366794517319606e-01,-5.902677387189837477e-01,-6.588611500240207919e-01,-6.196579576793763700e-01,-5.001829294489974487e-01,4.527769286149094935e-02,4.979935753684661681e-01,-2.997842478311342762e-01,2.263143582546625898e-01,-1.751312459940834454e-01,2.473155377908766717e-01,-6.324951424706197478e-02,-8.004479569906071124e-01,-4.591455342907451720e-01,-1.212534701272334425e+00,-7.961442841011584504e-01,-6.680231362267150530e-01,1.920295919421000919e-01,-3.426516211882689733e-01,-1.975132315486351486e-01,-5.806428137254642241e-01,-4.509224490986333822e-01,-5.738580164457457444e-01,-8.382473476438502269e-01,1.626584003061085915e-01,2.014208359454661146e-01,1.047976314869975667e+00,-1.499991476044471306e-01,4.114954411387174993e-01,5.063666971321466315e-02,5.808001431388992719e-01,-5.333341866683731780e-01,-4.273210267364630499e-01,-6.379920117004850288e-01,-6.497744471518254739e-02,-6.064000505317154177e-01,-1.684600581476986825e-01,-7.968033829203613472e-02,-7.795064368941673205e-01,6.657269080885196422e-01,-7.407013109944460272e-01,-3.283257879631335530e-01,-5.813050103277851433e-01,-5.566307312030323029e-01,-5.196422808468337262e-01,-4.291494788859397946e-01,-5.778244315710682200e-01,-3.515861369820417193e-01,-6.789274693542414474e-02,-1.253269984644568291e-01,5.248396982988070558e-01,-6.002262056630849330e-01,-3.175732797255657602e-01,-4.088262059136524296e-01,-9.669159329484347531e-02,-2.537973787548290505e-01,3.410649551618231967e-02,1.916388626673825313e-01,1.067373946914509653e-01,-6.611327337614253397e-01,-2.563849392399369931e-02
-5.469259552033824967e-01,-2.992833421979804731e-01,-2.531349410012881940e-01,7.509258797992629519e-02,-2.053509247968366425e-01,2.148116330857063327e-01,1.394418986576864139e-01,-8.829728800491025709e-01,-1.951153222124291930e-01,-1.695623007264487336e-01,-9.683381016014951104e-02,5.752725099211881687e-01,-1.485843108883120878e-01,-5.638929314486882394e-01,1.413995617683066475e-01,3.862025729822132769e-02,2.800132347247610842e-02,-1.787138991717057979e-01,3.619153916115451786e-01,-1.951586545221425661e-01,-1.449936158080685628e-02,-9.162210870987719247e-02,-4.362511448776501544e-01,9.962060348687468148e-01,-1.090483927373735007e+00,-9.222513637052390245e-02,-8.731417178194882389e-01,-1.439756075936891255e+00,1.429840380269377931e-01,4.197329588448924648e-02,-4.804714741353278695e-01,-3.320883260699624695e-01,3.940717198092877904e-01,-5.350677586028452781e-01,-6.335376216013637318e-01,1.640483813512072786e-01,-7.845381753470473951e-01,-5.885312200746767308e-01,-6.515995103487445816e-02,-3.624256269516504259e-02,8.372146601747530725e-02,2.971179178017538738e-02,1.425500161864631798e-01,5.414794934374663748e-01,-4.452326982452777249e-01,2.274335913544464627e-02,-2.752177381246456722e-01,8.543714306816438397e-02,4.950286972403790675e-01,-6.753799103853257435e-01,-5.142718086936457489e-01,-2.876603677888363020e-01,3.979219910979920338e-01,-1.154189775715255689e-01,-5.127737438923734015e-01,-2.534293540135769060e-02,-1.083599293212972992e+00,4.340543608744718562e-01,1.381554787033537901e-01,-3.274006121674136738e-01,3.244347845760658378e-01,-4.848616687114182811e-01,-3.866200206235892445e-02,-2.019675024140731023e-01,2.958388610296805443e-01,-1.021732322546404559e+00,2.397867238290885272e-01,-1.325875919663908886e-01,4.002674942845250161e-01,-6.949854375103379223e-01,4.147863951638008917e-01,-1.169517812166645798e-01,-9.639131881751736297e-02,4.776217759681688491e-01,-2.194039104518766825e-01,-4.458987747738006324e-01,2.093423736628533260e-01,-3.427721336683328679e-01,-5.782714411450569081e-01,-1.314920791709861814e-01,-1.528318419732770661e-01,-4.548571134192623822e-01,3.026599986262599185e-01,-8.808281949078892170e-01,1.830925154287402212e-01,-6.050833146158883791e-01,-2.197909617678142358e-01,1.253269750286797359e-02,-9.581433068283428112e-01,2.316202608805251750e-01,-7.532666812831309011e-01,-5.548905871706477644e-01,-5.436781335296874546e-02,-2.326458534411841583e-01,1.684196499294509652e-01,-2.887681287398293217e-01,-8.150467431864913403e-02,-7.450561867916033476e-01,-1.550933446010872019e-01,-4.153674845144545991e-01,1.084050496194567236e-03,7.010719093771200505e-01,-6.781714857565698251e-01,-8.548773373645187634e-01,3.758048809705491489e-01,5.297967775258185519e-01,-4.263917824023419345e-01,-6.618715888990511775e-01,-1.064017808478504717e-01,-1.534225997124607499e-01,5.900364058316113353e-02,-1.634281162659495079e+00,1.758456067064237960e-01,-5.615001923116350602e-01,4.572256962565829919e-01,-5.403301465466217035e-01,6.448791260129629332e-01,-5.245569257716165001e-01,3.817131398323897473e-02,2.518460986386539258e-01,7.346435153773921423e-01,1.620085935735889326e-01,-3.522277110875989686e-02,-7.829750604289794635e-01,1.511341915532064262e-01,5.241515228206131694e-01,-4.564299779641858290e-01,-1.250243147760204399e-01,-4.580084491986389228e-01,1.996563641959514523e-01,-5.932946031086516747e-01,6.665659100962181283e-01,-2.110339477992151658e-01,2.735832672682889655e-01,-9.808876902339441761e-01,-1.334334763900364207e+00,2.943304758899155105e-01,-6.706663815892882630e-01,-1.621094058639670765e-01,-1.028305633420116161e+00,-6.712397282370710649e-02,5.458325500880217146e-02,-3.227679880178871974e-01,-6.569849514232085630e-01,2.567343696399162351e-02,-1.323854275929179147e+00,7.551814890099788069e-02,-1.088580786606069828e-01,-1.235443863120511410e-01,-2.306401903406024023e-01,-2.831695305001259433e-01,7.134546438638661447e-01,-3.262535320568423214e-01,9.827487492531079560e-01,-7.585598824263538598e-01,1.632221875779406028e-01,-4.885097828807435372e-01,-1.103457390930944609e-01,-5.178733154311561115e-01,-2.569097910475568458e-01,4.308674923260636391e-01,-3.429357080397017477e-01,-5.495375789510309472e-01,-1.011691775060103854e-01,1.992710275266343645e-01,-2.756579497876867624e-01,3.503601864974962288e-01,-5.957494928236766185e-01,2.294717465100792331e-01,5.045157098122985406e-01,3.610199584708362330e-01,7.079983813501546930e-01,-1.574946568253945967e-01,6.946436775485373416e-02,-5.369087201770440521e-01,-4.096926282030343702e-01,1.248680017642999768e-01,3.019920270304544685e-01,7.884076564690379874e-01,-2.205777897945510047e-01,-4.196554109364801777e-01,2.381873481689238681e-01,3.924725414820979807e-01,-5.096998538535708612e-01,-4.429321229137724719e-02,-3.593366562809782727e-02,-3.740875103072790475e-01,-6.867189768517493187e-01,-3.848123311308431216e-01,4.053110268204607736e-01,3.274648008451957470e-01,-3.954569219520912005e-01,-7.855392164785121589e-02,1.408109597506834454e-01,-9.919887474440796105e-01,4.031520453315297625e-01,-5.873184924736178925e-01,-4.464561169828288323e-01,7.283313391844188633e-02,-1.473557790936078360e-01
