-1.576760732631161677e-01,-9.059750200047715640e-02,2.981989566263816283e-01,-2.057494203451692427e-01,-1.631492770712787421e-01,-3.796021317687646723e-01,1.601119245027098348e-01,4.817522862028271180e-01,-3.301415781615167910e-01,-3.501655211168833159e-01,-3.824812464463562822e-01,-4.894841984254997835e-01,2.420976036003760767e-01,-5.211251892756125353e-02,-1.967405695427870138e-01,-2.207587294400237266e-02,-4.406577560171262564e-01,2.360984133870004109e-01,4.690628415217242830e-01,3.123063091500113964e-01,2.913035623746493274e-01,-4.294118457641156184e-01,-5.124258822050050018e-03,-9.800763714385141157e-02,3.606165861952808638e-01,-2.877245562465430284e-01,2.556997028607980171e-01,-3.035729063272240014e-01,2.713000138133211947e-01,7.061450362253252067e-02,-4.501102167289870448e-01,3.697259650929585195e-01,6.918276738424686267e-02,-3.707315972928758030e-01,-4.806656126355237646e-01,9.385926650103924851e-03,-3.471061397787699732e-01,-1.872270378964609461e-01,-8.869225859064515383e-02,7.870717473692026567e-02,4.706245104073397134e-01,1.041947231900594295e-01,-2.291128771158832400e-01,4.774994075760487511e-01,-1.220020216204163177e-01,-2.610315746291358985e-01,3.163387057307345263e-01,1.653465765123381670e-01,3.898947954829626861e-01,-2.207500750772165843e-01,-1.909933986839891518e-01,8.096136757563941744e-02,1.451705877671249367e-01,-3.850160755122480905e-01,-2.966939934405157242e-01,-4.443582892384128069e-01,4.767189731828034849e-01,2.131355396999611018e-01,6.479138941959398934e-02,2.380142449859743159e-01,-4.299313781048783589e-01,-3.440474560590228714e-01,2.406542842069996635e-01,2.750408398395380316e-01,-3.686317062838023739e-02,-2.286618577244123318e-01,-4.491539397661486466e-01,2.498596323980268111e-02,-4.349475597514058656e-01,6.948098323305736124e-02,-4.777532594122422815e-01,1.510414002658346522e-01,-4.518699523337080803e-01,3.497327105555498306e-01,-4.496512556181128106e-01,1.158874558758137829e-01,3.470992778246886346e-01,-4.567726084140306120e-01,5.040895479873911400e-01,2.093695468204059273e-01,-4.262792574424981717e-01,1.971310704136604586e-01,-4.817704344156025220e-01,2.657788337172884430e-01,-2.131284371933891628e-02,5.970855544662979908e-02,-9.960089728935118958e-02,9.307217505590185957e-02,-1.332281031927584070e-01,1.549825579415050891e-01,-2.132319120296436721e-01,1.092673183990526264e-01,-3.919039902653349561e-01,-4.849876755331506972e-01,3.955498161213077957e-01,-2.838775718865767517e-01,-1.565196825415604565e-01,-2.705754681370663994e-01,1.250523841267071334e-01,7.112237589489878165e-02,1.773824313455013291e-01,1.451124188278572202e-01,8.476464253843418728e-02,-2.226018970575744660e-01,3.627739236022259894e-01,-4.070940744976612180e-01,-3.163008685640231743e-01,3.007606401005355479e-01,-1.169218182897565905e-01,-1.106917488660676824e-01,7.427120377961023145e-02,2.544539054467390149e-01,1.479451610264582162e-01,4.716322660535476885e-01,-1.239873688418355047e-01,-2.974596619604424896e-01,3.298780390112748817e-01,-3.213134093173044548e-01,1.266029108163251315e-01,-7.073257892035991409e-03,-9.539342426497049443e-02,-8.021938782599873086e-02,-2.652213748139301552e-01,4.026832513518388557e-01,-1.623684410031664971e-01,2.431419358332388703e-01,8.678872584463304118e-02,-4.820388909658026577e-01,-6.424069912539923100e-02,1.780027286107614959e-01,1.146672566017415719e-03,3.779859583318670446e-01,-8.335225574616197952e-02,-9.044685966764536705e-03,-1.543226255723562923e-01,-1.399710380283676336e-01,-9.066842530663242472e-02,-4.424207595964405604e-01,-2.587327665882465655e-01,-2.062793392122006519e-01,-2.281655675480417089e-01,3.764940055676403996e-01,-1.442221784713028920e-01,-3.907117975182527458e-01,3.869758374290733216e-01,3.373213733337694920e-01,-3.528849303798912151e-01,-1.731997191417973259e-01,1.895722842878009018e-01,4.271720742431485141e-01,-3.068407100589350400e-01,-4.852208133231242781e-01,1.106302897798469576e-01,1.351873725189670639e-01,2.305178390115244502e-01,2.465916036351870344e-01,4.633228911715046583e-01,-2.457543761320757914e-01,-4.612789301193956915e-01,1.662992039089547236e-01,-3.238963800313878760e-01,-3.063882840378312489e-01,1.733488098211242306e-02,-9.454380951577362469e-02,3.728448717363843090e-01,2.719526603456259850e-01,2.226026277442813284e-01,-3.787227071376421672e-01,-4.239777246479858319e-01,3.573474760777607395e-01,5.008305240227498567e-01,-3.482711802479903640e-01,3.449298607685599705e-02,-2.941560839941085304e-01,-5.617112136677675921e-02,9.674242459290417762e-02,-3.204111333057793609e-01,-4.917792492852256503e-01,4.067401047162719774e-01,5.614318441323256671e-03,1.131647589438010970e-01,7.485961792252759928e-02,-2.629757738562749636e-01,1.753429033407574722e-01,1.876517274981314154e-01,-3.476693010236662218e-01,8.958533027469137155e-02,-4.004591691345654181e-01,1.802222646843285037e-01,-6.905148714659254360e-03,-6.314944351628082320e-02,-2.816277512691705565e-01,-2.018179923295765343e-01,2.272163330625566191e-01,1.371647387719807099e-01,-1.430503677972400078e-01,-3.171249944245260188e-01,-1.105836297266702128e-01,2.798672980206137750e-01,3.705553869206839046e-01
-7.423666428209838020e-02,4.432439671236471090e-01,-2.419911830847763790e-01,-3.195694352057909526e-01,-3.841109583098883395e-01,-4.225003594395572715e-01,3.983560279926043335e-01,-1.854966018070838274e-01,-2.237211631983625215e-01,-3.682585268381242116e-01,2.580712533685480814e-02,2.456217694941052743e-01,-1.642062073879934359e-01,-4.270570126543997702e-01,-2.281069797219460182e-01,4.326822320264709365e-01,-1.536546808938194508e-01,3.133821394495290291e-01,3.970928105757899895e-01,-2.709040430369320518e-01,6.523332381875973640e-02,3.278631958230238813e-02,3.438455517232661962e-01,-5.095370140550061766e-01,2.525112404531199006e-01,2.675803127752656163e-01,2.572850381670546138e-01,-2.401137867873105736e-01,4.490524996443215344e-01,-4.264763536760562967e-01,8.176176033590960845e-02,3.732161975373561313e-01,4.488397784556092951e-01,-3.708354884272071494e-01,-1.960386532963598050e-01,-4.882805785188875092e-01,-2.999224429039433759e-01,-3.750349754268296754e-01,-3.507879510213135401e-03,-1.394299168408886236e-01,-1.385031112042736656e-01,-1.891149477447432448e-01,2.652110293395880669e-01,-5.042479715370982163e-01,2.978240092062257038e-01,-2.773985462434033211e-01,1.641186604387898096e-01,3.620032119056179609e-02,-2.298666393340251801e-01,-1.918883367800717221e-01,6.353414744095369458e-03,-5.147421016953185324e-01,3.858912019035941610e-01,1.673265361517000394e-01,-3.247178315087442813e-01,-1.654776495354601529e-01,-9.477899616127988258e-02,-1.231230336617822607e-01,-2.114177410236436072e-01,-3.194793077915314972e-01,3.795332519705796881e-01,2.113626142618521553e-01,3.404027784602748907e-01,9.908239062695475829e-02,3.982015027781712901e-01,-6.594065963172324185e-02,3.838537333711780630e-02,5.892934066621501737e-02,3.983790007492576946e-02,-6.418254384184068906e-02,-3.996140515266274201e-02,-2.047216049736294841e-01,1.996789200771850736e-01,1.001512633796923929e-01,9.457190622913609623e-02,-1.188573949275013586e-01,1.126613175752239904e-01,2.863153601158059947e-01,1.117767758748975382e-01,-3.531423911521196501e-01,-2.875794692850169865e-01,-7.542263496372925147e-02,6.818574358606288750e-03,-2.468090538565760883e-01,-4.270952199811743899e-01,-2.153198917846764482e-01,-4.329102795672026827e-01,-3.197340325051971632e-01,-4.950521605148495152e-01,3.789861047177662257e-01,1.530833128623261263e-01,1.646394725168789930e-01,-4.952094978173596784e-01,2.370523970527317337e-01,3.138388081057661982e-01,3.050699425141369936e-01,3.629989511151832660e-01,3.410115126205748304e-01,-9.085086435558380191e-03,4.600129061655114371e-01,-3.576391442236979690e-01,-5.085750396772219517e-01,3.616776213798448825e-01,3.267553648103358466e-01,3.760163116280043072e-01,-2.926401350629011591e-02,-5.280005872557800295e-01,4.332045012673774176e-01,-2.481178489446672075e-01,-1.036069728826839176e-01,2.128583843095544215e-01,-3.235659404933293598e-02,-2.564709501736628372e-01,-1.246999563236860231e-01,1.241201516499860630e-01,-3.206800616410666604e-01,-5.120617048348190953e-02,-1.538343833863551613e-01,-5.091800580877494653e-01,3.870999984344949962e-01,-1.765515615418157269e-01,4.608049444807469919e-01,-1.362423996761460698e-01,-2.374991671187890174e-01,-3.858401236245601051e-02,-1.935112248328380302e-01,1.180123254587598230e-01,-2.633540812106061613e-01,-2.166670237336021654e-01,-2.746500344167596142e-01,-2.454425672596302066e-01,1.064977852879964160e-01,-1.958896669205081181e-02,3.732014487556042925e-01,-1.422480938661744299e-01,2.882729467086032615e-01,-8.993654146729997134e-02,4.386030068166763551e-01,-3.330058718251510674e-02,-2.064127715315645373e-01,-4.016693974369115461e-01,-2.531592317376820667e-01,3.602772074035348049e-01,2.351813594685836506e-01,4.411873634723967319e-01,-2.158347212238148349e-01,2.720811041702254074e-01,4.366773214206637888e-01,-1.118649849984076489e-01,7.661252013641391134e-02,-4.387023006865509722e-01,4.179481372261684702e-01,3.473730918989807459e-01,-8.043788665535925309e-02,-1.495996771890938659e-01,-5.071566197224259831e-01,2.539181079229574922e-01,1.819937033026500228e-01,1.315094114424117111e-01,-2.789306699383912180e-01,6.307663190759411898e-02,-3.562483231238633974e-01,-3.108507756590880300e-01,-3.364472277029266767e-01,-4.985664538891456526e-02,-1.227568470617980412e-01,-4.366184055592249313e-01,1.755544175915859165e-02,-5.066333277535892687e-01,-5.159343455952064561e-01,-9.296463725461955041e-02,1.379942414662861105e-01,-1.614869670369850074e-01,7.232459159398246795e-02,2.829136027847737322e-01,-3.571717123094828722e-02,1.758623878911187433e-01,4.337155533647094607e-01,3.566725212602723377e-02,-4.762658208248337632e-01,2.439402853289934503e-01,-4.826346398741352406e-01,2.687269420332743519e-01,-4.234751245179404489e-01,-5.202327293637944994e-01,-3.287094289375595002e-01,-4.706704668482080689e-01,2.490057245190945290e-01,2.502908191246072112e-01,2.286819599088669164e-01,-1.343269887886581471e-01,-2.400814148618547195e-01,2.550174047386702392e-01,-8.554667885395587923e-02,-4.011999831359507884e-01,3.044642909214857474e-01,-3.274374184289612771e-02,-2.903881414440137032e-01,-5.071711315168468959e-01,4.351973929438401334e-01
-6.194903866761340000e-02,-4.194841432609976439e-01,5.350180462397223502e-02,3.367485682560097948e-01,-4.698723990389040428e-01,6.754879400030032455e-02,3.337161307488957784e-01,-3.540277024746291135e-01,-3.024241842385183010e-01,2.179297681083210425e-01,9.822200364710453879e-02,-4.154661505513683184e-01,6.991505475064067887e-02,2.990476061157540943e-01,4.146964786863561181e-01,3.440185433199392795e-02,3.876111086411668932e-02,-3.538390898933335693e-01,-2.060484443806116506e-01,-4.366528891735353968e-01,1.458490359572333361e-01,-5.026743047562087785e-02,8.979911271284207741e-02,-6.365725986170631123e-02,3.414874980598606169e-01,-2.167725923166211599e-01,-2.095226224490830402e-01,-5.416377506520919649e-01,3.029567289888768222e-01,4.322300096654783097e-01,3.749790548075491725e-01,-5.001564127109401348e-01,3.179524037071719822e-01,-1.081523325346065573e-01,1.473302179696529823e-01,2.717120454903597104e-01,-2.475306473903029492e-01,1.471802132695399223e-01,1.324263885780160299e-01,1.305954513785408111e-01,-3.164472280664559940e-03,-1.068828801617642821e-01,-4.268497503723815978e-01,-2.425894268260982700e-01,-2.914145575558103607e-01,-4.364751075796095559e-01,-7.357020907398385823e-02,-1.691923868090007207e-02,9.871029107922670281e-04,3.044718512053321002e-01,-4.654643958472423071e-01,-1.103782177208940535e-01,-5.312313849245112740e-01,2.836762543570413020e-01,4.438754543885228832e-01,1.885501884320399113e-01,-2.579931132295635865e-01,1.944371509050445979e-01,-3.346438991464061319e-01,-4.480931724524875870e-01,3.764342361831048839e-02,9.656781494689964385e-02,4.817774436665942656e-02,2.091202797844884387e-01,7.553428055518579542e-02,1.826921420340500979e-01,1.829968253621817031e-01,-2.663070984382814310e-01,-9.535628993697473077e-02,-4.196773554968411535e-01,1.063212796062987797e-01,2.221303157093460212e-01,-4.017233278342094427e-01,1.158460785501738005e-01,2.856294442706954761e-01,-5.450546124100709156e-01,-1.692503562150707019e-01,-3.496536080928083767e-01,3.653514305534344975e-01,3.181211367637378218e-01,-4.865215083203596191e-01,-1.967143340737678714e-02,-5.295697387504443299e-01,-5.230728331413576626e-01,1.245884841864278447e-01,-4.333436967496460679e-01,3.432214405206959196e-01,6.634665648856838405e-02,-8.787958932300761472e-02,3.861996000711273580e-01,-5.483907847720800310e-01,-2.708766253566280424e-01,-1.290519354266708163e-01,-2.114745907335148500e-01,2.104754787793758630e-01,-7.489958966485069092e-02,-1.799748404519815881e-01,-2.706052501486423956e-01,4.123941075201904560e-01,2.375062944240130258e-01,2.483007528611223258e-01,-4.929859847246927385e-01,7.671413645804962822e-02,-1.038202166250599134e-01,-3.747110040523029487e-03,-5.343096645937205347e-01,-1.598548095011429471e-01,-3.939469029519634402e-01,3.729081517401660051e-01,-2.962603251853099806e-01,-4.994859699521302376e-01,2.879428385788139824e-02,2.628361518486115739e-02,4.088437817346144976e-01,-3.277460541443452668e-01,1.210185659034099248e-01,5.038416179584158383e-02,4.340540992534399484e-02,1.321767067187863687e-01,1.658478769515420517e-02,-4.180001284554084595e-01,-5.629323672697260361e-02,-2.914146138992256274e-01,3.511078485367791768e-01,3.751803229264610295e-01,4.348718054196978322e-01,3.491432404433026937e-01,3.692357527178121157e-01,3.185989275030608470e-01,1.558506932925045052e-01,3.587453092125740817e-01,1.167974583834448798e-01,-3.150852354369419461e-01,-3.666253374863268633e-01,-2.545147042206949949e-03,-4.500002613871806889e-01,-4.879565618715662745e-01,-1.605558973939772132e-03,-2.702665425663505760e-01,-3.911549210811086641e-01,-4.719565710333913783e-02,-2.056952396357503710e-01,2.706850287375077713e-01,-2.388036608879186007e-01,-2.844459577639203429e-01,3.193710440523305216e-01,6.307242811827620810e-02,-1.373673957367510801e-01,1.718682500692907400e-01,2.382682506469821215e-01,-3.236155424234624656e-01,4.040712374378512828e-01,2.177915381096286740e-01,-1.359950677456432666e-01,-2.971460150533471456e-01,-3.743238958390621707e-01,-7.843275361534740586e-02,7.110979379812475132e-02,2.930919964554418167e-01,1.727546655885577875e-01,-1.494686709310796280e-01,4.121803150189616294e-01,2.406933713191972968e-01,-1.283839956601190609e-02,-2.280341665496581072e-01,4.008351343520010213e-01,-3.611494637023175414e-01,-3.543589044552195588e-01,-5.149072831101131342e-01,6.916426648237206098e-02,-1.148881243402575247e-01,-1.722983926121321174e-01,-1.091113543824519388e-01,-4.315828826451728606e-01,3.731000027630442806e-01,4.257345141120004728e-01,3.390056235224460646e-01,-3.848955602482916349e-01,3.696156221012573129e-01,3.592725578779367573e-02,-1.866494148234113665e-02,9.186369605900314428e-02,1.222149918357049586e-01,1.804988878611426262e-01,-3.942055024853775569e-01,-1.789625907827435969e-01,-2.667285857315158104e-01,-2.665062712733868855e-01,-3.255587646533512070e-01,4.450307816799333738e-01,3.578989067274521846e-02,-4.075797104414003447e-01,1.059690750189970637e-01,2.767280991658008227e-02,2.487679147949088121e-01,-2.520798969796780309e-01,-2.971590909928039648e-01,-1.017851277922730488e-02,1.679951639267384944e-01,1.937813436835132130e-01
9.043892960795227309e-02,4.915376005931036685e-02,-8.976045412088268227e-02,2.387253728963336166e-02,3.596129791609111725e-01,8.083649440873888481e-02,3.179955523214735291e-01,-4.728650598962464979e-01,-4.216713671466468250e-01,-1.965223166781782452e-02,3.916925863551316001e-01,1.692973049405500918e-01,1.172717830313434323e-01,-3.205835010790135664e-01,2.601029184729049537e-01,-1.814302417069315332e-01,-3.061244322291955533e-01,3.674813431770492245e-01,2.467474463408927121e-01,-5.102542952350658245e-01,-1.633629877661069985e-01,-3.910346631237477943e-01,-3.899984917746063262e-02,2.433736662932473871e-01,6.223729960273815393e-02,-4.961610964344425612e-01,-7.267067484321632076e-02,-1.837375755119493581e-01,3.160257562662625586e-01,4.569561822494133119e-01,-2.769650613569041853e-01,-1.283158387114654297e-01,-2.128492389687427211e-01,1.039010188095015885e-01,-1.787172867263968901e-01,-2.307435316074747667e-01,1.752717011790554114e-01,9.929045705819579057e-03,3.778242992610452711e-01,-3.184668108776070872e-01,-1.709096639598005063e-01,4.157713320200053797e-01,1.760252289935943515e-01,2.022748190111261224e-01,4.574711267168803941e-01,2.893661546975551113e-01,-2.413760947178575089e-01,4.861589103940426593e-02,4.299896099838481089e-01,-2.246735384185167550e-01,-2.323588305913839303e-01,-1.331990583598757216e-01,2.821360279311113661e-01,-2.047771813051444626e-03,-2.088332208630509501e-01,-7.882875667046471135e-03,4.420829812241716672e-01,-1.200662094701014510e-01,1.641451856834401368e-01,-7.166021261214503002e-02,4.559499885392461760e-01,3.615112805550206865e-01,-2.362889763281928179e-01,-5.027552190580047986e-01,1.051694021004705576e-01,-3.514641887725827307e-01,2.444946282322068287e-01,-4.300843369417019502e-01,-2.873151656765522977e-01,-4.205234559581351172e-01,-4.962757344144469451e-02,3.494838122878613507e-01,3.860015200481072828e-01,3.518949222860953685e-01,4.013524067740623646e-01,4.580831419833873985e-01,-1.402201343921156695e-01,-3.057164150116731816e-01,4.298169771581011323e-01,2.351356221096012264e-02,1.707719959262762599e-01,-3.157115927539126954e-01,4.627168572300299765e-01,4.013249777823734710e-01,-2.919106106717860305e-01,-1.240794426930099878e-02,-4.789158213980759804e-01,4.052055327147350283e-01,4.332976885659612365e-01,-3.491221960471481145e-01,-2.005952580394627371e-01,-4.268565269967515841e-01,-2.623164530721905918e-01,-2.019994943433923718e-01,-4.411358084967326731e-01,-2.293200218811554392e-02,-3.285543890121861432e-01,-4.483203301996318557e-01,-3.959985019428274300e-01,9.415257765186755765e-03,3.144250071769009724e-01,9.883623760703752481e-02,-5.030285928743610802e-01,1.757354208109595251e-01,-5.858332889547825106e-02,3.823938795246245581e-01,-3.569309537607364552e-02,7.572866713544960937e-02,9.054795875797447269e-02,2.117705492699512859e-01,-4.681191397413553279e-02,-4.684636420989786165e-01,3.755107716587996469e-01,4.770982863847334499e-01,-4.831459452332038107e-01,2.970116548385761668e-01,-2.717870064931057761e-01,1.816365499914526782e-01,4.394239518913992670e-01,2.025989653918822131e-01,-1.418498734881845913e-01,-5.124079136158620207e-01,-2.947552512774717637e-01,-1.529201570004220523e-01,1.850866494193595946e-01,2.475983980222916658e-01,-1.186476647236282267e-01,-4.720613616384358169e-01,-2.244181226730869172e-01,-3.578074597440532023e-01,-2.677063424672911918e-01,-3.332273281328861358e-01,-2.685943806498397035e-01,-4.393564121774747866e-01,-1.708406970642513956e-01,3.693859340227743648e-01,-1.259950896424227029e-01,-4.348591178727164719e-01,-4.414395535120117509e-01,-2.928677003843190851e-01,-4.312808259527965427e-01,4.569353608503310404e-01,1.747539258066753420e-01,1.856587076112221901e-01,-2.773570634148425293e-02,-4.180955121578797118e-01,2.128643831696583333e-01,-9.346385435466281200e-02,8.954191735043900979e-02,4.192054764480744322e-01,-7.397166267556720687e-02,-4.459499028299909740e-01,3.373427306661373401e-03,-2.599829394016823225e-01,-4.608394781027721487e-01,2.816694046466172718e-01,-4.063358372273188079e-01,6.684363384189900836e-02,-1.413018695535772362e-01,-7.923601820270007035e-03,-3.917854048251389609e-01,-3.630485123217281895e-01,9.800599935157865150e-02,-5.163462936422227312e-01,2.865854761359873937e-01,-2.049417651055559786e-01,-2.616195047067996771e-01,-2.555990855563700093e-01,-3.830663339321508931e-01,-4.392030194370456497e-01,9.685029130080197168e-02,4.714659208832924775e-01,2.372149988098900819e-01,-1.617758222611679342e-01,3.544804784476263126e-01,-1.793864185663808786e-01,3.620610409507423744e-01,-4.762772725266781193e-01,-3.025353326321612024e-01,-2.031729063111742395e-01,-2.631305283562064556e-02,-7.796478749098107244e-03,-5.244517105692493297e-01,-2.635676249116817443e-02,-8.873736477100631348e-02,2.165147194481750470e-01,-3.114913348743042487e-01,-2.256733548441386961e-01,2.934177627869862248e-01,-4.095210911230683370e-01,3.171351667388895290e-01,2.986667990827332475e-01,-4.102482597219320182e-01,-1.886064161572758580e-01,-3.373509073688099047e-01,8.609307891637657528e-02,-1.056497110485210972e-01,-6.986202769420620483e-03,2.429955031479394401e-01,-5.124810894880001966e-01
-1.039225996794445606e-01,-3.540621496186875938e-01,1.866439444713705043e-01,-2.799744760307891212e-01,-2.271353325418527802e-01,-2.057292150867760239e-01,3.907295655827065263e-03,2.985197897155877911e-01,4.706180225884530888e-01,1.746918438556527287e-01,-3.751635564041730375e-01,1.715637179166374648e-01,-4.364054169995015275e-01,4.182047443237569828e-01,2.293204026753475622e-01,4.324048143646045395e-01,3.306381227018639901e-01,2.412608205295005692e-01,-1.714725357844453790e-01,-2.072198274783693395e-01,-1.688638042111070825e-01,-3.932609289230081240e-01,-4.605056057881788956e-01,-1.775547511378235688e-01,-1.981056266541578875e-03,-2.466442051257229096e-01,-6.641921571406447788e-02,3.197698238902447754e-01,-4.024385778929490676e-01,4.383015181925613568e-01,3.973153578081622395e-01,2.932914500380207623e-01,1.174741635873676887e-01,-2.505305361517328744e-01,-4.713950063311674321e-01,-4.820417311467339871e-02,-7.216975914953505100e-02,1.591651862014593910e-01,-1.521871462870666714e-01,-1.587437856784232326e-01,-3.220180307754347271e-02,-1.407611899858088045e-01,1.673880786253144071e-01,3.555616770257536419e-01,-3.517240295836054909e-01,-1.191943173828017080e-02,-1.104539307699333173e-01,-4.434977415525171995e-01,1.400375207459368110e-01,2.629185131711379575e-01,4.164098447430138461e-01,1.721595926818871025e-01,6.640400707782515011e-02,2.021368785870028828e-01,1.083199845726123406e-01,2.311787633625159988e-01,-3.148364237734732618e-01,-4.319148245734903413e-01,-1.623516599588190334e-01,1.599902211325412160e-01,2.393059859416881707e-01,4.062729010557492720e-02,-3.047444203785582006e-01,-3.384210401950917269e-01,3.128892096792605937e-01,-1.982089187931940777e-01,2.800697610301481899e-01,-4.563649184654191004e-01,9.529995323537029939e-02,1.422347794195014392e-01,3.470786470489402586e-01,-2.043207106814997065e-01,2.141546628011445352e-01,-1.607037522665369922e-01,1.826367768129311397e-01,-3.388689042547033958e-01,4.404924213097765051e-01,-2.971040399549566557e-01,1.552329502800511851e-01,-2.269211503259246920e-01,-3.879741745118931995e-01,3.360208910738146093e-01,3.706910834321548720e-02,-4.200900893416368853e-01,-3.654220502127461523e-01,1.105700177189869460e-02,-3.008519014978824346e-01,-7.621756319315195483e-02,-2.569214655125161006e-01,-4.696496636161892058e-01,2.805478161919024993e-01,1.594532979465780320e-01,-6.463623233708146176e-02,-2.895903830501025955e-01,4.071080042935504295e-01,-4.455571545778444498e-01,-4.761029704471983481e-01,3.099138662466135452e-01,3.938759663860167404e-01,-1.146080267370206268e-01,1.088204234828379774e-01,-2.368673088480769129e-01,3.966676343556731488e-01,3.790800354516678516e-01,3.299982939198634058e-01,1.042061765738613727e-01,1.314480189994480519e-01,-1.845771817084773392e-01,-2.164616858476689498e-01,4.041876227245292386e-01,-1.948345258078433839e-01,-4.326287289431131056e-01,-4.700957683140381538e-01,1.946691287832750250e-01,-3.328550983920554041e-01,-4.319171697186509062e-01,1.401309177290053776e-01,-4.751973418391324810e-01,-1.249210344080434049e-01,-1.731572167961153985e-01,2.224236651402385911e-01,-3.824051751687405076e-01,1.687790591370122717e-01,-3.848757314294333209e-01,7.158219961114435648e-02,7.798866124812579848e-02,-4.734822841730790266e-02,-1.408453498953311511e-01,-1.696901914898133745e-01,-3.347512526758355395e-02,-2.515523365537105649e-01,2.327792197732727886e-01,-3.198670155422251304e-01,-2.567648038033904512e-01,-3.324400836233059042e-01,3.106078439880921027e-01,-2.427241410023850965e-01,3.570762203003451374e-01,-7.448243329290191173e-02,-3.822364093731213663e-01,3.320838095753538347e-03,-4.282591130905814558e-01,-3.291371625781641663e-02,1.382865570311783698e-01,3.090718992223909778e-01,-4.199828652612278695e-02,3.671541639629306852e-02,2.132150532678678267e-01,-3.043938093585940030e-01,-1.068540696963355546e-01,-4.154730952878712968e-01,4.393984501711309387e-01,2.153680395804629180e-02,-3.394623641818614312e-01,4.556841995153517177e-01,2.960181351292562879e-01,3.967172842969518554e-01,-2.372513329749137145e-01,2.754988237740664814e-01,1.248498793764090189e-02,-1.806504635387623237e-01,-3.464685847754434556e-01,-4.134238272331261510e-01,-1.827847830699440568e-01,3.840600032064199199e-01,7.264748815802013482e-02,5.954734522225240551e-02,1.632302666828895910e-01,4.248410050331983268e-01,-4.300056744883026250e-01,-3.240550928275093279e-01,4.005763454515686717e-01,6.147768113467644291e-02,-4.028257704269560535e-01,1.815745608713350279e-01,-1.916849521550851587e-01,1.864350417117593417e-01,4.574868489848829545e-01,-2.188851203647383947e-01,1.456766779149087920e-01,-4.313350185937367409e-02,-2.239346666420360121e-01,1.153630490281718074e-01,3.375263638561124546e-01,4.754182530792609440e-01,-3.343708291827717227e-01,-2.655993660496472342e-02,-4.813884805757076002e-01,-1.886263997555116256e-01,-2.941733593507454003e-01,-3.737365807738783352e-01,3.482269355465566485e-01,-4.928513561939573684e-02,-1.156389975939736969e-01,4.929097976788879981e-02,-2.821752594157445615e-01,-4.219030632693998584e-02,-1.579681656713994853e-01,-7.791006031092184703e-02,-3.831749182891229233e-01
-6.652189300427742424e-02,-2.621073069831329001e-04,-1.415435683439483783e-01,-2.279862911197524378e-01,-3.154396060768782095e-01,3.444543768157693475e-01,3.934188311238130953e-01,-7.361005706913077706e-02,-5.342024416431282452e-01,4.006289386915996564e-01,-4.407400323312886392e-02,-1.329182160676994906e-01,-2.697258023303181762e-01,-5.589125576597436112e-02,1.633360137828367975e-01,3.358042401864985149e-01,-2.830071829380105819e-01,-1.357903699885427695e-01,-5.092453680116538761e-01,-3.490745239935286737e-01,1.975486731818202890e-01,3.789863498769107664e-01,1.399352024244527037e-01,-2.306694882408266978e-01,-5.002389015759890478e-01,-3.242816551202667430e-01,1.536790468987971336e-01,3.133322821969545813e-01,-4.435006009270201638e-02,2.997766980797314518e-01,2.033142881221654819e-01,-1.150982090498812727e-01,-1.511579120840990942e-01,-2.013841212086915355e-01,-6.805799134985433818e-03,-1.751558550285295945e-01,6.333021630011763381e-02,-2.352584535077554551e-01,2.959378676902027494e-01,-3.373893773480123870e-01,-4.397995603797291708e-01,-7.980837387075871703e-02,1.379123802218849490e-02,3.326259652315311510e-01,-5.363337946386285970e-02,-2.877926128050078969e-01,-5.410954039939396693e-02,-4.441364699485612078e-01,-3.705392077181274835e-01,4.029833500923905021e-01,2.789331828469122088e-01,-4.430916300103756034e-01,2.513165944994021905e-01,1.791811034395142110e-01,-1.383209319926970160e-01,3.744010118814509736e-01,2.103710547432469796e-02,-1.043887438307863902e-01,3.865046035088809395e-01,-2.097215095354162118e-01,3.519151908708253451e-01,-2.684065875265733703e-01,-5.075695715921764162e-01,3.188679245521229833e-01,3.105389554853006939e-01,1.084516159523917500e-01,-1.272056369564919798e-01,-3.691781001563037568e-01,-4.152541507152045508e-01,1.614572038435942436e-01,3.759199248735357601e-01,1.274623537512494520e-01,-2.868509249588352406e-01,6.865164323174248462e-02,-2.720622088748639866e-01,-5.312115246248484413e-01,-3.574296493759952509e-01,1.569100545582764739e-01,1.924635134170927242e-01,1.813964110535267737e-01,2.382933896774757088e-01,3.842350910065216452e-01,2.339788473343147046e-01,3.981250587348461045e-01,-5.930000940632144252e-02,6.594405979438330845e-02,2.298016840418603268e-01,-2.879830660520211749e-01,-2.852271354667778036e-01,-2.976532025973395168e-01,3.330483801945293143e-01,3.071085320779622929e-01,-5.834699044572925208e-01,-2.558470704272946539e-01,8.489971099451913694e-02,7.863910205906206319e-02,1.080039697190228326e-01,-1.763278953839862717e-01,-3.302013987023094121e-01,1.978707047741329883e-01,-7.537494377677726731e-02,-2.587112290868340270e-01,3.523846489197353660e-01,2.452012275016336451e-01,2.051836472164369762e-01,-1.461636220266765429e-01,3.584313413768815959e-01,-5.042320962118682637e-01,-4.257219838996167960e-01,7.029214126362610948e-02,1.903295173081468450e-01,1.554726927574632267e-01,-1.173818767535085225e-02,2.339143795059429043e-01,-5.252987098229171536e-01,2.576574432313274987e-01,-2.941421223668536089e-01,7.602659981404252809e-02,3.361609507737195468e-01,7.098061666211803733e-03,2.493815403626895577e-01,-3.432029840682166433e-01,2.135038183324650396e-01,-2.088998470185670087e-01,1.063963885559617885e-02,-1.845078134354110055e-01,-3.075609077979223893e-01,-5.511329219207817820e-01,-1.198817226233975936e-01,3.959617264549014082e-01,-3.822242923653003666e-01,4.156932939682939782e-02,2.485126040887682686e-01,3.012088564363047394e-01,-3.956043030361025004e-01,4.077563926116966053e-01,-5.400910416506984335e-01,7.388429906856726348e-02,-1.912156626892473898e-01,-4.946044981402046847e-01,-2.636407760182928328e-01,-5.608944789244633133e-01,5.524648148576966761e-02,2.222349106698947099e-02,-4.941052998626128123e-01,-2.628695808503145326e-01,-3.048205023820301784e-01,-4.402530910652728835e-01,7.776988733929256215e-02,-3.008843323440211007e-02,-1.834478056442026550e-02,4.012112789556275261e-01,3.202435779077097422e-01,-3.167985023232240405e-01,-6.353664285870357087e-02,3.141890804714087548e-01,-5.074620686928882352e-01,1.404895907855624182e-01,2.073746544081633281e-01,1.944766908178211795e-01,-9.732761656884217349e-02,-2.541151860577626764e-01,-5.652330225493775728e-01,-5.095378804923207383e-01,9.172546386797290896e-02,3.902260654078106850e-01,-6.127281956123449558e-02,2.817213792162053254e-01,7.389394147470543239e-02,2.491786853560336579e-01,2.885597838831349127e-01,3.916146789444254622e-02,-5.764227332631162160e-01,-1.794867220048527445e-01,2.148289000134661619e-01,-6.908213086365290641e-03,2.673167133104185633e-01,-3.358823648325022782e-01,-4.753162277707069783e-01,1.754122229016028822e-01,-2.208459814765878493e-01,-5.789601443865494135e-01,-3.823834346756298519e-01,-3.905596675074267665e-01,-3.139315746288791065e-01,2.272081039259013779e-01,-9.733185340077089853e-02,3.528800930793021262e-01,3.759754555862501735e-01,2.009075561894057560e-01,-2.751955815033100827e-01,2.489770618396220103e-01,6.611766196369826820e-02,-8.026435086440993072e-02,-4.941959745950122995e-01,3.982500366398322722e-01,4.956949535106779103e-02,2.384338627622267694e-03,-3.784198669853805486e-02,-2.896640535792853466e-02
-9.820322306406566171e-02,-5.506717538338088552e-02,-1.698865209410269778e-02,4.460988471564245605e-01,-3.818009537362480610e-01,-5.196987599574983685e-01,-3.644124769339536773e-01,-3.234830165488039588e-01,-4.390710608817886829e-02,3.541966879127765866e-01,-4.161981502899932406e-01,3.742455292211549489e-01,2.961220636821856322e-01,4.406729793987049781e-01,-4.756499975935783026e-02,2.209071597243784102e-01,2.084258746030924481e-01,-1.051364364941062834e-01,-1.532188948974944342e-01,-3.121208585342116759e-01,-2.979661212027597816e-01,-5.260445192812562842e-02,-4.609554138064036466e-01,-5.323251009202547568e-01,-2.912560811893626922e-01,1.778343149901182862e-01,3.149116154878283530e-02,4.150197477387036482e-01,1.570120065818530752e-01,-3.886941464413254943e-01,2.984865126124440771e-01,4.231454478458030466e-01,-5.132689768539731856e-02,3.421563404543448983e-01,-2.875210670176845396e-01,-1.297945491556851683e-01,2.198345567389604627e-01,-9.850855335587675732e-02,-3.684272275429447685e-01,-1.034941985768767225e-01,-3.835889243366695234e-01,-2.209884578653125431e-01,-1.400946711825448165e-01,3.418508710203171375e-01,3.752594575850019543e-01,3.338371557160544900e-01,-4.541711060497811148e-01,6.503189423386057655e-02,3.915962340873264669e-01,3.571824365331554008e-01,3.572275389882199614e-01,3.989975638586285567e-01,-1.925310357866213407e-01,-1.318276279380138638e-01,2.885963132213842930e-01,-5.383243837063489412e-02,3.042599497635575800e-01,1.619609137377975849e-01,-4.228311318837761901e-01,-3.520779606771693993e-01,-3.389016200723131145e-01,-2.418877083213326340e-01,-1.994181430695006196e-01,-4.458428999192298181e-01,2.682909842315869264e-01,-4.844258589790528813e-02,3.077597956157419046e-01,3.573891814652916943e-01,-4.978724231831042624e-01,4.252925941764243989e-01,3.861630666629664588e-01,2.812577384307011763e-01,4.640043792367624931e-02,-5.279148760807057528e-01,-4.654393606593369426e-01,-2.469367330798369342e-01,4.000645641205026193e-01,-3.330168773708124669e-02,-2.165013025293818505e-01,-2.557685153779197806e-01,-1.693684997645980850e-01,-1.520644551146192736e-02,-3.828253897455231036e-01,-6.875386922898249834e-03,1.225555957685493941e-01,-3.321785185128343088e-01,-4.665570197378206552e-01,-1.613157635157632941e-01,1.987740011472568236e-01,-2.301585496814499421e-01,-4.401641483265835569e-02,-3.437972852770054266e-01,1.093177677862417624e-01,3.830615533473605283e-01,3.286160509039545152e-01,-4.097663579694530572e-02,8.854072343815154456e-02,-1.355627717046587466e-01,3.944469708977487166e-01,-8.262236656077233399e-02,3.344922643280322516e-01,-1.195794367716888351e-01,-6.724009137066163082e-04,3.970652976065084383e-01,3.231704685658198239e-01,-3.153470070058302932e-01,-6.464817925252862307e-02,2.424319245263071021e-01,-5.001993360703509417e-01,-3.396279411577334262e-01,-3.595437753710100104e-01,-4.154787646575123783e-01,3.935377097918473233e-01,-1.135796614256535386e-01,3.816887673079198406e-01,-3.965179622291867267e-01,-3.065537782817092660e-01,2.428514329515455150e-01,3.058539242393933932e-01,-3.393614585781941084e-01,-2.357403102918742555e-01,-2.159530546622200065e-01,3.172586934631556055e-01,2.033904723191978237e-01,-3.780196011309574500e-01,-2.500384684679621827e-01,1.406904018413727420e-01,1.430285488616009348e-01,2.559885718888815775e-01,-2.646611453694114879e-01,-4.678004072657529488e-01,-2.445968448651311133e-01,-1.714013634263320818e-01,3.173002415756676076e-01,2.295509873482702301e-01,1.013208432527607644e-01,-5.326048917792606252e-01,-1.616070933604383253e-01,1.450851663402982078e-02,1.881693737542580042e-02,1.303460101286607609e-01,2.409667395868304307e-01,-4.757410008035684590e-01,1.167896773184033815e-01,-4.803157304084428869e-01,-2.610903274252015516e-01,9.944612546425296573e-02,-4.944650256845224412e-01,-2.447266541384491290e-01,4.498503790592018881e-01,-4.535026993174030019e-01,-1.315480865044456049e-01,-2.993467872460069956e-01,1.886623863735512052e-01,-1.693524231498902965e-01,-3.653907277328795056e-01,-5.294832193354936933e-01,-3.571725167770057469e-02,-3.686825064404126162e-01,-3.937771203985462876e-01,3.336208180382468358e-01,-2.522113078288304444e-01,-9.514190802093017152e-02,-2.108344859864302867e-01,1.345660647473066740e-01,-3.347058742821122646e-02,2.236199694751433639e-02,-5.725780001725249563e-02,3.612703836364112298e-01,2.635290506436982483e-01,4.316524788374748733e-01,-3.165181585539146858e-01,-4.429886372693276897e-01,-1.177522380754196935e-01,1.424568104616934783e-01,1.199032254823188953e-01,-2.821349686553886182e-01,1.270966659918793817e-01,1.904200522000484841e-01,-5.373851322315940093e-01,3.971178423097537213e-01,-8.724438418248842142e-02,3.853499920392094991e-01,-2.906466021387715259e-01,1.249058053582881474e-02,1.810278795928062512e-01,2.805032117883669573e-01,7.214736473179587939e-02,-1.962957710329102379e-01,-1.217407691671266862e-01,3.375363730009667829e-01,4.198870985627483066e-01,-2.762682867663334707e-01,1.450543069588464684e-01,-3.972730549553317170e-01,2.212455348532845201e-01,1.901146253626728733e-01,2.966183903395524513e-01,2.127959494683689390e-01,3.512301200565709491e-01
-3.935226412171513588e-01,-4.298546663991510419e-01,8.960612970230451280e-02,3.643227505254144072e-01,-2.523229759856350229e-01,2.841351694247269410e-01,-3.863020078722223527e-01,2.511431654815776335e-02,-1.234008542778244066e-01,-4.709025905550525692e-01,-1.732016792787235415e-01,-2.636043868420973046e-01,-4.983832377150190229e-01,3.224658985790998522e-01,-4.329902602481905394e-01,-1.832774994579978445e-01,-5.327746203495441202e-02,-2.654825434239841409e-01,-4.184093627594039910e-01,2.206401597159335093e-01,-5.100765491044081390e-01,7.283665877402331623e-02,3.768385568496982474e-01,-3.166519531257325770e-01,4.117484333629985865e-02,-6.595948454450112353e-02,-3.248463724485828874e-01,1.107881661869410117e-01,4.354930682358875704e-01,1.136099564353213187e-01,3.318877236236679185e-01,-1.495081350778111606e-01,2.286957224196892458e-01,2.244149328569982060e-01,-5.352633477195491846e-02,-2.148681380191795331e-01,-4.138559361753168520e-01,-1.847775615072966837e-01,-2.924507382621492346e-01,-5.062681597466677647e-02,1.769161356687587172e-01,3.495936918080496530e-02,4.199631879135746759e-01,-3.005065701199039485e-01,1.230025272129213060e-01,-3.346339112189100629e-01,-3.281800392774699149e-01,3.471720989605270313e-01,-5.085671303219330142e-01,9.653438848259797422e-02,-4.015539291020692181e-01,-4.367005434113682000e-02,2.653445835357408078e-01,4.132294029392457602e-01,-4.453277568432910671e-01,-3.667368347842995258e-01,-4.024328425518761687e-01,3.509840009193410659e-01,3.800897380355983124e-01,-4.348433977631175340e-01,1.670713727949780791e-01,-2.058957051226699420e-01,1.114006411194904539e-01,4.526458645249161195e-01,3.298584875232909996e-02,1.185792050060492930e-01,-8.351257277612349206e-02,2.189908968063231445e-02,2.279404819836856055e-01,-5.236274227067382325e-01,3.070337036800024899e-01,1.973083660588899890e-01,-2.234393994727876809e-01,-9.201420718300448720e-02,1.048789966080325986e-01,3.864911588071932684e-03,1.337148480345353718e-01,-1.265635259012338476e-01,-4.863199335827020908e-01,-4.057660795262759690e-01,1.524353636618334396e-01,4.421410494389296786e-01,-4.418288445013650034e-01,-6.587906180945103662e-02,4.136820410759066147e-01,6.574306672687281472e-02,3.354760998975044317e-01,7.798334234893108952e-03,-3.133680161156361943e-01,9.054043472432574124e-02,2.364088092889310988e-01,6.880286407304279928e-02,2.628271937498250985e-02,4.384067075322326534e-01,3.521174249910926091e-01,-2.230593757744052039e-02,4.317929040249323669e-01,-4.010292466851526627e-01,2.737285497089247399e-01,-1.474197993616493674e-01,3.564614143907982591e-01,-4.308316783481839773e-01,-3.884223330877144553e-01,3.919072720404126464e-01,2.926445924559345491e-01,-4.394380873513772934e-02,-1.150518548682401415e-01,1.391578620580544434e-01,7.365253260192627938e-02,-1.070845568630885009e-01,9.131248519464341129e-02,-6.938171412649690728e-02,-4.907760290904299993e-01,2.634947975226621386e-01,-2.351234718401760682e-01,-4.468730387126598202e-01,-4.816557007911177468e-01,3.249539121636011441e-01,6.716168232876364164e-02,-5.123531476037986865e-01,8.736796135553098752e-02,3.046043756167077232e-01,-1.134466736308675366e-01,-4.818286778330458375e-01,3.653397684028183989e-01,-4.591729587872935281e-01,-1.540959162681463657e-01,3.493214466707459387e-01,-3.202959530953334299e-01,5.237647432525401048e-02,3.480630065210873481e-01,-2.008524212573276901e-01,-4.337718045511473886e-01,1.803118345476059925e-01,-1.534784109838031006e-02,2.173370978827781630e-01,-3.209331333106819617e-01,-2.787176587153064600e-01,-4.842060257366825882e-01,-4.600404228324915246e-01,-4.026625046207210623e-01,6.235821322439594021e-03,-2.049253418956636652e-01,3.826000900457928178e-01,-9.844084790185177181e-02,-2.711918032686866931e-01,-8.446596723926226569e-02,-4.638767081571957829e-01,7.081107990881162217e-02,-6.937461011752764362e-02,4.513802954560501290e-01,-4.724273745478484443e-01,3.354310445739853153e-01,4.123632492356884560e-01,7.952360432928383405e-02,-7.100217454046932331e-02,5.280100684116150606e-02,2.066428198394708315e-01,-5.958749600558457121e-02,-1.090973033282799237e-01,2.050473655897666891e-01,-2.899363238542314036e-01,4.293030591858174594e-01,1.921198179950528440e-01,3.393929341143105960e-01,-2.107538146458498574e-01,-2.370253744689168607e-01,-9.280721804762302740e-02,1.905434697759665896e-01,-2.622887526105229794e-01,-3.431553231823666339e-01,-4.395283673059591778e-01,1.018312402169215258e-01,-1.775293251944776163e-01,3.255112244076198702e-01,-1.027752518456240410e-01,5.326018726919479196e-02,1.336860148270153370e-01,-4.915188570117602351e-01,-3.500880872289773849e-01,3.747868805561268557e-01,3.838304296459890685e-01,4.377581338948232648e-01,-3.254799661232450347e-01,8.123341333966260791e-02,-5.656574719411971985e-02,-3.058025060934266293e-01,-9.198910126755764638e-02,3.040109427907266015e-01,-4.103813506164719627e-01,-2.121547795230124475e-02,-1.984986503295412263e-01,-2.925705823390116755e-01,2.360473453764606599e-01,-4.910022480510232157e-01,4.546812852936162330e-01,1.702017162947355999e-01,-2.705488655712605106e-01,1.059264603551430123e-01,1.561059201457267176e-01
3.348027776962302360e-01,-1.402615395809127252e-01,-4.950036722417313628e-01,-5.849708254787673589e-02,-5.055896370431557374e-01,-4.917135302743231851e-01,3.282251065332636442e-01,4.619248708266099346e-01,1.838416144587613488e-01,1.827473838282624441e-01,-1.243537980866528114e-01,-3.468547033407066160e-01,-3.033061435753675039e-01,-4.399331211416526166e-01,2.987334974824102166e-02,-2.160599354122147431e-01,-3.251814189694114399e-01,-5.281473277924523396e-02,-2.928943467165200931e-01,4.579050291980799048e-01,-4.974711220359614994e-01,4.597411610289958150e-01,-2.038364111577412735e-02,3.183907343997589012e-01,-3.949707216850048552e-01,-1.335634074030405127e-01,-1.833105303906871261e-03,-2.811406608846471200e-01,1.591685569242924092e-01,-1.077412415999486617e-01,4.110811639194825867e-02,-8.748480540623565505e-02,-2.498253983169857195e-01,3.761116356714646058e-01,3.217313889651638448e-01,-6.029779928903138825e-02,-4.719321611329308497e-01,1.313286695993528055e-02,3.315807931974902312e-01,-4.246463818064974416e-01,-1.535802262238470661e-01,4.429315560673450780e-01,2.357062535076728527e-01,1.876982777960065907e-01,-3.956951094590139828e-01,-1.425781972870546477e-01,4.356962575761622602e-01,3.293905874412744739e-01,-3.163401053629983362e-01,7.041485124054099043e-02,-1.364156346012283527e-01,-1.943501026722539715e-01,3.888047298532178453e-01,-3.012948091106146253e-01,1.923733330111858375e-01,-4.072214643648491839e-01,-2.129508344919543994e-01,2.222392509907177571e-01,2.928302679871356839e-01,3.872478567381336667e-01,1.308158222103640231e-02,3.487039255553172623e-01,2.672971768805154080e-01,1.181335977190351438e-01,-9.679063631800782774e-02,1.842408994739812289e-01,1.211728886259212101e-01,3.903727101795864685e-01,4.072841102505781463e-01,3.497273869420932102e-01,-4.333595483813831306e-01,3.211469630030983069e-01,2.659333383008921081e-01,-2.339866816556171736e-01,3.362998367919347587e-01,2.340906828627749847e-01,-2.149063028483124416e-01,-2.394730645103570199e-01,-3.844676506972034558e-01,3.671606488290850012e-01,-4.606278645577608910e-01,-1.852677733419625661e-01,-2.654741381398632027e-01,-6.366857302889716852e-02,5.284293223084164659e-02,-3.520179758840949469e-01,9.713463770073628434e-03,-4.540756586440610615e-02,1.020678517314063949e-01,-7.012100876975113639e-02,4.131566350743021698e-01,4.942643138735082486e-02,3.064436686633280615e-01,8.576590056375484050e-02,7.644881211447550340e-02,-4.148713844349719571e-01,-1.820769984818224607e-01,-4.646154046465283960e-02,2.537271314900566010e-01,-5.122124625255605052e-02,-2.111023740099917390e-01,3.184899149955516817e-01,-8.918072147656862236e-02,4.352947891589220575e-01,-1.039773024894166120e-01,-3.589443217096780492e-01,4.589506325347954552e-01,2.949927644728277398e-01,-3.924635908394557421e-02,-5.188444435530903398e-01,-1.066312761121089581e-02,2.395826450859731560e-01,-1.048010342410780477e-01,-4.390101886497264627e-01,-3.720195138643337535e-02,4.034959253854756844e-01,3.936889895318534255e-02,-1.770129759298239847e-01,4.220696468347651109e-01,-4.059533356641396029e-01,-2.629067684524870607e-01,-1.944347665718905716e-01,1.621174765726082073e-02,3.315967128347830362e-01,-3.384820379843863081e-01,2.054860088966338760e-01,3.600616404842979512e-01,1.422063930349602191e-02,-2.332038853241717169e-01,-4.435252226211375270e-01,-2.079237819770787810e-02,3.410278591232224210e-01,-1.431695957416724840e-01,-3.188605660391407581e-01,-9.540714611801676126e-02,-3.756815021730268711e-01,4.988489521324608600e-02,1.935795630887993390e-01,-4.297706538588928482e-01,2.393706209531673568e-01,-2.407626804018750677e-01,-1.112721458847556882e-01,-1.925802643739554787e-01,1.657609683008995916e-01,-5.022324253455904275e-01,-5.206008369069864417e-01,-3.702794245194352962e-01,-4.842375291051856379e-01,4.370273904771316831e-01,1.248450983509859918e-02,-6.128694941554307246e-02,-1.567004445514662558e-01,-1.989096286235803590e-01,1.558305360640998560e-01,-1.033226049202305014e-01,-1.728481320909097674e-01,3.753452714400433710e-01,-5.956790711944533190e-02,1.758731265436794949e-02,1.429715103470637350e-01,1.110351376817651503e-01,-3.401909580747975448e-01,-4.999653838680200302e-01,2.589142324934470829e-02,-3.988533241457504763e-01,-1.777187424657910852e-01,-1.248826383063428996e-01,1.817273729864525289e-01,-1.060593519141721508e-01,-5.122930138827173074e-01,-2.245776068056378194e-01,-1.257984780793866275e-01,4.498536857188095150e-01,-6.797831714178513562e-02,-1.682986245809291737e-01,-2.656645142262243353e-01,-5.222008915721934041e-01,2.295295254056496093e-01,-2.264654930902772895e-03,2.728860976128034688e-01,-1.594497198840382213e-01,3.996570107779407466e-01,-3.083120419995581951e-01,8.252763777068067644e-03,4.057683044842829712e-01,-4.057670469177970252e-01,9.283646964506328536e-02,-3.386742934764789825e-01,2.159460861959278111e-01,-2.006531221679601074e-01,-3.294100084383345117e-01,2.921920664010126956e-01,-1.459437638789066738e-01,-1.625907186002241711e-01,-4.617886817625656004e-01,1.200701064340674445e-01,-1.707580971017413629e-01,-1.371090146737535265e-01,3.508010077606981136e-01,-1.597066371705511689e-01
-2.793073163976258488e-01,-3.352559173365914080e-02,2.972456558555894857e-01,3.204981818140961169e-01,1.032680638186705274e-02,-4.120321236061093018e-01,4.080610510897170751e-01,4.780706143923420248e-02,7.418062384323861891e-02,1.015906286324466112e-01,-1.953335439179656186e-01,9.117462463228077907e-02,7.973983338669660137e-02,-6.340787866944248841e-02,-2.631765606125346935e-01,-2.770733309560652335e-01,-1.746773329946432196e-01,2.248444267959183174e-01,2.529002956962831949e-01,-1.587086297140117286e-01,4.013609570822020411e-01,7.577740515499384322e-02,1.890032626668012028e-01,-1.734100107501694576e-01,1.758874349334955123e-01,4.475836342168705573e-02,-1.351049527717718413e-01,2.174496323554839516e-01,-1.413742241806599242e-01,1.707028030311788513e-01,2.598563176373098194e-01,2.061930580125779788e-01,-3.251014927559896517e-01,-2.936672093665753103e-01,-2.527245178094924757e-02,-3.850696904168559032e-01,7.083192517272866862e-02,4.147428373002748914e-01,4.301426016442250755e-01,1.247181037984422258e-01,3.904543111663390520e-01,-2.327979749174202695e-01,9.024170842618653432e-02,2.606554921899308375e-01,-2.998691919853383459e-01,-2.994851711048344689e-01,-2.307675762340682390e-01,-5.166308744554574117e-01,-4.347732027163795920e-01,-3.252248007608777303e-01,-1.363883524372296319e-01,-3.535795659738522057e-01,1.538793488192672643e-01,3.537078375154866228e-01,5.542085602388771570e-02,-4.903126117553767149e-01,-2.652702556539006107e-01,5.360176284982266087e-02,-2.962486346719510610e-01,-2.611739114269957529e-01,-2.222650660742893913e-01,-2.814645528420158804e-01,2.696405029457880076e-01,2.858334873201894277e-01,2.052814223640496427e-01,3.039288748603926615e-01,3.370873780340050696e-01,-1.039081581461645393e-01,-1.792262222807460004e-01,4.185514180426861547e-02,3.586205584343456487e-01,-1.800288742037840506e-01,-3.246785952168220191e-01,4.353090631080110962e-01,-5.143452669288294254e-01,2.327267622642435474e-01,-5.130403595744032624e-02,-5.224630501833276153e-01,3.197859534445674501e-01,2.336846601233143472e-01,2.331771109000150000e-01,-2.709104822748239355e-02,-5.652529207090654928e-02,-2.111787897369625799e-01,-2.160893698758493686e-01,-2.031418494954629339e-01,1.193865705351554590e-01,-3.862910217031349513e-01,-2.655971364785660871e-01,7.020862468262915879e-02,-2.853851242537915889e-01,4.509726206913393376e-02,-5.408479605848537375e-01,-4.670953004685215459e-01,1.844856308614317014e-02,-2.454071040058950770e-01,2.328952724549307740e-01,-1.658426692350797038e-01,1.720870426674353804e-01,-2.211624911424334983e-01,3.574699488293106575e-01,-2.789003772945830018e-01,3.691018914334582846e-01,3.065916141584152932e-01,-3.513601557968067390e-01,-4.047455600401097531e-01,9.532063313787514369e-02,-3.525203976178697407e-01,-4.433984443690880961e-01,3.798820069409989952e-01,-9.621896762028618599e-02,-9.759505520692081382e-02,-7.401151832956930077e-02,-8.917365488420367359e-02,1.526345742999076494e-01,1.959170139076843176e-01,2.788598986028457127e-01,5.064222333460079162e-03,-4.364513380070730308e-01,3.012292225547819613e-01,-2.074087789736646925e-01,1.924326115991017994e-01,3.071462382261647139e-01,1.232077277317275288e-01,-1.972734354599907022e-02,-1.813476943718726753e-01,1.648910092641985292e-01,3.046509732637308621e-01,2.157640945641705055e-01,-2.494410104721509480e-01,-2.327374174178968858e-01,-2.715481426244129581e-01,2.878083127966886701e-01,-1.867465991403562398e-01,-1.788883442997366569e-01,-4.658865859275398424e-01,-4.699707098686892875e-02,7.183109961668888988e-02,4.178068730160326705e-02,-4.927136226535449581e-01,-1.341949788575365343e-01,3.455506919951326084e-01,-3.999718656739859601e-01,-1.915844698489660436e-01,-3.388214801419388994e-02,-4.581633351138352794e-01,-4.554672690406207369e-01,1.802689996431461605e-01,3.391187804609249179e-01,-4.036951501326359604e-01,-2.304806426185921492e-02,3.338872994917393422e-01,3.713026677394894448e-01,3.644603574454245432e-01,1.443847975277836038e-01,7.072025615365501450e-02,-4.559307863977925535e-01,3.609663527867961741e-01,-4.929427214779477096e-01,-4.478200446842068860e-01,2.196864414927561515e-01,-7.815130226497176910e-03,3.100546179250734946e-01,-5.379312477706833517e-01,-4.570722965657013082e-01,-3.368932814197547199e-01,3.584237993099363973e-01,-1.252700303778384872e-01,9.661834954677075982e-02,1.130051619210117042e-01,8.863061373525316089e-02,-1.477820618552478926e-01,3.842409648042303671e-01,2.788894154251621293e-02,1.432500764286958467e-02,-1.687884797310082730e-01,-4.393224042951678898e-01,2.474907342402907218e-01,-3.677414042293781771e-01,2.063432008277388818e-01,-4.944502567431601214e-01,1.651644229312771994e-01,2.636281507365014765e-01,-4.692377182428835170e-01,-4.095634707897385235e-02,-5.025968629527245435e-01,2.129838303368480068e-01,-3.386114005047438646e-01,-3.193321371924839891e-01,2.536285542311335073e-01,-6.532490520848176219e-02,1.231703351837907245e-01,-2.300761680950272337e-01,-5.183450991966201959e-01,-6.804768745318601209e-02,3.226889463152626814e-01,-2.491834085933078147e-01,-4.455962257833041562e-01,2.716537673300598033e-01,-4.345539022944289176e-01
