5.329746845041154479e-01,-1.868613077677048762e-01,5.645841568002198940e-01,9.451865860571941058e-02,-4.399088374623014719e-01,-5.100330035333389134e-01,-2.056141784434548647e-01,-7.984891486149007234e-01,-5.603614062640428495e-01,-8.891287691156363193e-01,-3.394197759123628866e-01,-8.227550516126046487e-01,-4.601004755446052585e-01,-1.055965084025765943e+00,-1.083009092462285272e+00,-9.618270293141900629e-01,-4.481937649715444505e-01,3.387629417854507580e-02,-5.717618172873388804e-01,6.002783574980465747e-02,-4.155234841662028833e-01,-5.949528925997912276e-01,-6.056486234922144885e-01,-3.665933674175457235e-01,2.403857144622889574e-01,-5.090858733954257281e-02,-1.197712715528245486e-01,7.647468053008037447e-01,-2.181038465833088080e-01,-2.074043795625802114e-02,-8.156408782555477077e-02,7.534221931340098766e-02,-1.024560328832941236e+00,-9.751449531769279533e-01,-1.001446389879601329e+00,-5.522431807903045442e-01,-6.446514322096014160e-01,-7.078170997139303644e-01,-8.286345696031268693e-01,-1.179338164577721448e+00,-1.115201054862182017e+00,-1.541553952477155764e+00,-1.386878226802870762e+00,-1.077392495958631180e+00,-1.279929630509902827e+00,-8.308723123414333278e-01,-1.065085829792194572e+00,-2.871459786885623422e-01,-2.381747874102455864e-01,-5.933020046744292841e-01,-9.489749634276702928e-01,-3.649391496965756487e-01,-6.188948082971201803e-01,-3.492162311601911262e-01,-1.025144321105880274e-01,-2.243866633876831218e-01,1.239560095702591236e-01,-8.106515445436159040e-02,8.580079781420592300e-02,-4.619658636609750846e-01,-1.072638338965391513e+00,-8.226312784833271774e-01,-8.184481961108797110e-01,-7.731847285594452002e-01,-1.178749915616347677e+00,-1.351032059487276005e+00,-1.360196992973029984e+00,-6.507211789785123379e-01,-1.035112320242916439e+00,-1.157816507055474453e+00,-1.525271415183060864e+00,-1.046234032160007654e+00,-1.413386996696957665e+00,-1.518065618947882500e+00,-1.260616763664060613e+00,-1.647974875064822431e+00,-1.485797619250192048e+00,-7.552994585758705526e-01,-1.342747449173175234e+00,-5.840395686212566106e-01,-8.842151455634374990e-01,1.922153655038623399e-01,1.917048676098327131e-01,-7.139503236067724912e-02,-6.325556836366705467e-03,-3.739025871630362596e-01,-3.982814671008532703e-01,-1.279636476362620456e+00,-1.333237285670212380e+00,-1.044032695904492547e+00,-8.775057893485505023e-01,-1.328977578506459256e+00,-6.625774141464706446e-01,-9.592272009857615300e-01,-4.999864922923901167e-01,-4.656052808844773905e-01,-8.093702070284426453e-01,-8.590795073727508502e-01,-5.581371067793454710e-01,-3.147549613826978732e-01,-3.034650138770580430e-01,-1.057875022250708064e+00,-9.918141620867381159e-01,-1.171740009702085361e+00,-1.297302970970433567e+00,-1.613900026127836451e+00,-8.450991213489311704e-01,-1.057722682730328767e+00,-1.442721929331080899e+00,-4.564596722954501473e-01,-7.188144513817432690e-01,3.723970166323744557e-01,-5.915307211422619060e-01,-5.389174124935698362e-01,-6.407776176489702324e-01,-1.240728683289714196e+00,-1.064227589910057503e+00,-1.440148382000947302e+00,-1.499254599223587281e+00,-1.143325051027648920e+00,-7.201866635571634312e-01,-6.575178549825443364e-01,-6.641953010274526115e-01,4.753957950994085468e-01,6.279448319946672186e-01,7.472428522593058675e-01,8.961773549107961978e-01,4.423706591647618147e-01,8.842681460003455340e-01,-4.383280323217026986e-01,-1.982497789997952897e-01,-8.866875864682151054e-01,-8.111105997561074421e-01,-9.352111754000898003e-01,-1.616771108323244333e+00,-1.625732180715730113e+00,-1.235765230399498593e+00,-1.025629615838391295e+00,-9.136363859162133227e-01,-5.977553251701414050e-01,4.816524070258285800e-02,-5.860586799448124218e-01,-8.454422101931308164e-01,-1.585116701424764907e+00,-1.012342735876360145e+00,-1.676558604896518201e+00,-6.680987948681909039e-01,-1.365172287361204884e+00,-4.460830935339392678e-01,-1.011066732785257244e-01,5.301284537467998437e-01,5.124706038866985169e-01,1.367874244555868257e+00,1.355590397811270886e+00,1.626007804329580031e+00,1.402976926073333797e+00,1.313230926872259952e+00,1.272803438842534662e+00,3.769587290668680729e-02,-2.739902880266729124e-01,-3.135534711387088502e-01,-1.324788916443726317e+00,-1.004006161921507267e+00,-1.085928449144247354e+00,-1.585355720844215721e+00,-5.816968592405380445e-01,-1.017014350733614236e+00,-3.904983084232862001e-01,-3.837374412671354287e-03,-4.906891224362769921e-01,-1.292182453664232344e+00,-8.402602037908998289e-01,-1.032834184235275288e+00,-1.609426726362586324e+00,-1.357004401839439822e+00,-1.126934651562804479e+00,-2.753650348492576172e-01,-8.198898233986376960e-01,-1.286100986820078451e-01,1.157803725118674784e-02,4.061106797958304732e-02,2.134667888619913301e-01,3.362178750356109580e-01,3.859329113380730036e-01,3.705805306675235000e-01,7.022486557571342436e-01,1.383838844829373693e-01,4.520272017682332999e-01,-6.996705074932401125e-01,-1.096178525676754223e+00,-1.446748092500793614e+00,-1.438833709336776012e+00,-9.398599292471800926e-01,-1.079474691694319199e+00,-7.150760487278755573e-01,-5.658126971169152863e-01,-3.524098751143060482e-01,-1.027388148816742230e+00,-8.579904815821220998e-01,-1.480725913256498938e+00,-1.185228516412067057e+00,-1.135256940770805967e+00,-1.497124208803009004e+00,-1.190824971095717277e+00,-1.015373052534313425e+00,-1.204769790546354136e+00,-7.777086660901009196e-01,-1.098123288317854662e+00,-1.252468562876940306e+00,-1.364403344768707393e+00,-1.673468112260675378e+00,-1.673484606000344765e+00,-1.367262771171136482e+00,-6.299246505114528549e-01,-3.717232249089090224e-01,-5.921947204817266108e-01,8.649032368454456776e-02,-5.439841165206462659e-01,-6.116786426766989138e-01,-7.007945179103115541e-01,-9.420079965239731568e-01,-1.293135857266108024e+00,-8.897562444085505007e-01,-6.422317798309281622e-01,-3.666364387413003079e-01,-2.890223367911233243e-01,-1.396743550035777437e+00,-1.420711625732801409e+00,-1.050543855650209801e+00,-1.198290193624804711e+00,-1.223097895055030415e+00,-1.026703526198914140e+00,-1.188572714426529897e+00,-1.980648889335734131e+00,-1.511030092168600403e+00,-2.220573129501705267e+00,-2.445603225783275381e+00,-3.270938681774650636e+00,-3.153756258193420425e+00,-3.235189164244600235e+00,-2.205348200443584705e+00,-2.258189833729344453e+00,-2.121785972066822623e+00,-1.289929867088523974e+00,-3.764062758661530506e-01,-1.243207860123547670e+00,-6.507812139831936626e-01,-7.608940443680393129e-01,-1.357757222097412342e+00,-1.640758275225747687e+00,-7.175237330371371236e-01,-8.671125046121845870e-01,-2.876607543236230913e-01,-9.295528041405515252e-01,-9.073285074664279026e-01,-9.987563553345707446e-01,-9.882624447230893283e-01,-1.620351019729126207e+00,-1.857822915041328793e+00,-1.355548894808537463e+00,-1.906338321937633973e+00,-2.383477364924572406e+00,-2.353620534383637164e+00,-2.818407209145223025e+00,-3.165942574973915402e+00,-2.872092653782839289e+00,-2.947961158581037910e+00,-3.922616619170780528e+00,-3.654439545748317197e+00,-2.714361067182456289e+00,-2.329048525776049594e+00,-1.809316272079084742e+00,-7.492308772617937151e-01,-6.709872753312653426e-01,-9.589931050557175540e-01,-7.103906606335943508e-01,-1.141981498846475596e+00,-1.129855810424011286e+00,-1.036931135290272810e+00,-1.309869247426361794e-01,-1.472380460318427897e-01,-1.515603547231146653e+00,-9.131983512595389652e-01,-1.128500689010787372e+00,-1.254231728132267243e+00,-1.958598477856011710e+00,-1.459705315509358003e+00,-1.648660447832097198e+00,-2.401165862020896213e+00,-1.727999997607459592e+00,-2.240481553747583732e+00,-2.347255477724427219e+00,-3.239825790652053339e+00,-2.862602506263950630e+00,-3.222889144102480508e+00,-2.642966430296051161e+00,-3.219923101632495843e+00,-2.170456655498354426e+00,-1.521412542540424351e+00,-1.182983042379281535e+00,-9.254685005972317358e-01,-1.141197200648894183e+00,-1.044156054424198121e+00,-1.040202393673403725e+00,-9.333624406651149785e-01,-1.669895317035140492e+00,-9.955404764811174312e-01,-9.096774483206843120e-01,-2.893809101141525120e-01,-1.581798672887160917e+00,-1.773438178989319880e+00,-9.397925793389048099e-01,-1.322290269218168168e+00,-1.624496279086754313e+00,-1.687909675716825930e+00,-1.541416857278425478e+00,-2.108876312064988490e+00,-1.909787954807135035e+00,-1.982599045051071540e+00,-2.743272345040840055e+00,-2.382165532695573074e+00,-1.978521374880290118e+00,-2.142082103114829383e+00,-2.733545694962760120e+00,-2.056925669267269274e+00,-2.238077603832437923e+00,-1.315529504770510005e+00,-1.414465781719813853e+00,-8.050797420961288697e-01,-1.201291484988550762e+00,-1.513783412420817598e+00,-1.033160343480287624e+00,-1.526230614331984370e+00,-1.479767625000165232e+00,-1.296700239085132322e+00,-8.850391375602716382e-01,-6.571021716737853735e-01,-9.752115382458080850e-01,-1.529416900417190250e+00,-1.586820201026401866e+00,-1.578416511910235354e+00,-1.397840883401471057e+00,-1.576661724413683130e+00,-1.670252511483649505e+00,-2.210851936393515516e+00,-2.039668480105948589e+00,-2.811703167507709988e+00,-2.465360497053795008e+00,-2.189156322059675031e+00,-1.321769769394234073e+00,-1.336535816600888049e+00,-1.784483372431011405e+00,-2.054941205780449920e+00,-2.048358709417791079e+00,-1.370102991477436083e+00,-1.472745189901414342e+00,-8.842977760353569749e-01,-1.076847528003568089e+00,-1.262184542586439306e+00,-7.784167461437745406e-01,-9.266507980571376812e-01,-1.489161065148267404e+00,-1.584551643591785464e+00,-8.337041316985382977e-01,-1.333537483554356751e+00,-8.762153845585732848e-01,-1.085524459939085418e+00,-1.049541058599667620e+00,-1.598219465966306485e+00,-1.518005936983772619e+00,-1.257961289528754634e+00,-1.300406506385192840e+00,-1.180327884974434749e+00,-1.622729186249468381e+00,-2.213735385783197174e+00,-1.229131183931207127e+00,-8.621108326805463351e-01,-5.121887022773328191e-01,-5.052156052907242900e-01,-8.169615287082582222e-01,-1.750262169215049290e+00,-1.650015580507102619e+00,-1.364402943793490142e+00,-1.955666936924101318e+00,-1.408966127644509569e+00,-1.373529709227565343e+00,-1.234150407786315906e+00,-1.341557316386541965e+00,-9.587955164883359416e-01,-1.106805682727912243e+00,-1.213442018592826965e+00,-1.340876947239222128e+00,-1.109644835360360515e+00,-1.277293834657464267e+00,-1.257832309963777151e+00,-7.938314528293093364e-01,-1.469802541220023961e+00,-9.736852364934552861e-01,-5.925880271176898750e-01,-5.618019648512969644e-01,-9.346527277310420212e-01,-1.198774073787189254e+00,-6.769443755482476011e-01,1.731588993783400310e-01,6.194393767572614617e-01,3.850132776336110951e-01,1.045510876542820711e+00,-2.452672821916691004e-01,-1.404839642906167363e+00,-1.785098231746503616e+00,-2.189214571302889656e+00,-2.318941834820541281e+00,-1.280338263400207399e+00,-8.903181830869777436e-01,-1.415797959761569524e+00,-1.070479419962959478e+00,-5.126673840670573634e-01,-1.060816303616480161e+00,-1.407185927222795785e+00,-7.643189970081709639e-01,-4.914079509372945576e-01,-8.089107550827743243e-01,-8.723510033533998786e-01,-7.561071578106920432e-01,-5.691681587694480404e-01,-3.938680824699591909e-01,-2.712656626036167307e-01,-2.651746351734506346e-01,-1.576134913092120116e-01,1.975147971874068875e-01,9.401530060134247746e-01,1.285152125053499184e+00,1.809099685863639229e+00,2.540735620366906922e+00,1.673689818272263263e+00,4.394953656344480764e-01,-1.288632143465588076e+00,-1.655779910941673760e+00,-1.691828619775450404e+00,-1.470459703717550859e+00,-1.287930531036544979e+00,-8.677367726369299428e-01,-1.389099422256033112e+00,-1.246287672314417838e+00,-3.141774000983823534e-01,-1.394949271239058319e+00,-9.390929362361872812e-01,-5.266403890944912902e-01,-8.763947320339970926e-02,-1.302464718684430034e+00,-7.056927531866739045e-01,-6.629049186241953162e-01,-1.079161212743216858e+00,-3.689417721343464796e-01,1.310979568716766075e-01,5.277142620343296953e-01,3.339652247393246065e-01,1.361243141556555569e+00,1.610208365688982290e+00,2.571637324909008537e+00,2.331675125141116744e+00,2.931678417743840193e+00,1.253941342858227115e+00,3.958337004071914994e-02,-7.128399791401487384e-01,-1.641402089524223840e+00,-1.659649590833797150e+00,-1.258430195610680036e+00,-8.189686966521131373e-01,-1.361635656221069191e+00,-8.993273840435408450e-01,-3.673313408653335888e-01,-7.959609892889472071e-01,-8.026029603896768228e-01,-1.036275013650899579e+00,-1.610714674082859010e-01,-8.934283956657512737e-02,-8.406485681407024346e-01,-1.076673768554095023e+00,-5.062713413636303894e-01,-8.214150859297078000e-01,-4.235756293259064775e-01,6.627286965396626817e-03,3.705033143267734141e-01,1.040646377180847182e+00,1.362078920107697266e+00,1.930189526498690356e+00,2.334217345273624566e+00,2.750248755694162828e+00,1.785884943738193398e+00,5.795049864308392529e-01,2.893276701368741599e-01,-5.395417182889230556e-01,-1.115133259427759871e+00,-1.491334782463506814e+00,-8.140026936855420114e-01,-8.584568031779292729e-01,-6.543941738606593450e-01,-3.846647050868545192e-01,-6.390002033877257848e-01,-4.963900803803536488e-01,-2.857632414551375399e-01,-1.541780119567415452e+00,-4.416691013890804984e-01,-3.068047560331892964e-01,-8.839861835537750068e-01,-1.218891450155630940e+00,-4.865150893665192156e-01,-7.401594211302496840e-01,-7.459395359473029730e-02,1.876414535146076271e-02,1.228717655001281717e+00,1.042924287504682024e+00,1.651327424539928534e+00,2.136628909232719309e+00,2.647082516248961959e+00,1.870743254089364704e+00,1.339421060257622420e+00,4.776146750838264898e-01,1.080151040649663940e-01,1.265625964305203688e-01,-5.898598488005400986e-01,-9.436471197048258708e-02,-8.972277840506340807e-01,8.452997022087919976e-02,-3.503621955779981367e-01,-2.806970658359860815e-01,3.946400461448261454e-02,-5.174530832809239866e-01,-1.265500502828723839e+00,-1.134309116591804223e+00,-5.241014916145092517e-01,-2.909367229161667345e-01,-7.409385113399922229e-01,-1.602422404437794823e+00,-6.519266805393278963e-01,-8.773776874857587282e-01,3.267739591681376177e-01,3.167866553263368745e-01,1.216543734141317445e+00,1.808963014190364316e+00,1.463366962337057542e+00,2.332107018669923093e+00,1.873101812986292414e+00,7.885759847715150261e-01,4.362507325455051155e-01,-3.021345069869243449e-01,-1.710788728531022762e-01,1.430440282400065599e-01,-3.551773963996668892e-01,-3.805763825409571623e-03,-3.246228190509074518e-01,2.838037802370919557e-02,-1.678652924311076489e-01,-2.582203152415665226e-01,3.510054011456941181e-01,-7.489558992584151031e-01,-8.842352181748366347e-01,-8.018951274806771501e-01,-5.169378156942063818e-01,-8.308373375512320136e-01,-9.420075218124711602e-01,-9.741730580511336335e-01,-7.188150727033832954e-01,-1.159928440244264003e+00,-3.404813161270111438e-02,2.881355831100069764e-01,8.269347853939973403e-01,1.316249613550789732e+00,8.516568226603653535e-01,7.742251983524058856e-01,2.982048499749747617e-01,1.802030864938095611e-01,2.486161956845470422e-01,-4.851829731700306181e-01,-3.591555388975257723e-01,-8.792060311684820606e-01,-2.003524418037598565e-02,-6.440932481354088024e-01,2.285646755563825183e-01,2.328517357716853864e-01,6.491965937166153111e-01,4.920971701949398702e-01,-4.636608333915799296e-01,-5.837879597110463559e-01,-1.322400349608229941e+00,-7.826952895265496535e-01,8.675737997471399954e-02,-6.291300962288589593e-01,-3.602837632768404741e-01,-1.528664941803131061e+00,-8.940406950154136112e-01,-1.101135258637776948e+00,-1.142192266897148256e+00,-2.338534779648239192e-01,-3.892429266109159736e-02,-1.576878897781482936e-01,4.163452517715977574e-01,4.944062276889412688e-01,-4.437509736665560811e-01,-2.384451156571241182e-01,-9.790672211177480211e-01,-1.348056188000570810e+00,-1.531692620063284993e+00,-9.931850228923574386e-01,-1.115601913691645519e+00,-2.175734473507805466e-01,4.394385338667767815e-01,9.108496649407692158e-02,1.386636507989628952e-01,-3.122340349318196706e-01,-7.242890691098849976e-01,-1.124780394301680309e+00,-6.897756926994413895e-01,-8.874602387068170062e-01,-2.602780802797678983e-01,-5.532591021314180457e-01,-1.045453904174325377e+00,-6.206548000067779736e-01,-1.218168794594436388e+00,-1.682380153027562386e+00,-1.458410292772138295e+00,-8.047043604477812639e-01,-9.556076952314885853e-01,-8.654756953809977782e-01,-1.221907069556003478e+00,-1.227206340535535123e+00,-9.188978944223328282e-01,-1.645366892623623123e+00,-1.554019251731629803e+00,-1.746922760345936521e+00,-1.081579690585922071e+00,-1.412273255192997290e+00,-9.869788105100746334e-01,-8.146691910315441154e-01,-8.146566165306141638e-01,-1.542961881108790567e-01,-8.019417841543827752e-01,-3.559057558283566514e-01,-4.380391739054251832e-01,-1.040529354385489214e+00,-3.685903630669051800e-01,-1.443097053977666355e-01,-4.004563192147556072e-01,-4.376534624598623080e-01,-5.254827111166204823e-01,-1.073251132603577629e+00,-1.020701246572336185e+00,-1.726668125455105507e+00,-1.806317989774965049e+00,-1.132039335378598466e+00,-1.334114734367292998e+00,-1.158073550459677525e+00,-1.344063428052815423e+00,-1.407585828853893162e+00,-2.172794817612857532e+00,-1.994137661101047287e+00,-1.713980161272744107e+00,-2.118373093762456527e+00,-1.452075606142850805e+00,-1.453691402480090433e+00,-1.684488702352569645e+00,-7.847239613666758817e-01,-1.051210287842186508e+00,-7.703662595580069716e-01,-1.033817000166763478e+00,-7.637874091229558404e-01,-1.194436994627312121e+00,-1.413243398697747732e+00,-6.113317876544325236e-01,-6.596462254404281689e-01,-5.739942948206030460e-01,2.597890803475224608e-01,-4.212557963355796908e-01,-2.700678090274005738e-01,-1.601220781117247860e+00,-1.329109708173878301e+00,-1.596926436680302430e+00,-1.189724183220818521e+00,-1.440456606352557900e+00,-2.397600170517088181e+00,-2.137534123127156960e+00,-1.823955617834466914e+00,-2.072463925128952944e+00,-1.791978389629005131e+00,-2.176011708749105988e+00,-2.510156449904464182e+00,-1.591721921099373604e+00,-1.410189214440950467e+00,-1.513572692759083571e+00,-1.159096042822131079e+00,-1.170569843768916707e+00,-1.311347386281522587e+00,-1.413381751921790164e+00,-1.275944603010226830e+00,-1.349907457201956040e+00,-8.235961785033868443e-01,-2.627747535480692842e-02,3.164345502358351658e-01,1.913886860284171876e-01,3.012633564592623672e-02,1.265657559970051471e-01,1.558494625271927489e-02,-9.348015267383852356e-01,-2.997585531993223751e-01,-1.113753584005422459e+00,-1.453767362930020512e+00,-1.338317791389267430e+00,-2.413419362864571927e+00,-2.360523926295645225e+00,-2.324963036872871314e+00,-2.083474983283149395e+00,-2.228475323250099116e+00,-2.794646255260355261e+00,-2.228142637189527431e+00,-1.786205052926520764e+00,-2.428750193026898430e+00,-2.163399939893567936e+00,-1.091625608106122636e+00,-1.081028341557850547e+00,-1.711615730175168659e+00,-1.281800283336288482e+00,-1.141530048704590738e+00,-5.463677232977656173e-01,-7.728451232578270602e-01,-3.554548515196542802e-01,-3.875036550348018305e-02,-4.193067221142444123e-01,2.592873841231346232e-01,-3.923156369153640161e-02,1.735685580065856326e-01,-1.768019194980248732e-01,-1.748583533826367498e-01,-6.377809783503513019e-01,-3.517647160086473934e-01,-9.915182371905788550e-01,-4.462438519225564448e-01,-1.851735293872868615e+00,-2.014930882748933172e+00,-1.739227087377624326e+00,-2.329499901864341194e+00,-2.120346176730629750e+00,-1.604648951987526218e+00,-1.305867455455362425e+00,-1.614603110935841190e+00,-1.869848434266030646e+00,-9.869000777026202265e-01,-8.594732005150349519e-01,-1.236007406799274788e+00,-7.612384588245874051e-01,-7.664780688769218253e-01,-8.404763337983974791e-01,-3.112320210460662873e-01,-6.435383922569282156e-01,-4.610147401312939541e-01,3.953538576344484690e-01,-1.413490544473758603e-01,-1.155744705595059679e-01,1.633525285411372707e-01,-4.918520780879983081e-03,-2.535255615163906628e-01,-4.118228715014052854e-01,1.002817704434180723e-01,-6.966223325636370367e-01,-2.492037446026866832e-01,-6.022442913700926104e-01,-7.503930088914532170e-01,-2.078757821930781735e-01,-8.488910985912957452e-01,-7.513985406057116512e-01,-8.737496140850470328e-01,-8.911335976549974447e-01,-1.004533141815991293e+00,-9.336804147204162685e-02,-8.432311678245363318e-01,-3.633929997795006805e-01,-4.943132098271801333e-01,-2.763830024967943721e-01,-9.070107954337227607e-01,-4.552338813189707456e-01,-8.776299430810435842e-02,4.695814935189377426e-01,4.204583875483802746e-01,4.423627838259025502e-01
-4.261316935801613970e-01,-4.177117326664975816e-01,-2.612767828296166939e-01,-2.747826750947057195e-01,-2.909806381095029759e-01,1.451580743728457523e-01,-3.127877335222580824e-01,6.682688814238445241e-02,-4.919898186957609790e-03,-7.146025425360589267e-01,-5.895878700386610882e-01,-1.495277664168847553e-01,-5.488420107898678985e-02,-3.952322887289215769e-01,-3.843686278101215437e-01,-5.016337168695148563e-01,-1.987637500386565947e-01,-2.932231820881780471e-01,-3.339125477927545882e-01,1.124283432006521199e-01,-2.228215093735974595e-01,-5.844300728551014845e-02,-3.434934986507807708e-01,-2.647472213014785969e-01,-7.017585105530244061e-01,-4.861969519367429493e-01,2.704789030552122719e-01,-3.460391851563969501e-02,-4.309210353609853050e-01,-5.212325700659000693e-01,1.737505931658791247e-01,-4.652169295395695015e-01,-3.779700371513136092e-01,-4.976157734343188421e-01,-2.891427360820129078e-01,-8.934099358071097008e-01,-5.266964919642479481e-01,-6.223043288325538214e-01,-1.006325718619321075e+00,-4.991768838947825970e-01,-6.373457832915246923e-01,-7.649508689873524281e-01,-1.086796730503504005e+00,-2.177670813178834430e-01,-1.102432718997188976e+00,-6.210066077935341156e-01,-2.750691519816254038e-01,-9.790433580252501100e-01,-4.430654862778292680e-01,-6.735253125684254050e-01,4.156870396314372301e-02,-8.564600529624740721e-01,1.549605099584821233e-01,-2.178421264871216179e-01,2.127349326418223954e-02,6.760958570497931086e-02,-2.648872150615586563e-01,-1.558179582442256184e-01,-1.006767678666724564e-01,-2.243111912358980720e-01,-1.376779965131042782e-01,-1.054010001883905812e+00,-6.137774834432874194e-01,-6.985974087388465703e-01,-5.760810364688906393e-01,-7.675537626333122088e-01,-9.235697552286176171e-01,-1.096593966943103737e+00,-2.752210463092559789e-01,-3.358746424612154557e-01,-1.038484413872481360e+00,-3.148350180348811755e-01,-9.083610017381354984e-01,-8.854680607222263911e-01,-1.061395824863697213e+00,-2.087262894553934267e-01,-5.945908220810732780e-01,-1.647908401965962055e-01,-9.449104672473528366e-01,-9.380029389012893848e-01,-3.354781318114989919e-01,8.160791521548839411e-02,-6.085825498182565463e-01,-1.661594655132857951e-02,-4.885096255451221170e-01,-5.805814704813101468e-01,-4.597411686565610611e-01,-3.744534575013732658e-01,-6.751570706147524970e-01,-9.662393806876100610e-01,-7.445942801479246143e-01,-8.187928217434176092e-01,-3.871992475356629826e-01,-3.690575353619962584e-01,-8.301664499960366150e-01,-8.892935978905370797e-01,-4.987703576991318610e-01,-2.617670025227122332e-01,-8.632036174685679963e-01,-1.103507518577282687e+00,-9.320427798725483548e-01,-1.260420261388231378e+00,-9.759655945664691412e-01,-7.835376288599102956e-01,-3.499432804603964109e-01,-2.044650857061012239e-01,-2.347215980744016550e-01,-1.125133186364640547e+00,-9.191241869601977088e-01,-6.692687338631431171e-01,6.207936774885006170e-02,-6.633931358197969752e-01,1.295816040798629387e-01,-7.370076656209038068e-01,-5.936053607200723059e-01,-1.112735785876573180e+00,-7.420829219487835582e-01,-9.936178810912590365e-01,-6.292567657208802956e-01,-5.909764706407689694e-01,-9.250936822198939646e-01,-4.849006120076142512e-01,-3.234606473214353128e-01,-6.578177376526305187e-01,-6.378160122922308384e-01,-7.628106980812680848e-02,-5.256040285405683132e-01,-5.670469859138022040e-02,-7.135850618689555391e-01,-1.029731778620401661e+00,-3.598820010408986803e-01,-1.062428856949081624e+00,-9.858667729155893289e-01,-8.335456218655526994e-01,-8.146881944234793949e-01,-2.545868400036989110e-01,-6.960258110774359963e-01,-1.054186735776169836e+00,-6.289603476238680990e-01,-1.928127483321259439e-01,-3.879792973798866784e-01,-2.003057668572004735e-01,-4.447241152936957098e-01,-9.453541357079318086e-01,-4.913105513466732299e-01,-3.734223717154850353e-01,-5.906003252746276910e-01,-9.393878155697445997e-01,-4.794035841208544868e-01,-8.400250175006176434e-01,-2.988057438719866621e-01,-6.800057063554721948e-01,1.852545891685364599e-01,-7.280097796326680248e-02,-2.014297556262969746e-01,-2.670076027924754847e-01,-7.101657468936628526e-02,-7.241077670903821595e-01,-3.931708046464402889e-02,-2.741804736942034526e-01,-6.552653186818956366e-01,-2.250096178971217886e-01,-7.630950128486581052e-01,-2.347044751684447261e-01,-7.097550907213442395e-01,-2.039915215278982064e-01,-1.289400147246404782e-01,-5.838908400911676511e-01,-1.342754854908728701e-01,-6.880709847720737349e-01,-4.113361939495246422e-01,-6.219965206976642014e-01,-6.165972210165009404e-01,-7.592635068490304340e-01,-9.194398557346942225e-01,-2.981931924445482274e-01,-5.658153284402085426e-01,-7.887395012328850541e-01,1.489647007971258430e-01,-6.245161974684118045e-01,-1.531367400443041094e-01,-6.211823861159408988e-01,-1.012874825976393112e+00,-6.182547760533030345e-01,-1.805726848228564052e-01,-3.547665887164189180e-01,-4.653714108800034999e-01,-3.379952977574270795e-02,-1.413775638887193598e-01,-1.000760746334292906e+00,-1.087415770238891133e+00,-8.567619999580694534e-01,-1.896400024088797931e-01,-2.947165716633096122e-01,-6.875384495202627733e-01,-7.711868115978923743e-01,-7.144559832796771870e-01,-7.878015327343580454e-01,-1.572059989365892918e-01,-2.952110087939812111e-01,-7.840100237171027109e-01,-8.432930039221607776e-01,-1.337136002619195019e-01,-1.081294404439545886e-01,-7.057222858432595780e-01,-8.782774700083296748e-01,-5.130421405563173609e-01,-8.488260436601160475e-01,-5.779969587429701905e-01,-7.451322833100147980e-01,-1.484763629442499289e+00,-1.138987187849006988e+00,-1.035243509101864356e+00,-5.059826723360574263e-01,-1.033765869125263359e+00,-2.664559757777649196e-01,-5.429442617798795334e-01,-6.280215322382505516e-02,-1.086225559009862618e+00,-7.149602251022598720e-01,-7.225828852919669032e-01,-3.173606950576022268e-01,7.952242769868977587e-03,-2.909437577696828425e-01,-7.379985136023000658e-01,-3.193457524167087058e-02,-4.402611799148589689e-01,-7.205471590575373009e-01,-2.364723045126694567e-01,-7.494534613865329042e-01,-6.373289588986629228e-01,-3.120798398671088547e-01,-3.248663668690251471e-01,-7.116390264395155985e-01,-7.005668254267357620e-01,-1.685346865879626010e+00,-1.738035460106833519e+00,-1.233319553682670433e+00,-1.253543192093323322e+00,-1.099688739960258621e+00,-1.195634981328449031e+00,-5.858039341539575950e-01,-6.500822192287402101e-01,-8.952899338369834092e-01,-7.425084927271956570e-01,-5.803556861910218190e-02,-2.036456354511414768e-01,-8.426264538146338579e-01,-6.888393945618480618e-01,-8.198119496123503769e-01,-1.027040610391108499e+00,1.049633602828685258e-01,-5.523701233303272007e-01,-3.169318586035801966e-01,-4.306354099046331152e-01,-7.038284034418987867e-01,-9.349668180536511164e-01,-6.678484693692566809e-01,-7.134386132973489225e-01,-8.304954152373994480e-01,-1.284110739661507239e+00,-8.894461497546166662e-01,-1.136152983541534933e+00,-1.897923332429193755e+00,-1.218796077569970659e+00,-1.417589008829039932e+00,-5.474658546623165645e-01,-8.721116918356373038e-01,-9.944566314304464916e-01,-2.932698402986445574e-01,-9.643988827894498517e-01,-7.475834184360984069e-02,-7.906992786350084401e-01,-2.483090013601688129e-01,-2.597852059283387027e-01,-1.035007490226049987e+00,-7.966114016843318657e-01,-4.955117709665474712e-01,-9.587743652001606831e-01,-6.225072940579270409e-01,-4.661607892792608010e-01,-4.447514958966522491e-01,-3.881638037123462115e-01,-2.532570293588936594e-01,-8.000401366511302736e-01,-6.020581451012753105e-01,-1.021562375790867838e+00,-1.332395276175539767e+00,-9.523988092890449675e-01,-1.042128349405022858e+00,-1.685070155408565196e+00,-1.278797771646755344e+00,-1.545343677061524756e+00,-1.185078663827577428e+00,-5.828861636300252114e-01,-7.867318213264877791e-01,-1.886128751621561073e-01,-4.252720423686736639e-01,-9.175710660784616168e-01,-4.664773284676972942e-01,-9.450601071014838039e-01,-1.104114870509701474e+00,-1.185991963821134476e+00,-5.303208580352752888e-01,-8.410978240772271075e-01,-7.057125075921089064e-01,-5.328152359737945432e-01,-7.427133039517032354e-02,-4.628335546416546542e-01,-8.552381359298508734e-01,-9.660513187139119218e-01,-5.358594306875695823e-01,-7.849655857630981615e-01,-2.453551489409347142e-01,-4.441771019280756905e-01,-5.538486860611248064e-01,-1.289309053378611125e+00,-1.672636768330893586e+00,-1.537598468303610133e+00,-1.262005824767968631e+00,-1.294454697877623239e+00,-1.065945114292289331e+00,-3.241179429692592762e-01,-1.373207579428755709e-01,-5.977343543754581878e-01,-8.681151198567607086e-01,-2.826225732878709374e-01,-9.932298717355335649e-01,-5.065762599827213775e-01,-6.827112757874298499e-01,-6.774244491033957205e-01,-1.124294018293129804e+00,-6.721698012501649000e-01,-2.628701523102112136e-01,-5.776101543279107409e-01,5.975694641538405183e-02,-6.166498958243762374e-01,-1.637212135050284123e-01,-4.116458469748106586e-01,-8.418201670777401002e-01,-8.409487587320632063e-01,-3.241083283462162790e-01,-1.026361545040373358e+00,-1.240580955958116682e+00,-1.222624263032635383e+00,-1.114073031221103571e+00,-1.913021173274956688e+00,-1.190140439299627539e+00,-1.448324561176796754e+00,-4.338147316925422547e-01,-1.458497230956602442e-01,4.792642062231626532e-02,-9.525069059822675044e-01,-6.883442366206951046e-01,-7.207207916074913623e-01,-8.726669632739795235e-01,-3.875291657510819276e-01,-1.195672818911998947e+00,-4.228073581241748036e-01,-1.254091258164124367e+00,-2.839314213769370543e-01,-6.000012266447871667e-01,-2.684137654542089746e-01,-5.648453479509359942e-01,-8.581963084511796680e-01,-2.782350828646972807e-01,-1.057060030615269097e+00,-9.029594657139846658e-01,-9.972705012038851624e-01,-7.172924931271659199e-01,-1.204453370942281554e+00,-8.875210499720641577e-01,-1.467385825413408673e+00,-1.070953463510256221e+00,-1.543805522979875944e+00,-1.695791591930307041e+00,-1.019966868891492684e+00,-6.290895381836210110e-01,-1.029652853860257983e-01,-1.144098406468525786e+00,-6.011599415717633343e-01,-8.077722250851485652e-01,-8.821163084849766856e-01,-1.110492774226178758e+00,-9.619759031005252758e-01,-6.966753275173399595e-01,-4.933680178326111943e-01,-1.061708852864383434e+00,-1.103816306289079563e+00,-5.464883280137039501e-01,-1.109527846853561872e+00,-8.804790783847556979e-01,-5.334638918683651809e-01,-5.850348429239516923e-01,-2.936133218634930375e-01,-1.593522575250858053e-01,-2.139971846377871634e-01,-8.578186006340773329e-01,-1.001182266561539302e+00,-9.203732190725349982e-01,-1.091403126657057854e+00,-7.223249587294446883e-01,-1.160036990418829461e+00,-8.118756186860131008e-01,-1.455205984965982635e+00,-2.998794722261611811e-01,-6.045337153916404693e-01,-9.007421662811484486e-01,-9.271736224553918104e-01,-1.389294190728350697e+00,-7.097552189651452625e-01,-4.713206410227346321e-01,-1.238733685500655879e+00,-5.277558108468999309e-01,-7.583175928775703900e-01,-1.030432155277451578e+00,-1.061806660021974880e+00,-6.863140243986501909e-01,-8.164650661300923984e-01,-8.059719235292787110e-01,-8.717825669854259996e-01,-3.101525837914258510e-01,-4.368638340672640341e-01,-9.582216084338894824e-01,-6.238563924057761723e-01,-2.913234758579543726e-01,-1.873756806209717074e-01,-1.002599588566625233e+00,-6.389677611574432481e-01,-8.536601005803415854e-01,-1.516217466456079688e+00,-6.178285685582095565e-01,-1.256105438415412667e+00,-5.610979565552917103e-01,-1.185306340998715013e+00,-8.549798018235267305e-01,-7.517280334678317910e-01,-5.352173030143275723e-01,-4.755167553807472802e-01,-3.501329585041605408e-01,-8.557674666483188197e-01,-6.433557915103380598e-01,-1.057737096747862759e+00,-2.452058091007612017e-01,-5.836763649635291484e-01,-2.714131235440089829e-01,-7.009385599073620909e-01,-4.611915337351384925e-01,-2.305288692224624347e-01,-3.140688128194752404e-01,-5.432545675534474761e-01,-1.045939784238861581e+00,-7.459808154425922044e-01,-8.821796773735240960e-01,-4.273956628388642653e-01,-1.025898049227108366e+00,-1.239914698718534991e+00,-1.140891560768552360e+00,-1.020456538904867427e+00,-1.188161786404286602e+00,-3.324286180966031790e-01,-8.936283083114421322e-01,-9.244036196921709969e-01,-4.123581283123723407e-01,-1.193789215697484307e+00,-6.034180181972894630e-01,-6.962705274789762200e-01,-8.754576416743767853e-01,-6.337059560231728117e-01,-9.918843530525153218e-01,-2.275319820361504652e-01,-1.009302843201761002e+00,-7.091155645042470645e-01,-6.467657337294724362e-01,-1.112096807720002856e+00,-2.052943599520750673e-01,1.171677384909096953e-01,-5.588955553843339974e-01,-1.976455340680634276e-01,-8.357404724919158534e-01,-8.002702738250782044e-01,-5.694508314372660474e-01,-7.932155689041688884e-01,-3.162327176204485224e-01,-1.105301839244505313e+00,-1.111884503360445420e+00,-1.400114331634427334e+00,-8.515908945061833046e-01,-6.298012119362152994e-01,-5.143231907236105460e-01,-1.981524604052669336e-01,-4.217124323127603436e-01,-7.679066502818525652e-01,-2.706482789307230741e-01,-1.149760830248479193e+00,-9.012256660929414132e-01,-1.196046771335576464e+00,-7.255643776526503608e-01,-7.536156701730342133e-01,-7.417141937742552926e-01,-9.622729372825242766e-01,-4.582899636113188513e-01,-1.072990284141563500e+00,-6.565351927546777544e-01,-8.029106945029634845e-01,-4.400369499679849250e-01,-3.920665710239946145e-01,-8.294461993894397533e-01,-4.167952289923075315e-01,-8.092626974299339804e-02,-7.132896559644860135e-01,-9.690501636678241493e-01,-2.745586564174793964e-01,-6.362974679048328808e-01,-1.348387452734690850e+00,-9.864545269180252651e-01,-1.026745034427055892e+00,-2.744342005275776653e-01,-8.798057177933454875e-01,-8.074863550639016507e-01,-1.033055580854933764e+00,-1.175995743570016350e+00,-1.198180079183207347e+00,-3.427144084658160228e-01,-3.768866222771177776e-01,-2.380822680132055613e-01,-5.641944571129614561e-01,-3.092911126555246137e-01,-9.768411279372066769e-01,-1.155742792584608519e-01,-1.084643535988810692e+00,-1.655859267981046601e-01,-4.279194432938882575e-01,-4.849379945350155707e-01,-4.839525210375801856e-01,-1.020690433567441158e+00,-6.934395866793188201e-01,-2.492031956701182271e-01,-1.701661943596774196e-01,-6.695290953268886458e-01,-5.503412027477228019e-01,-7.264968282040751291e-01,-7.210310826407724250e-01,-1.334944972369092042e+00,-9.878869801611547263e-01,-6.261842003732543960e-01,-7.134406516649997032e-01,-4.780759530808889046e-01,-1.272475736498754673e+00,-6.471971191572087889e-01,-5.455683347925912585e-01,-3.653630436263989867e-01,-7.940850933705508874e-01,-6.408170394359642419e-01,-1.049854393380903611e-01,-7.109166737667088620e-01,-5.167658190281912978e-01,-8.582255925997269719e-01,-1.822861841632658353e-01,-5.525250560878024464e-01,4.748313212024475594e-02,-7.374182059250768140e-02,-4.989167517564374599e-01,-4.871703048210366260e-01,-7.401448239748484870e-01,-8.610746518501638525e-02,-4.799523874435113746e-01,-3.697194864387234881e-01,-1.694522675306744663e-01,-6.218752255364734527e-01,-4.985053118371911007e-01,-1.309878395140554153e+00,-6.127110106107586107e-01,-7.143217011287759100e-01,-1.455701142316589536e+00,-9.575630977422981971e-01,-1.387603928478529758e+00,-1.203054277432690888e+00,-5.873811639180988031e-01,-3.976023102489400496e-01,-3.819091601878496500e-01,-3.832103682518047671e-01,-1.040861661049576614e-01,-6.153717549161772382e-01,-9.763427168284208868e-01,-4.169124829310936753e-01,-2.720747719260189768e-01,-5.628660440173133273e-01,-5.204240788106558879e-01,-3.072414265900796915e-02,-6.263698215245265821e-01,-6.732839517583451006e-01,-6.874703307696061749e-01,-6.119091485615655301e-01,-3.137232108078762960e-01,-1.908916283922728885e-01,7.894035508533506218e-02,-5.766230360349897666e-01,-8.890936889022812983e-02,-7.903512088474424768e-01,-1.113010171993935371e+00,-1.102746097441222872e+00,-7.864478273652246720e-01,-1.344762652836941408e+00,-8.391315401987579081e-01,-3.758947123397858858e-01,-7.870516990283314696e-02,-4.481257323699570083e-01,-1.887715079793746142e-01,-1.611253737049664625e-01,-2.527790203922150591e-01,-2.613380641836184348e-01,-5.643164945097446372e-01,-8.006722487321427106e-01,-2.939157469318194327e-01,-7.405327480138855778e-01,-4.218606117333401628e-01,-4.678650235657333956e-01,-3.329959890710298409e-01,-3.873475355270107889e-01,-8.079555535941605748e-02,-8.586308221868614865e-01,-7.306351472987687723e-01,-5.031145764659165076e-01,-4.782709815350580373e-01,-7.603408248084016739e-03,-1.402621951273993195e-01,-2.052138647896020740e-01,-2.566362434291636352e-01,-9.556398898714510981e-01,-5.793989696291852454e-01,-1.080025829121584513e+00,-1.156250792346709799e+00,-2.018763728063699969e-01,-5.124740264957169389e-01,-1.560459652952430054e-01,-1.034214678215661154e+00,-8.647543329071745166e-01,-6.808233739412141716e-01,-6.460512295421617646e-01,-6.814514629880069618e-01,-8.108188696083485913e-01,-4.262382487589401747e-01,-4.972849930827632353e-02,-6.436148912220077678e-01,-9.024856242524416094e-01,-3.208715480422205113e-01,-8.813686495440002933e-01,-5.509268697065993203e-01,-4.686774939277378871e-01,-8.800035016622892448e-01,-2.339788944122129788e-01,-1.010122543488950031e+00,-3.217284292030678783e-01,-2.648791528227023018e-01,-5.092733797878922219e-01,-7.038304089460327706e-01,-6.318475281347951666e-01,-4.511783601073149352e-01,-2.879067965183758626e-01,-1.050805142236316936e+00,-5.343870186609294137e-01,-3.834489808255292509e-01,-9.169761362553267015e-01,-6.870140696296311855e-01,-6.064996721149972236e-01,-2.765368768734478011e-01,-5.047816460895847568e-01,-2.603015328570871811e-01,-5.374456908281458611e-01,3.971783688670735973e-02,-5.780643975688336544e-01,-2.456328553016515204e-01,-4.519249609594018224e-01,-5.793530846091354825e-01,-9.531464355731059657e-01,-3.301248151506655515e-01,-6.463915752550053462e-01,-6.123693756783977760e-01,-4.006188544809712870e-01,-9.157125502338929746e-01,-7.968349766972639969e-01,-9.727853027129532704e-01,-7.118510485085401962e-01,-1.151004494857974736e+00,-1.221051659327948125e+00,-4.775867128263292516e-01,-1.064362187181519426e+00,-1.290620087549569028e+00,-3.849712662198700452e-01,-1.109799377620398264e+00,-1.017226541690073871e+00,-1.056462749230548503e+00,-4.228986566272389669e-01,-2.174113076509719411e-01,-7.713225635947136283e-01,-6.202759396460781893e-01,-6.372451834335428611e-01,-5.719438044154903089e-01,3.800721258749466583e-04,6.875718296459014736e-03,-2.876906575157815449e-01,1.083907953054361745e-01,-3.071095872457345055e-01,-6.531394196729808366e-01,-8.872988331752671431e-01,-9.550261288000116977e-01,-6.555064121498260787e-01,-2.322769275641528575e-01,-9.446147834697136147e-01,-6.391124161792308689e-01,-9.707860256915852304e-01,-6.713559217730010742e-01,-1.145711381236548254e+00,-1.226790546332076737e+00,-1.266244481203921302e+00,-2.998360662144822220e-01,-8.422615135720111779e-01,-1.122973511190762386e+00,-6.376447309022931220e-01,-1.827147342314332235e-01,-4.817877424434623412e-01,-8.331565205343371971e-01,-6.395336438579611871e-01,-4.884130075673208671e-01,-5.790486191230885815e-01,-2.103145503710897035e-01,3.520397537575754021e-01,-2.368405467939684872e-01,-4.565505798053084985e-01,3.000845077161356511e-01,2.236883469194697882e-01,-8.660867963100929989e-01,-8.384820213035056868e-01,-4.662985787301251461e-01,-5.703431560893725827e-01,-7.225541245531853507e-01,-4.414859886384132071e-01,-1.010976343866905935e+00,-2.033892060201816510e-01,-3.783418361843710054e-01,-3.388094026994012409e-01,-6.690540519980964218e-01,-1.113823740275557084e+00,-8.892684976193687696e-01,-9.215837395822357170e-01,-7.051967993718460948e-01,-3.752821883397873259e-01,-9.290402554296768312e-01,-6.789150280000680882e-01,-2.545540411729007579e-01,-7.002031861634449017e-01,-4.004253947556736248e-01,2.347514843611516466e-01,1.150212744265051296e-01,-8.729086295143625995e-02,2.266340428210678604e-01,-1.071699214167814718e-01,-1.714534746284533673e-01,4.817999333132372969e-02,-4.909979367981522902e-01,-2.707176089716752942e-01,-6.398845090738507491e-01,7.764343978867310932e-03,9.648082359416319809e-02,-1.551237377680416973e-01,-1.017575962318749000e-01,-3.140128919115368206e-02,-8.920985008783809400e-01,-3.293204288345116248e-01,-5.769256456574964886e-01,-7.033455374682672234e-01,-2.812805155480079811e-01,-1.870603808214787306e-02,-2.312830284804001379e-01,-8.214695772465523405e-01,-1.402145375424971620e-02,7.439683816176800857e-02,-8.758499034295957886e-02,-2.130203347383954893e-01,2.274214153985527620e-01,-3.057350413377288301e-01,-1.133420744542671388e-01,1.238526781611052480e-01
-1.887003751474124746e-01,2.564511080684181432e-01,-3.997953409182641860e-01,-3.400778148630039244e-01,-5.468393620203859662e-01,-2.633718181680637649e-01,-8.120053184347001407e-01,4.654736178910133526e-02,-4.607390339992058492e-01,1.172172390036582135e-01,-3.451810841535186691e-01,1.487780897948863812e-01,-5.152327201740061202e-01,-7.728375482955466280e-01,-3.014001550970888954e-01,7.389080679419401942e-02,2.252033514478008758e-01,-3.751487516973842085e-01,-2.094138134223747644e-02,-6.037475060658111792e-01,-4.222037567905513877e-01,-9.270728121435123023e-03,-3.469924037033966235e-01,1.031307679070629507e-01,4.751857559723430269e-01,4.799790036335175314e-01,4.524692669557004998e-01,6.365328327735696456e-01,3.640852584439389916e-02,5.226680117028906780e-01,5.809025957932707762e-02,-1.389158994651011891e-01,-8.040905523834541713e-01,-4.624920739176719420e-01,-3.921865920151984541e-01,-1.647454661506703444e-01,-3.067410584944431640e-01,-1.629073289158180227e-01,-2.908982907957742836e-01,-1.028626551788260457e+00,-8.462519866773948740e-01,-1.426183784571911917e-01,-5.163523722121415860e-01,-1.553383929228148164e-01,-9.905917776170608535e-01,-3.489111663264432006e-01,-9.577254052401920070e-01,2.284081371055125126e-02,7.310203568902819138e-02,2.824063642352475385e-03,3.174702816571186026e-01,2.633037286949784297e-02,3.597722613817188608e-01,-1.529796409899946696e-01,-1.968530777158978562e-01,-2.621917947031114915e-01,-3.020721254210165241e-01,-3.994150294424527736e-01,-4.289025391311928614e-01,1.443539236068538956e-01,-4.435900312848357063e-01,-1.267735425024333895e-01,-1.136850904091632142e+00,-6.106159766564336344e-01,-1.094841038516361165e+00,-2.496729648870120444e-01,-1.034924667746625948e+00,-3.609983900435517756e-01,-2.882711111337596943e-01,-7.274032848926968997e-01,-2.276391200331374653e-01,3.968991080336917859e-02,-4.588010418568226334e-01,-5.333050596988196945e-01,-3.849111708533262677e-01,-7.469927649247437573e-01,-4.021939967497640267e-01,-3.848625065435808401e-01,-7.753100550589003825e-01,-7.902290811629261169e-01,-4.235413747142887514e-02,2.170365351431169931e-01,3.314059725591989025e-01,-4.311141350527952082e-02,-2.739366478534720484e-01,-2.220121406826938149e-01,-1.312947622132622782e-01,-1.104017578209502082e+00,-1.731602883723605268e-01,-3.966427449106663117e-01,-1.040696018463277639e+00,-7.785211328142515042e-01,-3.565128720918526173e-01,-7.127898016561530214e-01,-9.120891744812308355e-01,-2.907323042000753421e-01,5.754288132820888080e-02,3.800019558295923972e-01,-1.053428335960127429e-02,8.417464588800366299e-02,1.565528281970402780e-01,5.483041292993524607e-01,-5.635116806886665275e-01,-2.836063985661643749e-01,-7.093911260423136911e-01,-6.499997152216129281e-01,-4.129835685591071170e-01,-3.187053094211504400e-01,-6.727231847498909012e-01,-1.380413880173649022e-01,-5.470755793406897188e-02,-4.841887801928168589e-02,2.808154857442600183e-01,6.419384291152224753e-02,-5.325898156721987631e-01,-5.823346995013833904e-01,-1.092185535017189846e+00,-4.094168780216513315e-01,-4.050959981775930641e-01,-7.385543657731349354e-01,-8.826376582690064199e-01,-7.088477784957751826e-01,-3.710551599860248406e-01,-2.462715616717411904e-01,3.610337037343549398e-04,2.143652735024240419e-01,2.333562625603910756e-01,-1.263585488583802152e-01,2.990590579626862255e-01,-2.574288575471677665e-01,-1.047583975643773674e-01,-5.236122226462758267e-01,-2.826139892554290767e-01,-3.580219909760687935e-01,-5.958984690385001892e-01,-3.349900834341679734e-01,-1.004341737696111680e+00,-4.215243932806514437e-01,-8.457459906465765176e-01,-3.326359857264170050e-01,-1.158953250472867097e-01,2.162262192448442255e-01,-1.168817081565022981e-01,-1.898922480769794641e-01,-5.483475849313300676e-01,-7.987928700723143649e-01,-1.051704289309835838e+00,-2.495248310627992683e-01,-4.053736363936443210e-01,-5.774033289546697256e-01,-7.265062030535800464e-01,-1.160919147553704178e+00,-9.903849366138579580e-01,-8.595772343171570462e-01,-1.461960989650561649e+00,-4.026827105275523344e-01,-7.013518352260220690e-01,-7.742932445268245756e-01,-8.655750485346724865e-01,-8.404873504451633170e-01,-8.404282102574645030e-01,-2.924834756669343339e-01,-3.926805038611014265e-01,-6.422940291208232289e-01,-1.087169603221576963e+00,-4.769005651043697891e-01,-6.455689670125155377e-01,-3.797072228489640766e-01,-5.046516821554576371e-01,2.106354768872267802e-01,-5.630396199855705053e-01,-1.098505670678590285e+00,-1.022160168524654633e+00,-3.150855032865185201e-01,-7.517420338670994795e-01,-1.277486319913216262e+00,-1.222145986403766704e+00,-1.619387589498608948e+00,-1.251342524473633588e+00,-1.307241612956028698e+00,-1.309355413034479998e+00,-1.971366789760604421e+00,-2.281507288790391108e+00,-1.359784049412903206e+00,-2.045201916779351148e+00,-1.427596642626192347e+00,-1.400361016925466107e+00,-9.691576650174920093e-01,-1.057791951730723934e+00,-1.217441633503859366e+00,-6.798765300770129860e-01,-8.545135713281896139e-01,-6.732673963030041397e-01,-1.139860905563808924e+00,-4.187683123303641564e-01,-1.415509684440275640e-01,-5.333203470109104671e-01,-4.420521248683885185e-01,-5.433790780087529582e-01,-7.276464593672232750e-01,-1.131940196151695721e+00,-1.243247508042777838e+00,-1.218096964688962114e+00,-1.261826975672685869e+00,-9.632995221617168813e-01,-1.340209231200829798e+00,-1.909658063219860313e+00,-2.070261310723994885e+00,-1.995443190048136417e+00,-2.223594916735477600e+00,-2.151970801385932219e+00,-2.078134138804165421e+00,-2.622576705378786510e+00,-2.417785100032499912e+00,-1.663530028189891707e+00,-1.368483917594259136e+00,-1.969131460200673533e+00,-1.369223279936961690e+00,-7.736952336792494167e-01,-3.585344116169211226e-01,-1.143227441523797294e+00,-4.171164738420499174e-01,-2.237274692125127973e-01,-6.351477226865155368e-01,1.726749981173361093e-01,-8.392921815377211159e-01,-2.636921756626121049e-01,-8.894508429638633418e-01,-1.214995301691759177e+00,-9.231405732763768857e-01,-1.397639293846755670e+00,-1.025176450024842145e+00,-1.654482852399132620e+00,-1.927798292926562462e+00,-1.353045166696781987e+00,-1.958755194356390561e+00,-1.767429960006381195e+00,-1.677270266260754372e+00,-1.820426035807660714e+00,-2.203640497153785738e+00,-1.927889893822884781e+00,-2.467487821949043703e+00,-2.096436945006069141e+00,-2.397915835699234499e+00,-2.346253408718730338e+00,-1.078595032770025108e+00,-8.197167251852528480e-01,-1.146152290690553466e+00,-1.034391807650731687e+00,-1.023551386981335742e+00,-4.890592556360986998e-01,-3.576078672891687404e-02,3.226492078826963539e-01,-6.374062098879634819e-01,-5.147724174383518925e-01,-7.271303121438030814e-01,-8.308082281108226663e-01,-4.802190561109974110e-01,-7.539414252506296821e-01,-1.284330333690502757e+00,-1.675659432524572168e+00,-1.219251366467397180e+00,-1.267567596786211448e+00,-1.144857280972731317e+00,-1.340443512030637274e+00,-6.481510011351568901e-01,-1.458507038513060516e+00,-2.149630179059765833e+00,-2.218349299788793694e+00,-1.819950171518170512e+00,-2.486535794472934047e+00,-2.600824027792972615e+00,-2.108969426268181291e+00,-1.345287580186095067e+00,-1.584925571331591287e+00,-1.506277820460996564e+00,-1.248839686226721035e+00,-1.115000521959334190e+00,-9.042327232654682190e-01,-9.231018332788501479e-02,1.360790075539722865e-01,-9.407346923718767906e-01,-1.138128113681656339e+00,-3.376234852980486978e-01,-9.582800634622761216e-01,-1.245969817839262639e+00,-5.647335294569997277e-01,-5.395325676378934787e-01,-1.488020537450704506e+00,-1.216952231501828408e+00,-1.225574601046938161e+00,-6.529989297657996516e-01,-1.061222253795869097e+00,-6.143725192029750870e-01,-1.039789428703588703e+00,-1.078313247586505597e+00,-1.846734661448496517e+00,-2.349294845555199629e+00,-2.179803230231156963e+00,-1.396341470281096342e+00,-1.595185599746230531e+00,-1.740000681313918607e+00,-1.613280162263884598e+00,-6.663795785803778848e-01,-4.113306466509962234e-01,-9.275494892211444409e-01,-4.081252690956024831e-01,-1.812657904810642262e-01,-6.202142566805097790e-01,-7.053945989232029978e-01,-8.967128379761033496e-01,-5.515141384563624349e-01,-5.592515857520345968e-01,-9.175921743600994329e-01,-4.320309796134563229e-01,-4.136923813463008193e-01,-5.150959704875220924e-01,-1.001160752414529620e+00,-4.760085655445882580e-01,-8.084391793554180916e-01,-1.544634733198841703e+00,-1.799465909934834240e+00,-1.446158184853373552e+00,-1.365575841372528743e+00,-1.227015008943834085e+00,-1.597223706391561526e+00,-1.418198488634604182e+00,-1.507964591204070448e+00,-1.500320972831324484e+00,-8.769885032401756320e-01,-6.786308289211495648e-01,-1.367823671711063227e+00,-3.536912201026846114e-01,-5.687430188014364063e-01,-6.092094539841333978e-01,-7.593176278109046162e-01,-6.959574583854883922e-01,-9.705430360802828060e-01,-2.531225140368706383e-01,-9.335574876369722164e-01,-6.154059839378811514e-01,-3.544774822186808616e-01,-4.589904218735159636e-01,-5.182708734548209240e-01,-1.535432460716623926e-01,-8.914311298583380561e-01,-8.323157233301382574e-01,-1.176552488397683227e+00,-2.090728475995448310e+00,-1.846360744584404578e+00,-1.693103714507669277e+00,-1.894081617093837044e+00,-2.023523786366312027e+00,-1.372507623191501214e+00,-9.025406012786177934e-01,-8.843346216534155868e-01,-1.128429509462241631e+00,-7.651331591559789036e-01,-3.052987812151444214e-01,-1.194811983478550665e+00,-1.136657908782699122e+00,-6.754683679862827361e-01,-4.912075252790595870e-01,-9.227593544236708523e-01,-4.553746622259620125e-01,-5.016861627317996675e-01,-1.105809433513258888e+00,-1.044515556803987888e+00,-2.390281442711545690e-01,-8.260155108082074538e-01,-7.505247582660147243e-01,-5.820280241845336988e-01,-4.006155075050439607e-02,-5.820873266082765563e-01,-1.183004855344058859e+00,-1.901280341896665727e+00,-2.645443418361871135e+00,-1.978543820634860895e+00,-1.021539188175001556e+00,-5.785426563777000819e-01,-8.984853455092987051e-01,-7.454041104424364850e-01,-9.832872112864856629e-01,-4.162530022518720063e-01,-2.451484565645410951e-01,-6.277548607698220096e-01,-7.659236470389709783e-01,-7.687241951807893825e-02,-1.844291109127187411e-01,-7.727631116906711339e-01,-2.658507658506434890e-01,-2.343800313026550008e-01,-7.719872402331499073e-01,-1.015078459128876620e+00,-7.052364299272453341e-01,-7.586550167551596724e-01,-6.540488624640957704e-01,-1.477067580062405849e-01,-8.350144834714947617e-01,-3.619882396991574991e-01,-2.842901994047444814e-01,5.402595798913616409e-01,-1.422879585118588808e-01,-1.132115866965305528e+00,-1.773150592225476441e+00,-9.558894616527513488e-01,-3.562160751946820691e-01,-1.520176503632797715e-01,-7.378151841629503327e-01,-7.422629310199195807e-01,-1.193515804697895311e+00,-7.260020272694861498e-01,2.276208403781334044e-01,2.751504190822482432e-01,1.475388394650661017e-01,-8.187570266858171797e-01,-8.980375856945945756e-01,-5.767103390053827106e-01,-1.032418361074394442e+00,-1.052762576691705476e+00,-5.913209940157192201e-02,-8.407715234109944813e-01,-1.084476591966090364e+00,-6.227973220973304080e-01,-5.956762658281391509e-01,-2.982803965847708461e-01,2.293316316352734252e-01,3.667559675597812374e-01,6.373950497307017127e-01,9.841878650296674858e-01,9.286475451119423630e-01,1.997435348997564641e-01,3.697166058219990281e-02,1.712854051459386240e-01,1.322688009120199126e+00,4.132210163893403343e-01,-4.708039279979551323e-02,-7.047367802462685127e-01,-7.480283814551409449e-01,-3.262408890059337874e-01,-5.442059286169894650e-01,2.316470853268216140e-02,4.750563827269395356e-02,-6.453925507618377688e-01,-7.650058118621321235e-01,-5.812614499220789543e-01,-9.027967129308596128e-01,-8.179820320536624889e-01,6.720119287360508398e-02,-3.886901078053467407e-01,-3.096884417698514969e-01,-6.957644934078187626e-01,-3.267845309686756572e-01,-3.227473493941208083e-01,-1.041527567261393838e-01,-2.241710757109799113e-01,9.393707959941066665e-01,1.500393900712570838e+00,9.175482105949985812e-01,5.505095867363674067e-01,6.759589318972382133e-01,1.442586572213812701e+00,1.266599632308976098e+00,6.876855645327781819e-01,-2.465535426511090145e-01,-1.291422003576865096e+00,-1.277183265883878427e+00,-2.068752146763182531e-01,1.206089122259975943e-01,-3.554837953957296626e-01,2.152604438093359274e-01,-6.744903489876997726e-01,-7.468758015419322271e-01,-6.562434458983833485e-01,-1.013344765616188692e+00,2.587772981176912346e-01,-2.276480211149088662e-01,-6.052938619234762285e-01,-1.167711255767875489e+00,-8.550056600567886855e-01,-4.749233875606716504e-01,-4.892986109004862083e-01,-8.326844713509541640e-02,1.695844279338288019e-01,1.112641604065553347e+00,1.096175283156393787e+00,1.082073982937288958e+00,1.044735083494270578e+00,1.374421913558693031e+00,2.086981910745502322e+00,1.798709478636855152e+00,7.504602432026044045e-01,-4.133681360557134310e-01,-1.114125376612109530e+00,-8.831664422711782425e-01,-3.774851783912442360e-01,-6.070124616280589969e-01,-2.922798559962055953e-01,-2.429708752556963280e-01,-8.099779632570121291e-02,-8.991458297871174343e-01,-1.944084763283449591e-01,-1.521675929808438132e-01,-5.007510809082988956e-01,-8.472802578480893576e-01,-9.638203943399751283e-01,-5.988668658164351122e-01,-9.541385452438421177e-01,-7.258217980493594235e-01,-1.113161815016056266e+00,-4.755483859269453717e-01,2.339469085530097581e-01,1.988673130277527623e-01,1.204229721646693285e+00,1.681350701340556197e+00,1.273635101248608015e+00,2.058266294437107291e+00,1.741811928893569839e+00,8.820661354791841102e-01,3.690284564705104825e-02,-5.064355297252122190e-01,-9.709306057913221766e-01,-6.529672251939611094e-01,-8.975000106341959327e-01,-6.292204933400075140e-01,-8.650150135117083972e-01,-1.527731820490411951e-01,-8.362602966574215202e-01,-6.761271475437015122e-01,-8.259203527939867895e-01,-1.081306121344197901e+00,-6.041882154964989780e-03,-2.535239173391272138e-01,-6.811431378672637704e-01,-8.750601625857099553e-01,-6.448504701303302555e-01,-1.410503327375632443e+00,-1.065182667094608515e+00,-1.162314261952580141e+00,-1.249422347005354039e+00,9.214712145685713396e-02,1.078858819495365912e-01,1.133627119927463012e+00,1.876556274214188580e+00,1.423228343349133285e+00,1.826889180073564933e+00,1.233332313937504754e+00,5.526441883396111532e-01,-5.503843239652422836e-01,-6.041889461707063980e-01,-9.213845774899707131e-01,-1.065062640052862442e+00,-5.716766806608309937e-01,-1.719725737349244443e-01,1.126900261823104770e-03,-8.400316639583385037e-01,-1.621101622556117283e-01,-2.010839432288147877e-01,-4.753704559039350630e-01,-4.225689474170119531e-01,-3.051881681129115509e-01,-7.422022405909687315e-01,-1.138346864751422771e+00,-5.353392734484282434e-01,-1.017308933679653915e+00,-8.271773682473686495e-01,-1.149701830737918096e+00,-8.466134006698252668e-01,-1.456048693351751799e+00,-4.611859878288985248e-01,8.297079554999923223e-01,1.276968995891974767e+00,1.508530484766519963e+00,1.271770539043862946e+00,7.663180317876124859e-01,9.961748407758036494e-02,-6.353987115349175596e-01,-9.679795885799290511e-01,-9.534391631553915669e-01,-1.187314725474061916e+00,-1.114899641473373837e+00,-2.351523127736590557e-01,-9.423006349821101413e-01,-2.319236226852713356e-01,-3.976690871935182336e-01,-4.059863401558853613e-01,-4.023569780209720337e-01,-6.125845769373383654e-01,-1.992976088911571075e-01,3.185129460947946217e-02,-4.193478410166651682e-01,-7.628563410609842110e-01,-1.152707043326031133e+00,-1.197010661369891871e+00,-1.667219356217645831e+00,-1.459669317505943420e+00,-2.109476743644708385e+00,-1.884451372547389481e+00,-1.004103575007163851e+00,-5.180403715140993182e-01,-4.808319664844190044e-01,1.639928895293993605e-01,-5.002643951203528117e-01,-3.612241620985349733e-01,-1.625823398807057618e+00,-1.155497604302558212e+00,-1.622404302801409681e+00,-1.446333982421257991e+00,-3.876377758405092355e-01,-1.426791324783898141e-01,-9.826576092546152053e-01,-1.704234512936931567e-01,-5.491917969722872606e-01,-5.886686648669711142e-01,-6.992391274101616983e-01,3.479991839210974658e-01,-6.833992660505943117e-01,-3.626883236176391412e-01,-3.411944760979943037e-01,-7.646163350398059722e-01,-7.097959811006723241e-01,-7.829782336729479431e-01,-8.690877158083185616e-01,-1.802189797808498195e+00,-2.595587722995913449e+00,-2.576839724740955795e+00,-2.378534025679122532e+00,-2.331477770442670128e+00,-2.328828441881146905e+00,-2.720859562944861754e+00,-2.404904553565456737e+00,-2.250660482130876883e+00,-1.941269207290228671e+00,-2.047162224724251356e+00,-1.597235461122484157e+00,-1.577330884378508546e+00,-6.857066865097337649e-01,-1.550055963411366700e-01,-7.576607326018267585e-01,-5.474017948246862053e-01,-8.969695566055003733e-01,-2.049577463177861825e-01,2.201253148309644248e-01,-4.813985105221535443e-01,-1.078413818812362923e-01,6.840929454527827636e-02,-8.333846382004240771e-01,-5.905522779406916500e-01,-9.819375021269481918e-01,-1.097568631266457428e+00,-1.351461031485095221e+00,-1.729606840706530813e+00,-1.492210200812115195e+00,-2.541520551909079551e+00,-2.350871092173922428e+00,-3.107319614094282922e+00,-2.672492455350274465e+00,-2.613648616621614185e+00,-3.106369566922807746e+00,-2.480769032813767705e+00,-1.647983695749930089e+00,-1.689585350492759819e+00,-1.152263537673383409e+00,-6.725756937254530055e-01,-2.391504772656929123e-01,-5.504944509870201008e-01,-9.383462879138121382e-01,-6.039183939632076781e-01,-2.576847662571109532e-01,-2.663724305946396087e-01,-6.231028023063027721e-01,-2.571276194036780094e-01,2.005800402764202073e-01,-1.699867002743989941e-01,-6.646695323958491664e-02,-1.110020126817547137e+00,-4.690731730561346624e-01,-1.223246025335720688e+00,-5.523571811829979250e-01,-1.444459846476765064e+00,-8.334182754527158510e-01,-1.646393071661161667e+00,-1.709261141704480513e+00,-2.131133945000164509e+00,-2.064446669637296505e+00,-2.489985499302122207e+00,-2.251315170284239109e+00,-1.546805436337848283e+00,-1.045756549974910410e+00,-1.027986087683557814e+00,-9.900511170414353357e-01,-1.202068758077827093e+00,-5.646257448678989599e-01,-1.086555671234123999e+00,-8.506017888258909920e-01,-7.372456447703616966e-01,-4.591063890993881680e-01,-5.744407907303492600e-01,-1.620218146102153645e-01,-2.476856129075096641e-02,2.036961805427559558e-01,-5.924133912740479901e-02,-5.126274862298000334e-01,9.986821943642877619e-02,-1.086115476778253680e-01,-8.186966468384460072e-01,-5.494059537451899677e-01,-1.223663856332912747e+00,-6.532413205064981909e-01,-1.161067242185634285e+00,-1.290980587025114090e+00,-1.202248516933173805e+00,-1.065675220350415620e+00,-1.678041970941632099e+00,-1.148970498862766698e+00,-1.265101974714007760e+00,-6.218923062825215675e-01,-3.957141638166942754e-01,-1.260782490780747445e+00,-7.191788141876499507e-01,-9.694359862402449624e-01,-6.607362944630424950e-01,-1.366645336476315920e-01,-2.129595734666715756e-01,-1.991370810023085358e-01,-5.338305115106357635e-01,4.111610217106168030e-01,-1.634869027298491428e-01,3.207458127060550668e-01,-4.523988805696613213e-02,-3.424706074130844796e-02,2.520315230610378765e-01,-3.277414024110953950e-01,2.463185737760970884e-01,-6.861599167187357740e-01,-3.489936961954113182e-01,-2.580164598206407534e-01,-5.971928604181435674e-01,-6.386157886605442480e-01,-4.256922075750607104e-01,-9.064781135815531687e-01,-7.112253427039445519e-01,-7.363346566148049055e-01,-8.203039190799600311e-01,-1.272530203438291485e+00,-8.509911971352491777e-01,-4.863611033534117056e-01,-5.638530998648443315e-01,-5.032085742234654324e-01,-5.102788223693507375e-01,-6.339581077272795628e-01,-5.277807388204897032e-01,-4.189284925700325068e-01,-2.959592327389415356e-01,-4.946482823233357834e-02,4.880112936233085841e-01,2.476490130752951602e-01,-3.615128996767695280e-01,-1.113695750560352443e-01,8.438464572719298062e-02,-3.835790682132947937e-01,3.251938873952630454e-02,-4.894373521188031262e-01,-3.515931385742597781e-01,-1.518617251418588887e-01,-4.874411428437106508e-01,2.289863532220105802e-01,1.409768061774269998e-01,-8.854986872489297722e-01,-1.822062767724945687e-01,-6.924252415925954418e-01,-1.100147327293379829e-01,-8.370267013054928373e-01,-2.800047704235029133e-01,-2.744428226683995886e-01,-4.438774131101357878e-01,-2.555361763263805930e-01,-8.879912897161496010e-02,-3.779484529898745060e-01,-8.300112773379434428e-01,-6.156000764729322450e-01,-1.437121178106015584e-01,-1.023786356680723431e-01,-1.604967660789677689e-02
-3.844751455567492759e-01,-1.537790049870227382e-01,2.437850316556963159e-01,1.567776726397751286e-01,-7.262459348287906291e-01,-4.453654002483919960e-01,-6.820526987482279369e-01,-3.832214939164513834e-01,-2.402523508567632748e-01,-7.194966863117491229e-01,-1.189691255513012774e-01,-8.615758947756795294e-01,-7.508264189574688219e-01,-2.175776439981304544e-01,-1.016163122059009272e+00,-5.672157404269070335e-01,-3.827211565199713506e-01,-7.957848546713013338e-01,-2.564677476418378288e-01,-1.714757018849051018e-01,1.645593591361496763e-03,4.852702071912562420e-02,-5.150967929890818420e-01,-6.742104678455065336e-01,9.014186895223604001e-02,-6.101308893153376683e-02,2.380959706552364663e-01,2.731738660358218884e-01,-4.522073235287044635e-01,2.666917776934172313e-01,1.323740453348714596e-01,-4.258128722311799175e-01,-3.942455623845983470e-01,-8.751219898003752551e-01,-6.037179783332079497e-01,-7.115726132199871046e-01,-5.151353394770807892e-01,-5.344606573618603251e-01,-4.021251485475305643e-01,-8.806668920971167935e-01,-7.151103048182213540e-01,-6.570280390367626566e-01,-8.073074954497637679e-01,-1.050424559915623224e+00,-9.372463465663269933e-01,-6.319176944185475042e-01,-7.866388794621181901e-01,-1.424147849070242500e-01,-8.471323881448390436e-01,-6.273315661573828361e-01,-7.787490389637633514e-01,-6.886809106912380463e-01,-1.636192554251875153e-01,-3.866537302880730942e-01,-4.274626145402782851e-01,-3.372045482185126453e-02,4.287914600851931990e-01,-6.286055512552293223e-01,-6.535461049817873347e-01,-9.402544253435035637e-01,-1.208445299843251275e-01,-8.845776335747407293e-01,-6.217596355378559592e-01,-3.281351179397887785e-01,-7.961540109549043454e-01,-7.803636809149960829e-01,-8.718510542226970417e-01,-6.401818875032642131e-01,-6.367911480301162719e-01,-8.133080059137959283e-01,-7.649110722104468518e-01,-7.887672133000112051e-01,-3.172684816621395565e-01,-8.569299938270806827e-01,-1.085438833429737349e+00,-7.698075133351135468e-01,-7.947440251316396642e-01,-2.732616957059952334e-01,-3.744308515088156097e-01,-5.247701348548464706e-01,-2.159945411174029328e-01,-6.201676210424400537e-01,-2.659525346294243087e-01,-3.868313531303533281e-01,9.693915849376152916e-02,1.803398394617473643e-01,-8.623482678881302932e-02,-1.065151968856537179e+00,-6.028120262710768840e-01,-1.177976472840581712e+00,-6.914708461419579733e-01,-5.366182889918107435e-01,-9.778256111235058556e-01,-1.730791669570360680e-01,-5.196125886312321640e-01,-7.288420635727155261e-01,-1.874348529964474375e-01,4.676781529003574966e-02,-6.394507695862633456e-01,-6.883148000364817110e-01,-4.134193738688396458e-01,2.821064537302301126e-02,-5.547204995960459684e-01,-1.492585189929719613e-01,-2.115041072768895081e-01,-9.383129392426458049e-01,-5.786180346112991257e-01,-5.168185272900448490e-01,-1.222396717598057014e+00,-9.310341303899725141e-01,1.462825716139426191e-01,-1.841552126222880947e-01,-7.240176719779137793e-01,-5.267298792753225545e-01,-5.656626820069170503e-01,-3.215089310805518408e-01,-1.208621856968353780e+00,-1.246009339888972223e+00,-5.011680475296921289e-01,-9.535878171008764781e-01,-5.925909992335539611e-01,-6.398788585887262015e-02,-7.950557246021719426e-02,-3.089179812834482175e-01,-1.974781232147597709e-01,-5.464346772776591532e-01,-2.132762436273532292e-01,-5.359756072536495664e-01,-4.299344357764278701e-02,-2.721764823518540988e-01,-8.692887036281350677e-02,-4.305183542821413023e-01,-9.069809841234316439e-01,-3.949480818292084860e-01,-3.371785646190139651e-01,-5.750399040530911332e-01,-6.518097837274371420e-01,-5.216223734899890774e-01,-8.995463376071638484e-01,-4.703201318547460819e-01,-8.232215225573317197e-01,-6.096226607543182574e-01,-6.872123573205514147e-01,-8.716404206758979756e-01,-6.088215242916974468e-01,-8.745668308097750421e-01,-1.019704040467209971e+00,-1.140933086597468504e+00,-9.427170639737235680e-01,-5.916544485865039560e-01,-6.530296213484555468e-01,-3.790742834498349589e-01,-9.791103829127891789e-01,-1.058915167301697213e+00,-6.363027024531416886e-01,-1.378642543695100420e+00,-1.252211826652700477e+00,-6.642786241849848450e-01,-1.102803391523452747e+00,-6.296686393445463104e-01,-1.162881544698748604e+00,-4.032973828483026324e-01,-2.527119455934521142e-01,-7.760300423447694662e-01,-5.636438593343688908e-01,-8.710693754222562646e-01,-3.556325704639976548e-01,-6.359555006095677365e-01,1.269133412203089784e-01,-8.369216965600353442e-01,-6.763572165940403558e-01,-5.191425783690842843e-01,-9.847082404433979974e-01,-1.237500862265080714e+00,-1.245946441395263893e+00,-6.390019464913264668e-01,-5.692422380050932151e-01,-1.047882795912308040e+00,-4.769760481831005761e-01,-6.526061704690480081e-01,-1.806120656270777669e+00,-1.918376431684899242e+00,-1.485795145109133131e+00,-1.806607664711794126e+00,-1.452225785827412130e+00,-2.297667777934717659e+00,-1.436783165203308732e+00,-1.380796472804708852e+00,-1.468624273974686423e+00,-1.083859092655743428e+00,-1.015110780571524929e+00,-6.713226845044788504e-01,-1.084377985721306281e+00,-1.270693947737848717e+00,-9.107656858329060690e-01,-2.796480613107633073e-01,-7.913365994296618355e-01,-2.767946368773314611e-02,-7.898355298846890804e-01,-4.571715822375951865e-01,-1.160364112267369352e+00,-3.517579927145308982e-01,-7.250277497109487435e-01,-9.529887935734916438e-01,-6.522365447656680582e-01,-8.455506915110913013e-01,-1.872128008846333236e+00,-1.952656414483098013e+00,-1.594218712210283551e+00,-1.895969955048432132e+00,-2.571599704024080335e+00,-2.079272874891293643e+00,-1.833507956182677257e+00,-2.424413025850243208e+00,-2.185211536484497952e+00,-2.526244725447794881e+00,-1.909822276382976636e+00,-9.572977806980469406e-01,-1.015919254314692655e+00,-1.091985247843519247e+00,-1.294995694092590854e+00,-1.010046064461412429e+00,-1.034180249530940010e+00,-2.214314519523801761e-01,-4.869358977085950779e-01,-5.749780726022530875e-01,-3.845657519574180450e-01,-1.085680640635392269e+00,-4.925945102943143916e-01,-4.853669859054610125e-01,-5.724667097081211908e-01,-7.492807817744174814e-01,-1.565441936428472403e+00,-1.618628581446339254e+00,-1.365327061540550169e+00,-1.964399745758882432e+00,-2.435010479620252521e+00,-2.654084925078282531e+00,-2.304760564911335852e+00,-2.319550940933656324e+00,-2.485943616881275631e+00,-2.558630261169668074e+00,-2.678728418919816612e+00,-2.720063740674940167e+00,-1.940540847294613958e+00,-1.697078643440613543e+00,-1.051670823823117384e+00,-6.973339247057595003e-01,-4.924418255938756706e-01,-7.499701571744968875e-01,-8.531450523475981873e-01,-8.511585563117811670e-01,-2.166511406036533138e-01,-7.086544465896401634e-01,-1.140499528370203519e+00,-6.103648012941488288e-01,-1.217652284015776853e+00,-6.265590608339410839e-01,-1.066882142608466255e+00,-1.359998815005461159e+00,-1.324343017885925011e+00,-1.210030932821928085e+00,-1.744256460479805870e+00,-1.632983813577333576e+00,-1.793165309800232032e+00,-2.657138805536747750e+00,-2.319021884308951620e+00,-2.238495425794551075e+00,-2.366677851261624888e+00,-2.400093112571136889e+00,-2.336514069962185136e+00,-2.375106083665629253e+00,-2.198201023010493582e+00,-2.642933157948014866e+00,-2.057067035668745270e+00,-1.610614093883610209e+00,-1.083171115695944708e+00,-8.671614859459281233e-01,-3.704286233979547371e-01,-5.948482773677556956e-01,-2.237256827909433199e-01,-6.970983488422342056e-01,-9.947149853382688534e-01,-9.589939109135751094e-01,-6.333567103852090208e-01,-7.331857016461823529e-01,-1.327637257612600541e+00,-1.566528729498037231e+00,-1.651166568284710312e+00,-1.676415720088313188e+00,-1.738953128248956093e+00,-1.871706728356778093e+00,-1.970022935387430785e+00,-2.090710063094462612e+00,-1.623786306884626107e+00,-1.342000625556327265e+00,-1.521179100746947066e+00,-1.515383330849731536e+00,-1.705940307535218192e+00,-2.151036222264982811e+00,-1.722379741005864107e+00,-2.282883121949242256e+00,-2.045100540772450071e+00,-1.679681481960199951e+00,-1.191247607584065227e+00,-1.253710604008605012e+00,-9.321940192173070461e-01,-2.109185475918947950e-01,-4.691769564772394485e-01,-8.044894209212668512e-01,-5.541730917060269102e-01,-1.115598147431196896e+00,-8.727054537941815182e-01,-1.262143258983307037e+00,-1.523124522644124124e+00,-1.538408861474730438e+00,-1.104587723352814077e+00,-9.946896891167467114e-01,-1.960980597715701990e+00,-1.864541704773087893e+00,-2.244696586640400060e+00,-1.719692416632875753e+00,-1.518262240910244643e+00,-1.155346474898726994e+00,-1.272175589914446681e+00,-8.532164530977696115e-01,-6.029947686321555089e-01,-1.630246140731072657e+00,-1.513876964601141184e+00,-1.975206420688696785e+00,-1.698913402343464440e+00,-1.893534809796264984e+00,-1.395761633321868311e+00,-4.776104534777164123e-01,-7.181968555862152659e-01,-5.440221335364117117e-01,-8.008496393380727385e-01,-1.150358703528364890e+00,-5.295860910508610742e-01,-9.082427944935594910e-01,-1.211039442962358548e+00,-5.116702052848907112e-01,-1.202387618880899067e+00,-7.394274472578662438e-01,-1.194184629408143516e+00,-1.282506574430746005e+00,-1.669296892712905489e+00,-1.210842335259289415e+00,-1.256412569321210038e+00,-1.682877901620162264e+00,-9.368670971675837622e-01,-1.536968071514556444e-01,-5.059968940618365663e-01,-4.940148060252077533e-01,-6.282734596056090970e-01,-5.344516257367716294e-01,-1.432822961579929721e+00,-1.571873834800560754e+00,-1.797622791021487032e+00,-1.551198618669647367e+00,-1.361320618820950346e+00,-8.377438782623963798e-01,-1.238400968122522094e+00,-6.288686646348725651e-01,-2.394557000900630339e-01,-5.906109686253707691e-01,-6.049728122090503035e-01,-7.209584028814536305e-01,-3.727319585554104142e-01,-1.243407291416222415e+00,-9.269281613853201929e-01,-7.286830814173760329e-01,-8.833628962680954988e-01,-9.560439579665968024e-01,-5.207285793326675849e-01,-6.458715878840400881e-01,-8.506758588356531092e-01,-1.006719585294435282e+00,1.962808026162216612e-01,1.943549475338883226e-01,-1.248660661990288745e-01,3.446114104274498047e-01,-2.425137212283791921e-01,-5.247883595485078878e-01,-1.422373811901121332e+00,-1.259783075949401088e+00,-1.602244218030675293e+00,-1.542107870038621265e+00,-1.132057504063198827e+00,-1.260785291366013583e+00,-1.252789246948882607e+00,-3.177606021871591246e-01,-2.291938471147149936e-01,-6.575992351590860263e-01,-1.037340110400167381e+00,-1.134816589615246230e+00,-9.379165156993616304e-01,-1.363271790299840802e+00,-1.028837438381895009e+00,-6.078828176311131815e-01,4.964548158149973550e-02,7.307326936357656788e-02,2.885152100588814772e-01,-3.820413312118655647e-01,-6.288007316510003664e-01,3.119634084637641913e-01,6.115247350315188291e-01,7.983141167173108954e-01,8.378389138508944844e-01,4.820380327497936768e-01,4.439379273706740014e-01,-5.950341845893959425e-01,-4.851764336496336982e-01,-1.301344778847523420e+00,-1.171382215665287108e+00,-1.456567702902891837e+00,-7.240208324485398750e-01,-3.401797748139599453e-01,-7.001464574932989571e-01,-1.039266968189142881e+00,-1.655772319835434325e-01,-6.790854326538704466e-01,-5.033938618680974253e-01,-6.118470076987279072e-01,-1.302577675597336837e+00,-1.420804555598752517e+00,-1.043719125237708489e+00,-3.320196415588215211e-01,-1.105381364432893310e-02,7.430411519252673180e-01,8.747574985569226413e-01,3.400986505790413172e-01,1.089620609713846111e+00,1.954312218266357704e+00,1.849342720624178815e+00,1.098872675784341668e+00,1.718108831245150625e-01,2.487721526292882915e-02,-3.602771266618031154e-01,-4.694525848285881486e-01,-1.261545657799145514e+00,-1.396301780120414060e+00,-1.586793181454736690e+00,-1.148179019895261055e+00,-7.016581023967918274e-01,-7.612431750416386311e-01,-2.581642027846303145e-01,-8.432678258291478324e-01,-4.313902825155018633e-03,-3.614520852049009081e-01,-5.001176615298177364e-01,-7.348850024738815545e-01,-6.476156233090344383e-01,-7.944465543389783724e-01,-9.687642961983411460e-01,-5.232853216950366093e-01,-2.718459672037277786e-01,1.013124669098496744e+00,8.439898460974289973e-01,1.359966358777525253e+00,1.942482815885266056e+00,2.367939780052151555e+00,1.440224277672767172e+00,1.055160629064938682e+00,7.661721737971097790e-01,-1.651932986257930169e-01,-1.959880254108167796e-01,-5.631434904610946868e-01,-7.529797757947839232e-01,-8.842513939979085302e-01,-1.366789488987397716e+00,-1.079423617384405842e+00,-1.030335359601575185e+00,-8.629969207078774796e-01,-3.520625884768445735e-01,-6.859933007831989227e-02,-6.991066382647794786e-01,-4.510102248159556515e-01,-5.157696565448256498e-01,-1.010525253740395923e+00,-7.119964935299664122e-01,-7.682937129829324752e-01,-1.360673662748951518e+00,-5.941896982909891101e-01,-4.558467499101429565e-01,4.098434134656681049e-01,7.313799796105194817e-01,7.158438783754345058e-01,1.264895260951356404e+00,1.167933568813871670e+00,1.358571819689048388e+00,9.883905683859143254e-01,4.390574640913003091e-01,7.971190502222479102e-02,-7.164510541193178650e-01,-5.789946783172330580e-01,-5.936009153419170570e-01,-6.549775763661671579e-01,-6.595614784280535714e-01,-5.326295803367793180e-01,-3.289316323215713544e-01,-4.845731272712356374e-01,-5.417499803702392480e-01,-2.851244583216663298e-01,2.813617278327676255e-04,-4.220960917100921028e-01,-6.315118052922409353e-01,-1.085497892586989144e+00,-9.077484795502103188e-01,-1.295661551719183624e+00,-1.225567812222656983e+00,-8.157037727912003211e-01,-3.494294712177267170e-01,-3.658381671212060926e-01,1.528171400799427093e-01,3.419840200280669373e-01,1.102738493691783006e+00,1.359531915592177453e+00,2.501671037955528476e-01,5.609422568009910792e-01,-3.918636553098813757e-01,-6.821160083179723665e-01,-9.922936720461041915e-01,-9.352616030587390661e-01,-8.570113000658202695e-01,-1.291692139495518532e+00,-3.666721031560867816e-01,-1.050482205166234584e+00,-9.428597344031466321e-01,-9.425772428243539558e-01,-9.784039430121688197e-01,-5.673842482513785646e-01,-7.891041226995134661e-01,-1.111478274372794006e+00,-5.905425786282207934e-01,-1.258533515082766119e+00,-5.272173069712879911e-01,-1.732490009536635789e+00,-1.404908971915106219e+00,-1.909476205197690346e+00,-1.018981560835038547e+00,-3.040623513780990606e-01,1.948215071935551768e-01,1.893204298959418608e-01,7.507171497712566977e-01,8.740076699076604339e-01,8.909471379279011380e-03,3.788320013160173527e-01,-4.662822737286415609e-01,-8.111083999380837017e-01,-1.220974471892090740e+00,-1.371255726240141026e+00,-7.057652157563629736e-01,-2.614356711997408711e-01,-1.129603334297697881e+00,-4.666661758512176683e-01,-2.882843378502522036e-01,-6.371827473040477807e-01,-8.647795093760073382e-01,-5.157737446387978819e-01,-1.375728987513288037e-01,-1.041265572346062651e+00,-3.967736559754195813e-01,-6.423313391092039248e-01,-8.696844456742678364e-01,-1.672132856224245900e+00,-1.194832154383175693e+00,-1.617061850196005013e+00,-1.984214387347887465e+00,-1.757225063052341163e+00,-1.377793784947731970e+00,-5.952969913751251507e-01,4.359730898306827390e-02,-1.066452632864650363e-01,-1.757583644428549752e-01,-3.753119166453731115e-01,-7.572022297215885711e-01,-8.095120792391391484e-01,-1.297661951245863809e+00,-5.222411366484345230e-01,-1.155261798170210463e+00,-7.548117234790897578e-01,-3.728674965654703022e-01,-1.608932521109212588e-01,-4.115421397698055261e-01,-3.277778722821003132e-01,-1.373742589740747644e-01,2.996741756885440769e-02,-2.662403486810950293e-01,-2.970664124531872119e-01,-1.187705061264215711e+00,-5.264847360940526633e-01,-6.954180676314682952e-01,-1.414227718748943152e+00,-1.171667869733391543e+00,-2.399260175049777732e+00,-1.829226949787489787e+00,-2.342864939132386581e+00,-1.808047536485182682e+00,-1.308022635061406369e+00,-1.865690432718452696e+00,-8.663871567562988485e-01,-9.552548561489719869e-01,-1.405253604815567270e+00,-1.797890930395166675e+00,-1.443526031873203941e+00,-1.292119041131567725e+00,-7.006825573476734847e-01,-4.700890834584446898e-01,-3.347397038954562642e-01,-1.011124110555730704e+00,-4.202765000638755133e-01,-3.151110862576502747e-01,-5.931330583565523895e-01,-3.793089140282744354e-01,-2.062798134045847886e-01,-6.400805592889301510e-01,-2.217256358976305575e-01,-7.813432781128489824e-01,-4.242732429335391853e-01,-1.009538745371908686e+00,-5.647006984838559562e-01,-1.070763760286109756e+00,-1.678468910420565230e+00,-2.327976928594812644e+00,-2.663969847304049399e+00,-3.341557886356706142e+00,-3.314421649054713814e+00,-3.132123039886493210e+00,-3.020845878936322393e+00,-2.130938189535155125e+00,-2.400020539824050392e+00,-1.563790475087798670e+00,-1.415633034815111602e+00,-1.526352096074275355e+00,-1.180438615459933560e+00,-4.141738181969049082e-01,-7.134909431579948835e-01,-5.996413774400002339e-01,-3.678600712825811359e-01,-1.016297347510525917e+00,-9.311932712517798638e-01,3.056958653596997602e-02,-3.305317217044688172e-01,-5.395151925525425440e-01,-9.540355061524905533e-01,-1.602751270458188382e-01,-8.122739021982900987e-01,-1.235951575668669644e+00,-4.377152803641524148e-01,-6.659254139927128779e-01,-1.326212640836328394e+00,-1.337453746444272840e+00,-2.713368055753668795e+00,-2.500193875027978851e+00,-3.260320144297165434e+00,-3.112355131355635240e+00,-3.437375460357987578e+00,-3.084237986492188721e+00,-2.616165940234632004e+00,-1.528018435995330160e+00,-1.195334929305946314e+00,-1.099863130367268349e+00,-6.538134571874594236e-01,-7.961462732221453731e-01,-8.825114529363338178e-01,-7.402562796241570764e-01,-1.127263584781028394e+00,-1.222431939143612700e+00,-8.255384450665057550e-01,-6.935756284591750864e-01,-3.974104444598148822e-01,9.116426976657748815e-02,-4.415620284221590808e-01,-9.694803335694375246e-01,-5.833572491938708859e-01,-9.308250733307894542e-01,-1.301294343675932330e+00,-6.905973055445432385e-01,-1.079880798068937109e+00,-1.675502090931662913e+00,-1.488814917366473756e+00,-1.997812502795240253e+00,-2.178678732482063118e+00,-2.114170604993926617e+00,-1.914664030340593959e+00,-1.347555263499846667e+00,-9.778286601939909506e-01,-6.753694362203762624e-01,-8.870093580348070716e-01,-2.686034860223351917e-01,-6.393217828171359196e-01,-4.045349621194122003e-01,-6.137210898388749669e-01,-8.055364290173410158e-01,-5.063927049654297630e-01,-6.651653454369680363e-01,-8.258789501127404842e-01,-3.673714359528655882e-01,-7.293587380501941400e-03,9.665595691380304832e-02,-4.170841613657315650e-01,1.297523825533678232e-01,-4.857465092624860814e-01,-5.203589533801695755e-01,-6.361173658710450596e-01,-3.984998398467797243e-01,-8.192431412450710271e-01,-6.868821971723959585e-01,-1.236989657918948993e+00,-1.304742165154813893e+00,-1.798543820430970275e+00,-1.350918037863612975e+00,-1.266244169598245595e+00,-1.131703620295908319e+00,-1.354595493761478586e+00,-1.169669164880992485e+00,-9.919748560472374521e-01,-1.072517440147369383e+00,-1.218900437342152143e+00,-6.468273295613385931e-01,-8.526581921956339905e-01,-1.056979553873886202e+00,-1.519602449019887280e-01,-8.546770489044565045e-01,-8.035245209457480327e-04,-5.353370070850963502e-01,3.870738634667266753e-01,1.678107184079253855e-01,-4.483917190411710330e-01,-1.978007815479570497e-01,-3.184772402170911731e-01,-5.877982732795669074e-01,-4.044756986902872109e-01,-8.066825069799961057e-01,-2.900770843570199542e-01,-7.633357833364706746e-01,-6.726252245995349988e-01,-1.164403203905655326e+00,-6.043739722422446503e-01,-1.331243910548034703e+00,-1.201357868548949437e+00,-1.178453027805481890e+00,-5.708102239363616048e-01,-8.182559313641345478e-01,-1.134750558383699648e+00,-5.056190990489399795e-01,-5.513404946144705443e-01,-2.166401029402467704e-01,-4.724734950433977509e-01,-6.077292265113304337e-02,-7.588294152664718517e-01,-1.579218563342042192e-01,-6.887543221816568029e-02,1.676943761819312262e-01,-2.209978744536714168e-01,-1.072073300597735923e-01,-3.825016424359559686e-01,-1.803944875877968312e-01,-2.005982195255610334e-01,-3.622817303796528332e-01,-4.664122305807977265e-02,1.250103518792011759e-01,1.432888864350661817e-01,4.124501849047217117e-02,-2.847671081466389073e-02,-8.477721919245088111e-01,1.111427334341259787e-02,-6.025260830562798597e-01,-9.304805045083233139e-01,-6.277311631951488780e-01,-8.672522462362598494e-01,-3.567266990053192810e-01,6.655961650014056985e-02,-8.144388191869786908e-01,-6.293540695683700337e-01,-4.061554834357854471e-01,-6.727772583047954003e-01,1.227906180460869995e-01,-8.300487228808685058e-01,1.207976458338886061e-01,-3.585982209111115426e-01,-3.072256536157668139e-01,3.960166654517179308e-01
